{"learner":{"attributes":{},"feature_names":[],"feature_types":[],"gradient_booster":{"model":{"cats":{"enc":[],"feature_segments":[],"sorted_idx":[]},"gbtree_model_param":{"num_parallel_tree":"1","num_trees":"100"},"iteration_indptr":[0,1,2,3,4,5,6,7,8,9,10,11,12,13,14,15,16,17,18,19,20,21,22,23,24,25,26,27,28,29,30,31,32,33,34,35,36,37,38,39,40,41,42,43,44,45,46,47,48,49,50,51,52,53,54,55,56,57,58,59,60,61,62,63,64,65,66,67,68,69,70,71,72,73,74,75,76,77,78,79,80,81,82,83,84,85,86,87,88,89,90,91,92,93,94,95,96,97,98,99,100],"tree_info":[0,0,0,0,0,0,0,0,0,0,0,0,0,0,0,0,0,0,0,0,0,0,0,0,0,0,0,0,0,0,0,0,0,0,0,0,0,0,0,0,0,0,0,0,0,0,0,0,0,0,0,0,0,0,0,0,0,0,0,0,0,0,0,0,0,0,0,0,0,0,0,0,0,0,0,0,0,0,0,0,0,0,0,0,0,0,0,0,0,0,0,0,0,0,0,0,0,0,0,0],"trees":[{"base_weights":[-3.4847114E-2,-5.172846E-1,4.8390138E-1,-8.8654506E-1,1.9970292E-1,1.9169581E-1,8.3738434E-1,1.4966148E-1,-2.890217E-1,1.7699566E-1,-9.1301985E-2,1.8403876E-1,2.9123249E-2,7.8393415E-2,2.907434E-1],"categories":[],"categories_nodes":[],"categories_segments":[],"categories_sizes":[],"default_left":[1,0,0,0,0,0,0,0,0,0,0,0,0,0,0],"id":0,"left_children":[1,3,5,7,9,11,13,-1,-1,-1,-1,-1,-1,-1,-1],"loss_changes":[8.639054E1,4.7521603E1,1.7024189E1,1.3068954E1,1.2298594E1,3.6269808E0,5.439171E0,0E0,0E0,0E0,0E0,0E0,0E0,0E0,0E0],"parents":[2147483647,0,0,1,1,2,2,3,3,4,4,5,5,6,6],"right_children":[2,4,6,8,10,12,14,-1,-1,-1,-1,-1,-1,-1,-1],"split_conditions":[1.839E0,2.00001E0,3.171E0,2.00001E0,6E0,5.9E0,1.1952286E-1,1.4966148E-1,-2.890217E-1,1.7699566E-1,-9.1301985E-2,1.8403876E-1,2.9123249E-2,7.8393415E-2,2.907434E-1],"split_indices":[7,14,7,12,8,4,21,0,0,0,0,0,0,0,0],"split_type":[0,0,0,0,0,0,0,0,0,0,0,0,0,0,0],"sum_hessian":[3.4319785E2,1.7782393E2,1.6537392E2,1.17218155E2,6.0605778E1,9.137848E1,7.399543E1,5.872653E0,1.11345505E2,3.4061386E1,2.6544392E1,1.573871E1,7.563977E1,1.4329273E1,5.9666157E1],"tree_param":{"num_deleted":"0","num_feature":"22","num_nodes":"15","size_leaf_vector":"1"}},{"base_weights":[5.5544898E-2,-1.5388021E-1,6.799811E-1,-3.8832265E-1,4.8783552E-2,4.7211727E-1,1.0368273E0,-2.0605563E-1,4.520731E-2,3.3424042E-2,-1.5268841E-1,7.253037E-2,2.9727072E-1,3.3276227E-1,-6.135015E-4],"categories":[],"categories_nodes":[],"categories_segments":[],"categories_sizes":[],"default_left":[1,1,0,0,0,0,0,0,0,0,0,0,0,0,0],"id":1,"left_children":[1,3,5,7,9,11,13,-1,-1,-1,-1,-1,-1,-1,-1],"loss_changes":[4.4515152E1,1.2140711E1,5.850685E0,1.9155437E1,4.8676543E0,6.434491E0,2.3052025E0,0E0,0E0,0E0,0E0,0E0,0E0,0E0,0E0],"parents":[2147483647,0,0,1,1,2,2,3,3,4,4,5,5,6,6],"right_children":[2,4,6,8,10,12,14,-1,-1,-1,-1,-1,-1,-1,-1],"split_conditions":[2.84E0,1.215E0,4.378E0,2.00001E0,7E0,8.403214E0,1.095E1,-2.0605563E-1,4.520731E-2,3.3424042E-2,-1.5268841E-1,7.253037E-2,2.9727072E-1,3.3276227E-1,-6.135015E-4],"split_indices":[7,7,7,14,8,4,1,0,0,0,0,0,0,0,0],"split_type":[0,0,0,0,0,0,0,0,0,0,0,0,0,0,0],"sum_hessian":[3.38601E2,2.5412534E2,8.447567E1,1.1740016E2,1.3672517E2,5.484901E1,2.9626663E1,7.537816E1,4.2022E1,1.2364155E2,1.308363E1,3.899887E1,1.5850138E1,2.7633673E1,1.9929909E0],"tree_param":{"num_deleted":"0","num_feature":"22","num_nodes":"15","size_leaf_vector":"1"}},{"base_weights":[4.322637E-2,-8.522842E-2,3.90739E-1,1.8329903E-2,-3.81102E-1,4.7721806E-1,-4.1727853E-1,-1.2691025E-2,2.2238632E-1,-1.451705E-1,1.20247595E-1,6.946444E-2,1.9869712E-1,-3.174871E-1,1.106551E-1],"categories":[],"categories_nodes":[],"categories_segments":[],"categories_sizes":[],"default_left":[1,0,0,0,0,0,0,0,0,0,0,0,0,0,0],"id":2,"left_children":[1,3,5,7,9,11,13,-1,-1,-1,-1,-1,-1,-1,-1],"loss_changes":[1.4978343E1,7.5217757E0,6.525302E0,8.036855E0,5.3088827E0,3.5868244E0,5.0698276E0,0E0,0E0,0E0,0E0,0E0,0E0,0E0,0E0],"parents":[2147483647,0,0,1,1,2,2,3,3,4,4,5,5,6,6],"right_children":[2,4,6,8,10,12,14,-1,-1,-1,-1,-1,-1,-1,-1],"split_conditions":[2.644E0,3.1622776E-1,1.055E1,7.58E1,4.63E1,7.9217577E0,1.11E1,-1.2691025E-2,2.2238632E-1,-1.451705E-1,1.20247595E-1,6.946444E-2,1.9869712E-1,-3.174871E-1,1.106551E-1],"split_indices":[7,20,1,0,2,1,1,0,0,0,0,0,0,0,0],"split_type":[0,0,0,0,0,0,0,0,0,0,0,0,0,0,0],"sum_hessian":[3.3379285E2,2.442594E2,8.9533455E1,1.8162657E2,6.263283E1,8.124726E1,8.28619E0,1.6844116E2,1.3185406E1,5.569215E1,6.94068E0,3.587943E1,4.5367836E1,4.373677E0,3.912513E0],"tree_param":{"num_deleted":"0","num_feature":"22","num_nodes":"15","size_leaf_vector":"1"}},{"base_weights":[-5.648945E-2,-1.3962293E-1,3.8564295E-1,-2.5410292E-1,1.8689834E-1,-1.5630013E-1,5.959259E-1,-9.546025E-2,1.2508413E-1,1.2850958E-1,-1.1698178E-1,7.684072E-2,-2.4576114E-1,2.8136548E-1,7.681048E-2],"categories":[],"categories_nodes":[],"categories_segments":[],"categories_sizes":[],"default_left":[1,0,0,0,0,0,0,0,0,0,0,0,0,0,0],"id":3,"left_children":[1,3,5,7,9,11,13,-1,-1,-1,-1,-1,-1,-1,-1],"loss_changes":[1.2220489E1,1.0489872E1,6.093748E0,9.047605E0,1.0348179E1,4.4508123E0,4.193186E0,0E0,0E0,0E0,0E0,0E0,0E0,0E0,0E0],"parents":[2147483647,0,0,1,1,2,2,3,3,4,4,5,5,6,6],"right_children":[2,4,6,8,10,12,14,-1,-1,-1,-1,-1,-1,-1,-1],"split_conditions":[3.315E0,2.00001E0,6.2278185E0,1.3063192E1,7E0,6.5E0,2.00001E0,-9.546025E-2,1.2508413E-1,1.2850958E-1,-1.1698178E-1,7.684072E-2,-2.4576114E-1,2.8136548E-1,7.681048E-2],"split_indices":[7,14,4,5,8,6,10,0,0,0,0,0,0,0,0],"split_type":[0,0,0,0,0,0,0,0,0,0,0,0,0,0,0],"sum_hessian":[3.3001105E2,2.7835632E2,5.1654713E1,2.0626173E2,7.209461E1,1.4511716E1,3.7142998E1,1.8875763E2,1.7504093E1,5.100223E1,2.109238E1,9.32416E0,5.1875563E0,1.7638157E1,1.9504839E1],"tree_param":{"num_deleted":"0","num_feature":"22","num_nodes":"15","size_leaf_vector":"1"}},{"base_weights":[2.861133E-2,-1.4856546E-1,1.9710985E-1,-1.8308495E-1,8.870218E-1,3.653515E-1,7.7326694E-3,-9.4979584E-2,2.9925639E-2,-1.0735817E-1,4.039319E-1,1.200727E-1,-2.900662E-1,-8.494402E-2,9.020972E-2],"categories":[],"categories_nodes":[],"categories_segments":[],"categories_sizes":[],"default_left":[0,0,0,0,0,0,0,0,0,0,0,0,0,0,0],"id":4,"left_children":[1,3,5,7,9,11,13,-1,-1,-1,-1,-1,-1,-1,-1],"loss_changes":[9.754451E0,5.859184E0,5.330651E0,5.886601E0,3.5197206E0,4.506481E0,6.8832917E0,0E0,0E0,0E0,0E0,0E0,0E0,0E0,0E0],"parents":[2147483647,0,0,1,1,2,2,3,3,4,4,5,5,6,6],"right_children":[2,4,6,8,10,12,14,-1,-1,-1,-1,-1,-1,-1,-1],"split_conditions":[1.588E0,1.1910173E1,7E0,2.00001E0,4E0,7.46E1,7.24E1,-9.4979584E-2,2.9925639E-2,-1.0735817E-1,4.039319E-1,1.200727E-1,-2.900662E-1,-8.494402E-2,9.020972E-2],"split_indices":[7,4,9,14,9,0,0,0,0,0,0,0,0,0,0],"split_type":[0,0,0,0,0,0,0,0,0,0,0,0,0,0,0],"sum_hessian":[3.2475732E2,1.5835976E2,1.6639755E2,1.5404805E2,4.311716E0,8.762381E1,7.877374E1,1.0456745E2,4.9480587E1,1.221872E0,3.0898442E0,8.606926E1,1.5545489E0,3.9544483E1,3.9229263E1],"tree_param":{"num_deleted":"0","num_feature":"22","num_nodes":"15","size_leaf_vector":"1"}},{"base_weights":[2.092229E-2,-3.678853E-2,7.029342E-1,-3.299217E-1,3.684461E-2,7.9732066E-1,-2.054653E-1,-5.199883E-2,-3.5781E-1,3.235926E-1,6.4179965E-4,1.7094666E-1,3.4149858E-1],"categories":[],"categories_nodes":[],"categories_segments":[],"categories_sizes":[],"default_left":[1,0,0,0,0,0,0,0,0,0,0,0,0],"id":5,"left_children":[1,3,5,7,9,11,-1,-1,-1,-1,-1,-1,-1],"loss_changes":[1.2670806E1,6.4260254E0,3.8357944E0,7.8668447E0,8.617112E0,1.2114515E0,0E0,0E0,0E0,0E0,0E0,0E0,0E0],"parents":[2147483647,0,0,1,1,2,2,3,3,4,4,5,5],"right_children":[2,4,6,8,10,12,-1,-1,-1,-1,-1,-1,-1],"split_conditions":[4.378E0,6.37E1,1.125E1,7E0,6.0917244E0,4.4914234E1,-2.054653E-1,-5.199883E-2,-3.5781E-1,3.235926E-1,6.4179965E-4,1.7094666E-1,3.4149858E-1],"split_indices":[7,0,1,8,3,2,0,0,0,0,0,0,0],"split_type":[0,0,0,0,0,0,0,0,0,0,0,0,0],"sum_hessian":[3.2026822E2,2.9615417E2,2.411406E1,5.875805E1,2.3739612E2,2.2976873E1,1.1371857E0,5.0748253E1,8.009795E0,6.6836452E0,2.3071246E2,1.5384392E1,7.592481E0],"tree_param":{"num_deleted":"0","num_feature":"22","num_nodes":"13","size_leaf_vector":"1"}},{"base_weights":[2.928677E-2,-1.1783109E-1,2.2415853E-1,-2.896958E-1,1.2022208E-1,3.2879794E-1,-1.9306356E-2,1.2675807E-1,-1.0891884E-1,1.3804059E-1,-4.2298313E-2,6.957647E-2,2.3187953E-1,-1.5750681E-1,8.009979E-2],"categories":[],"categories_nodes":[],"categories_segments":[],"categories_sizes":[],"default_left":[0,0,0,0,0,0,0,0,0,0,0,0,0,0,0],"id":6,"left_children":[1,3,5,7,9,11,13,-1,-1,-1,-1,-1,-1,-1,-1],"loss_changes":[9.049285E0,7.3987913E0,3.4642959E0,5.630636E0,6.82816E0,3.9076872E0,6.1845193E0,0E0,0E0,0E0,0E0,0E0,0E0,0E0,0E0],"parents":[2147483647,0,0,1,1,2,2,3,3,4,4,5,5,6,6],"right_children":[2,4,6,8,10,12,14,-1,-1,-1,-1,-1,-1,-1,-1],"split_conditions":[1.854E0,4.45E1,1.12E1,1.35E-1,2.00001E0,8.636169E0,7.75E0,1.2675807E-1,-1.0891884E-1,1.3804059E-1,-4.2298313E-2,6.957647E-2,2.3187953E-1,-1.5750681E-1,8.009979E-2],"split_indices":[7,2,5,7,10,6,1,0,0,0,0,0,0,0,0],"split_type":[0,0,0,0,0,0,0,0,0,0,0,0,0,0,0],"sum_hessian":[3.1372446E2,1.7899104E2,1.3473343E2,1.0382017E2,7.517088E1,9.398771E1,4.0745716E1,9.251406E0,9.4568756E1,3.233404E1,4.2836838E1,7.840736E1,1.5580356E1,1.4427645E1,2.631807E1],"tree_param":{"num_deleted":"0","num_feature":"22","num_nodes":"15","size_leaf_vector":"1"}},{"base_weights":[4.67861E-2,4.2533474E-3,5.8359957E-1,-7.510334E-2,2.5420585E-1,6.752359E-1,-1.8527308E-1,1.9639882E-1,-3.2479428E-2,-1.828363E-1,1.0276005E-1,-1.1083361E-1,2.3206073E-1],"categories":[],"categories_nodes":[],"categories_segments":[],"categories_sizes":[],"default_left":[0,0,0,0,0,0,0,0,0,0,0,0,0],"id":7,"left_children":[1,3,5,7,9,11,-1,-1,-1,-1,-1,-1,-1],"loss_changes":[7.317558E0,5.931482E0,3.006959E0,5.5646634E0,5.7056575E0,2.579875E0,0E0,0E0,0E0,0E0,0E0,0E0,0E0],"parents":[2147483647,0,0,1,1,2,2,3,3,4,4,5,5],"right_children":[2,4,6,8,10,12,-1,-1,-1,-1,-1,-1,-1],"split_conditions":[4.18E0,2.00001E0,1.145E1,2.00001E0,6.07954E1,5.2085223E0,-1.8527308E-1,1.9639882E-1,-3.2479428E-2,-1.828363E-1,1.0276005E-1,-1.1083361E-1,2.3206073E-1],"split_indices":[7,14,1,12,0,4,0,0,0,0,0,0,0],"split_type":[0,0,0,0,0,0,0,0,0,0,0,0,0],"sum_hessian":[3.196023E2,2.970726E2,2.2529703E1,2.2601521E2,7.105737E1,2.1339584E1,1.1901174E0,9.009355E0,2.1700586E2,6.0454574E0,6.501192E1,1.5980417E0,1.9741543E1],"tree_param":{"num_deleted":"0","num_feature":"22","num_nodes":"13","size_leaf_vector":"1"}},{"base_weights":[-1.8192142E-2,2.5684854E-1,-7.529701E-2,-4.0446872E-1,4.044911E-1,-2.1717306E-2,-3.453723E-1,1.23144165E-1,-3.3503383E-1,6.493271E-2,3.0221593E-1,-1.8247157E-2,1.3575293E-1,-1.2980276E-1,3.1475914E-1],"categories":[],"categories_nodes":[],"categories_segments":[],"categories_sizes":[],"default_left":[0,0,0,0,0,1,0,0,0,0,0,0,0,0,0],"id":8,"left_children":[1,3,5,7,9,11,13,-1,-1,-1,-1,-1,-1,-1,-1],"loss_changes":[4.9004908E0,5.402709E0,3.727657E0,6.43354E0,4.8117867E0,4.0418096E0,5.648312E0,0E0,0E0,0E0,0E0,0E0,0E0,0E0,0E0],"parents":[2147483647,0,0,1,1,2,2,3,3,4,4,5,5,6,6],"right_children":[2,4,6,8,10,12,14,-1,-1,-1,-1,-1,-1,-1,-1],"split_conditions":[2.00001E0,6.7E0,-1.4819496E-18,4.05E1,9.8E0,4.378E0,7.83E1,1.23144165E-1,-3.3503383E-1,6.493271E-2,3.0221593E-1,-1.8247157E-2,1.3575293E-1,-1.2980276E-1,3.1475914E-1],"split_indices":[16,1,18,2,6,7,0,0,0,0,0,0,0,0,0],"split_type":[0,0,0,0,0,0,0,0,0,0,0,0,0,0,0],"sum_hessian":[3.097794E2,5.2658142E1,2.5712125E2,9.293117E0,4.3365025E1,2.1545747E2,4.1663773E1,4.5319176E0,4.7611985E0,3.409079E1,9.274234E0,1.9984892E2,1.5608552E1,3.9858284E1,1.8054861E0],"tree_param":{"num_deleted":"0","num_feature":"22","num_nodes":"15","size_leaf_vector":"1"}},{"base_weights":[9.584502E-3,-1.420577E-1,1.4672163E-1,9.533967E-1,-1.7252094E-1,1.786916E-1,-8.4514326E-1,3.9161724E-1,-1.0488479E-2,-1.9339184E-1,-2.3033028E-2,-2.3594736E-1,6.283316E-2,-3.5762653E-1,8.264531E-2],"categories":[],"categories_nodes":[],"categories_segments":[],"categories_sizes":[],"default_left":[0,0,0,0,0,0,0,0,0,0,0,0,0,0,0],"id":9,"left_children":[1,3,5,7,9,11,13,-1,-1,-1,-1,-1,-1,-1,-1],"loss_changes":[6.472646E0,5.0980406E0,5.3326225E0,1.4905286E0,6.4906945E0,4.887936E0,2.380086E0,0E0,0E0,0E0,0E0,0E0,0E0,0E0,0E0],"parents":[2147483647,0,0,1,1,2,2,3,3,4,4,5,5,6,6],"right_children":[2,4,6,8,10,12,14,-1,-1,-1,-1,-1,-1,-1,-1],"split_conditions":[5.345225E-1,3.87E1,1.48E1,9.051413E0,6.32E1,3.9386524E1,4.65E1,3.9161724E-1,-1.0488479E-2,-1.9339184E-1,-2.3033028E-2,-2.3594736E-1,6.283316E-2,-3.5762653E-1,8.264531E-2],"split_indices":[19,2,5,3,0,2,2,0,0,0,0,0,0,0,0],"split_type":[0,0,0,0,0,0,0,0,0,0,0,0,0,0,0],"sum_hessian":[3.0924588E2,1.4683936E2,1.6240652E2,3.1532223E0,1.4368613E2,1.581295E2,4.277016E0,2.088616E0,1.0646065E0,2.3259523E1,1.2042661E2,4.123864E0,1.5400565E2,3.2172046E0,1.0598116E0],"tree_param":{"num_deleted":"0","num_feature":"22","num_nodes":"15","size_leaf_vector":"1"}},{"base_weights":[1.9914785E-2,1.5149625E-1,-1.2479138E-1,1.2199408E-1,9.905423E-1,-5.0632924E-1,-1.9381585E-2,4.5209337E-2,-1.843341E-1,3.8457516E-1,-3.165923E-2,4.4908505E-2,-2.098839E-1,-1.0159417E-1,4.4495054E-2],"categories":[],"categories_nodes":[],"categories_segments":[],"categories_sizes":[],"default_left":[0,0,0,0,0,0,0,0,0,0,0,0,0,0,0],"id":10,"left_children":[1,3,5,7,9,11,13,-1,-1,-1,-1,-1,-1,-1,-1],"loss_changes":[5.9326735E0,3.9170275E0,5.9611096E0,3.4477448E0,1.8599787E0,4.1747656E0,6.3340526E0,0E0,0E0,0E0,0E0,0E0,0E0,0E0,0E0],"parents":[2147483647,0,0,1,1,2,2,3,3,4,4,5,5,6,6],"right_children":[2,4,6,8,10,12,14,-1,-1,-1,-1,-1,-1,-1,-1],"split_conditions":[8.373537E0,8.3E0,6.96E1,7.21E1,1E1,4.3457333E1,8.8E0,4.5209337E-2,-1.843341E-1,3.8457516E-1,-3.165923E-2,4.4908505E-2,-2.098839E-1,-1.0159417E-1,4.4495054E-2],"split_indices":[1,1,0,0,9,2,5,0,0,0,0,0,0,0,0],"split_type":[0,0,0,0,0,0,0,0,0,0,0,0,0,0,0],"sum_hessian":[3.095865E2,1.6212193E2,1.4746457E2,1.5772159E2,4.400341E0,3.1098392E1,1.1636617E2,1.5257034E2,5.1512465E0,3.3422885E0,1.0580523E0,7.1286297E0,2.3969763E1,3.9722595E1,7.664358E1],"tree_param":{"num_deleted":"0","num_feature":"22","num_nodes":"15","size_leaf_vector":"1"}},{"base_weights":[-5.613473E-3,-3.3746892E-1,5.0838906E-2,-4.1301128E-1,3.5097152E-1,6.062257E-1,8.157762E-3,6.1115198E-2,-2.0036152E-1,2.3378405E-1,-1.0060243E-1,-1.2397267E-1,2.1230808E-2],"categories":[],"categories_nodes":[],"categories_segments":[],"categories_sizes":[],"default_left":[0,0,1,0,0,0,0,0,0,0,0,0,0],"id":11,"left_children":[1,3,5,7,-1,9,11,-1,-1,-1,-1,-1,-1],"loss_changes":[5.7767177E0,5.587601E0,6.243857E0,6.961788E0,0E0,3.3244843E0,6.514902E0,0E0,0E0,0E0,0E0,0E0,0E0],"parents":[2147483647,0,0,1,1,2,2,3,3,5,5,6,6],"right_children":[2,4,6,8,-1,10,12,-1,-1,-1,-1,-1,-1],"split_conditions":[4.81E-1,1.065E1,6.25E-1,7.2E0,3.5097152E-1,4.62E1,9.16E-1,6.1115198E-2,-2.0036152E-1,2.3378405E-1,-1.0060243E-1,-1.2397267E-1,2.1230808E-2],"split_indices":[7,1,7,1,0,2,7,0,0,0,0,0,0],"split_type":[0,0,0,0,0,0,0,0,0,0,0,0,0],"sum_hessian":[3.0643845E2,4.3826473E1,2.6261197E2,4.242628E1,1.4001958E0,1.779904E1,2.4481294E2,1.2464501E1,2.9961777E1,1.5181186E1,2.617853E0,3.0944504E1,2.1386844E2],"tree_param":{"num_deleted":"0","num_feature":"22","num_nodes":"13","size_leaf_vector":"1"}},{"base_weights":[2.858464E-2,7.277709E-2,-3.1608796E-1,4.88068E-1,2.9469665E-2,1.382188E-1,-6.170155E-1,1.8169147E-1,-3.270619E-1,-3.2873947E-2,5.195569E-2,3.3014235E-1,-2.9786212E-2,-2.8141743E-1,7.7052444E-2],"categories":[],"categories_nodes":[],"categories_segments":[],"categories_sizes":[],"default_left":[0,0,0,0,1,0,0,0,0,0,0,0,0,0,0],"id":12,"left_children":[1,3,5,7,9,11,13,-1,-1,-1,-1,-1,-1,-1,-1],"loss_changes":[4.7178373E0,4.913703E0,4.8996572E0,5.449803E0,4.99883E0,3.502796E0,6.2351875E0,0E0,0E0,0E0,0E0,0E0,0E0,0E0,0E0],"parents":[2147483647,0,0,1,1,2,2,3,3,4,4,5,5,6,6],"right_children":[2,4,6,8,10,12,14,-1,-1,-1,-1,-1,-1,-1,-1],"split_conditions":[1.025E1,2.00001E0,7.959998E0,9.9E0,1.588E0,7.33E1,1.04E1,1.8169147E-1,-3.270619E-1,-3.2873947E-2,5.195569E-2,3.3014235E-1,-2.9786212E-2,-2.8141743E-1,7.7052444E-2],"split_indices":[1,17,6,1,7,0,4,0,0,0,0,0,0,0,0],"split_type":[0,0,0,0,0,0,0,0,0,0,0,0,0,0,0],"sum_hessian":[3.072232E2,2.7300812E2,3.4215084E1,2.4811512E1,2.4819661E2,1.384864E1,2.0366442E1,2.3664911E1,1.1466019E0,1.2626702E2,1.21929596E2,2.0222092E0,1.1826431E1,1.484071E1,5.525733E0],"tree_param":{"num_deleted":"0","num_feature":"22","num_nodes":"15","size_leaf_vector":"1"}},{"base_weights":[1.2576068E-2,6.538212E-2,-2.1172957E-1,-3.207684E-1,1.2736882E-1,-6.0589695E-1,3.4762938E-2,-1.7364208E-3,-3.6992586E-1,2.0380789E-1,1.8764488E-2,1.7857386E-1,-2.2413597E-1,2.7264708E-1,-4.3928847E-2],"categories":[],"categories_nodes":[],"categories_segments":[],"categories_sizes":[],"default_left":[0,0,0,0,0,0,0,0,0,0,0,0,0,0,0],"id":13,"left_children":[1,3,5,7,9,11,13,-1,-1,-1,-1,-1,-1,-1,-1],"loss_changes":[3.5894172E0,5.9078827E0,5.6329985E0,9.817251E0,7.5401793E0,4.223605E0,5.9109745E0,0E0,0E0,0E0,0E0,0E0,0E0,0E0,0E0],"parents":[2147483647,0,0,1,1,2,2,3,3,4,4,5,5,6,6],"right_children":[2,4,6,8,10,12,14,-1,-1,-1,-1,-1,-1,-1,-1],"split_conditions":[1E1,4.81E-1,8.7E0,3.81E-1,7.63E-1,6.5E0,5.39E-1,-1.7364208E-3,-3.6992586E-1,2.0380789E-1,1.8764488E-2,1.7857386E-1,-2.2413597E-1,2.7264708E-1,-4.3928847E-2],"split_indices":[9,7,5,7,7,3,7,0,0,0,0,0,0,0,0],"split_type":[0,0,0,0,0,0,0,0,0,0,0,0,0,0,0],"sum_hessian":[3.0087128E2,2.4411111E2,5.676015E1,3.318818E1,2.1092293E2,2.1277355E1,3.5482796E1,2.541866E1,7.7695208E0,2.1169514E1,1.8975342E2,1.9002463E0,1.9377108E1,5.4030476E0,3.0079748E1],"tree_param":{"num_deleted":"0","num_feature":"22","num_nodes":"15","size_leaf_vector":"1"}},{"base_weights":[-3.4947645E-2,-6.359301E-2,3.9919403E-1,-9.890463E-2,3.860636E-1,5.0643164E-1,-2.1310546E-1,1.6910675E-3,-1.2622985E-1,1.7603632E-2,2.4947694E-1,2.4340685E-1,-8.1823245E-3],"categories":[],"categories_nodes":[],"categories_segments":[],"categories_sizes":[],"default_left":[0,0,0,0,0,0,0,0,0,0,0,0,0],"id":14,"left_children":[1,3,5,7,9,11,-1,-1,-1,-1,-1,-1,-1],"loss_changes":[3.719651E0,4.476654E0,2.5638943E0,8.750038E0,2.949681E0,2.8661394E0,0E0,0E0,0E0,0E0,0E0,0E0,0E0],"parents":[2147483647,0,0,1,1,2,2,3,3,4,4,5,5],"right_children":[2,4,6,8,10,12,-1,-1,-1,-1,-1,-1,-1],"split_conditions":[1.36E1,7.62E1,1.185E1,9.15E0,7.6532087E0,1.0452233E1,-2.1310546E-1,1.6910675E-3,-1.2622985E-1,1.7603632E-2,2.4947694E-1,2.4340685E-1,-8.1823245E-3],"split_indices":[5,0,1,1,4,4,0,0,0,0,0,0,0],"split_type":[0,0,0,0,0,0,0,0,0,0,0,0,0],"sum_hessian":[2.9605865E2,2.7853406E2,1.7524603E1,2.5897662E2,1.955744E1,1.6475786E1,1.0488168E0,1.9622476E2,6.2751858E1,1.1925767E1,7.631673E0,1.0154145E1,6.32164E0],"tree_param":{"num_deleted":"0","num_feature":"22","num_nodes":"13","size_leaf_vector":"1"}},{"base_weights":[-9.1180345E-3,4.0353647E-1,-8.982445E-2,5.9573805E-1,-1.0135696E0,-5.063794E-1,-2.6187602E-2,6.566469E-3,2.7232218E-1,5.80152E-2,-4.2730063E-1,-2.4411146E-1,1.9646863E-2,2.0296002E-2,-5.1164072E-2],"categories":[],"categories_nodes":[],"categories_segments":[],"categories_sizes":[],"default_left":[0,0,1,0,0,0,0,0,0,0,0,0,0,0,0],"id":15,"left_children":[1,3,5,7,9,11,13,-1,-1,-1,-1,-1,-1,-1,-1],"loss_changes":[9.848168E0,1.3780308E1,6.5406613E0,7.7200003E0,3.3234334E0,5.802204E0,2.931285E0,0E0,0E0,0E0,0E0,0E0,0E0,0E0,0E0],"parents":[2147483647,0,0,1,1,2,2,3,3,4,4,5,5,6,6],"right_children":[2,4,6,8,10,12,14,-1,-1,-1,-1,-1,-1,-1,-1],"split_conditions":[2.00001E0,8E0,5.82E-1,8.812695E0,6.9E0,-1.4819496E-18,2.2749906E0,6.566469E-3,2.7232218E-1,5.80152E-2,-4.2730063E-1,-2.4411146E-1,1.9646863E-2,2.0296002E-2,-5.1164072E-2],"split_indices":[15,8,7,3,6,18,7,0,0,0,0,0,0,0,0],"split_type":[0,0,0,0,0,0,0,0,0,0,0,0,0,0,0],"sum_hessian":[2.9361807E2,4.7377148E1,2.4624094E2,4.222922E1,5.147925E0,3.1710775E1,2.1453015E2,1.5250298E1,2.6978924E1,1.441519E0,3.7064056E0,2.0351099E1,1.1359677E1,1.3033627E2,8.4193886E1],"tree_param":{"num_deleted":"0","num_feature":"22","num_nodes":"15","size_leaf_vector":"1"}},{"base_weights":[2.8596366E-2,2.608513E-1,-1.8798353E-2,5.451E-1,-5.206591E-1,-1.8803522E-1,6.5420315E-2,-3.1595055E-2,2.0377596E-1,-3.8314173E-1,-2.5936835E-2,-9.84652E-2,2.8765524E-2,2.656627E-1,6.9333194E-3],"categories":[],"categories_nodes":[],"categories_segments":[],"categories_sizes":[],"default_left":[0,0,0,0,0,0,0,0,0,0,0,0,0,0,0],"id":16,"left_children":[1,3,5,7,9,11,13,-1,-1,-1,-1,-1,-1,-1,-1],"loss_changes":[3.3096638E0,1.1601751E1,3.579446E0,3.374051E0,4.5209627E0,3.3516285E0,5.803892E0,0E0,0E0,0E0,0E0,0E0,0E0,0E0,0E0],"parents":[2147483647,0,0,1,1,2,2,3,3,4,4,5,5,6,6],"right_children":[2,4,6,8,10,12,14,-1,-1,-1,-1,-1,-1,-1,-1],"split_conditions":[2.00001E0,1.17E1,8.8E0,6.7E0,8.297683E0,7.24E1,5.5E0,-3.1595055E-2,2.0377596E-1,-3.8314173E-1,-2.5936835E-2,-9.84652E-2,2.8765524E-2,2.656627E-1,6.9333194E-3],"split_indices":[16,5,5,1,6,0,4,0,0,0,0,0,0,0,0],"split_type":[0,0,0,0,0,0,0,0,0,0,0,0,0,0,0],"sum_hessian":[2.992238E2,4.9948826E1,2.4927495E2,3.6848793E1,1.3100032E1,8.241993E1,1.6685503E2,6.3375096E0,3.0511284E1,4.069208E0,9.030824E0,5.507254E1,2.734739E1,7.207854E0,1.5964717E2],"tree_param":{"num_deleted":"0","num_feature":"22","num_nodes":"15","size_leaf_vector":"1"}},{"base_weights":[-1.9867595E-2,7.956903E-3,-3.8482237E-1,3.0156469E-2,-5.371255E-1,2.2412916E-1,-5.2760583E-1,1.3010895E-3,1.6098242E-1,-2.8740424E-1,1.6104147E-1,-3.13726E-1,-7.0094354E-2],"categories":[],"categories_nodes":[],"categories_segments":[],"categories_sizes":[],"default_left":[0,0,0,0,0,0,0,0,0,0,0,0,0],"id":17,"left_children":[1,3,5,7,9,-1,11,-1,-1,-1,-1,-1,-1],"loss_changes":[3.140012E0,3.501321E0,3.934271E0,3.6288207E0,5.63278E0,0E0,2.8074913E0,0E0,0E0,0E0,0E0,0E0,0E0],"parents":[2147483647,0,0,1,1,2,2,3,3,4,4,6,6],"right_children":[2,4,6,8,10,-1,12,-1,-1,-1,-1,-1,-1],"split_conditions":[8E0,4.77E1,5.9E0,4.680796E1,7.73E1,2.2412916E-1,1.1952286E-1,1.3010895E-3,1.6098242E-1,-2.8740424E-1,1.6104147E-1,-3.13726E-1,-7.0094354E-2],"split_indices":[8,2,4,2,0,0,21,0,0,0,0,0,0],"split_type":[0,0,0,0,0,0,0,0,0,0,0,0,0],"sum_hessian":[3.0791656E2,2.8701263E2,2.0903917E1,2.7668863E2,1.03240185E1,1.867431E0,1.9036486E1,2.642266E2,1.2462022E1,7.4946823E0,2.829336E0,5.9649053E0,1.3071581E1],"tree_param":{"num_deleted":"0","num_feature":"22","num_nodes":"13","size_leaf_vector":"1"}},{"base_weights":[-3.433985E-2,-5.0791353E-1,-1.1635701E-2,-7.2315395E-1,2.775375E-1,8.709219E-1,-2.492332E-2,-1.00913405E-1,-3.793741E-1,4.0519205E-3,3.517305E-1,2.3733445E-2,-4.006594E-2],"categories":[],"categories_nodes":[],"categories_segments":[],"categories_sizes":[],"default_left":[0,0,0,0,0,0,0,0,0,0,0,0,0],"id":18,"left_children":[1,3,5,7,-1,9,11,-1,-1,-1,-1,-1,-1],"loss_changes":[3.243092E0,4.9257965E0,3.4152148E0,2.2047749E0,0E0,1.1009662E0,3.2433362E0,0E0,0E0,0E0,0E0,0E0,0E0],"parents":[2147483647,0,0,1,1,2,2,3,3,5,5,6,6],"right_children":[2,4,6,8,-1,10,12,-1,-1,-1,-1,-1,-1],"split_conditions":[-3.1622776E-1,1.05E1,5.9E0,4.529096E1,2.775375E-1,5E0,7E0,-1.00913405E-1,-3.793741E-1,4.0519205E-3,3.517305E-1,2.3733445E-2,-4.006594E-2],"split_indices":[20,6,5,2,0,8,9,0,0,0,0,0,0],"split_type":[0,0,0,0,0,0,0,0,0,0,0,0,0],"sum_hessian":[3.011741E2,1.2800676E1,2.8837344E2,1.1559783E1,1.2408935E0,3.3199513E0,2.8505347E2,7.6885996E0,3.8711836E0,1.1355556E0,2.1843956E0,1.4574509E2,1.3930838E2],"tree_param":{"num_deleted":"0","num_feature":"22","num_nodes":"13","size_leaf_vector":"1"}},{"base_weights":[5.6114304E-3,-4.9007617E-2,1.907092E-1,3.4802118E-1,-1.1295004E-1,2.456923E-1,-3.793338E-1,-1.5672858E-1,1.679154E-1,-1.3095558E-1,-4.3403422E-3,1.858621E-1,3.9522305E-2],"categories":[],"categories_nodes":[],"categories_segments":[],"categories_sizes":[],"default_left":[0,0,0,0,0,0,0,0,0,0,0,0,0],"id":19,"left_children":[1,3,5,7,9,11,-1,-1,-1,-1,-1,-1,-1],"loss_changes":[3.0772612E0,6.008065E0,5.85902E0,6.34717E0,6.470495E0,2.8006916E0,0E0,0E0,0E0,0E0,0E0,0E0,0E0],"parents":[2147483647,0,0,1,1,2,2,3,3,4,4,5,5],"right_children":[2,4,6,8,10,12,-1,-1,-1,-1,-1,-1,-1],"split_conditions":[2.00001E0,4.13E1,1.175E1,5.87E1,6.59E1,4E0,-3.793338E-1,-1.5672858E-1,1.679154E-1,-1.3095558E-1,-4.3403422E-3,1.858621E-1,3.9522305E-2],"split_indices":[14,2,1,0,0,8,0,0,0,0,0,0,0],"split_type":[0,0,0,0,0,0,0,0,0,0,0,0,0],"sum_hessian":[3.0245758E2,2.3411089E2,6.83467E1,3.1857819E1,2.0225305E2,6.665914E1,1.6875608E0,5.945098E0,2.5912722E1,4.6393227E1,1.5585983E2,1.4535294E1,5.212385E1],"tree_param":{"num_deleted":"0","num_feature":"22","num_nodes":"13","size_leaf_vector":"1"}},{"base_weights":[-3.7979197E-2,3.1897716E-2,-2.9487252E-1,4.067968E-1,-2.5114466E-2,-4.6312067E-1,3.191554E-1,1.6301823E-1,-1.20532155E-1,9.264696E-2,-2.6782362E-2,-2.4576631E-1,-7.201007E-2,3.0203754E-1,-4.6426617E-3],"categories":[],"categories_nodes":[],"categories_segments":[],"categories_sizes":[],"default_left":[0,0,0,0,0,0,0,0,0,0,0,0,0,0,0],"id":20,"left_children":[1,3,5,7,9,11,13,-1,-1,-1,-1,-1,-1,-1,-1],"loss_changes":[5.448048E0,5.1204247E0,6.851087E0,3.7104402E0,4.4941297E0,3.881752E0,3.3629823E0,0E0,0E0,0E0,0E0,0E0,0E0,0E0,0E0],"parents":[2147483647,0,0,1,1,2,2,3,3,4,4,5,5,6,6],"right_children":[2,4,6,8,10,12,14,-1,-1,-1,-1,-1,-1,-1,-1],"split_conditions":[6E0,7.5E0,4.570185E1,4.62E1,2.00001E0,8.8368845E0,6.9E0,1.6301823E-1,-1.20532155E-1,9.264696E-2,-2.6782362E-2,-2.4576631E-1,-7.201007E-2,3.0203754E-1,-4.6426617E-3],"split_indices":[8,5,2,2,11,5,6,0,0,0,0,0,0,0,0],"split_type":[0,0,0,0,0,0,0,0,0,0,0,0,0,0,0],"sum_hessian":[3.01973E2,2.3808731E2,6.38857E1,3.0617613E1,2.074697E2,5.0338383E1,1.35473175E1,2.6473265E1,4.1443486E0,3.2822613E1,1.7464708E2,1.8359703E1,3.1978678E1,3.7770855E0,9.770232E0],"tree_param":{"num_deleted":"0","num_feature":"22","num_nodes":"15","size_leaf_vector":"1"}},{"base_weights":[1.3973417E-2,-4.350809E-2,1.9817643E-1,-1.1584855E-2,-5.054772E-1,-1.8743971E-1,3.2774553E-1,-2.4616616E-2,9.049535E-2,1.9434959E-1,-2.0691423E-1,2.2280288E-3,-3.970877E-1,-2.9809985E-1,1.21371426E-1],"categories":[],"categories_nodes":[],"categories_segments":[],"categories_sizes":[],"default_left":[0,0,0,0,0,0,0,0,0,0,0,0,0,0,0],"id":21,"left_children":[1,3,5,7,9,11,13,-1,-1,-1,-1,-1,-1,-1,-1],"loss_changes":[3.2472396E0,3.4442096E0,3.705144E0,4.8775682E0,3.6547875E0,4.211484E0,5.9804125E0,0E0,0E0,0E0,0E0,0E0,0E0,0E0,0E0],"parents":[2147483647,0,0,1,1,2,2,3,3,4,4,5,5,6,6],"right_children":[2,4,6,8,10,12,14,-1,-1,-1,-1,-1,-1,-1,-1],"split_conditions":[7.273012E1,8E0,8.33E-1,2.00001E0,2.00001E0,7.63E-1,7.85E0,-2.4616616E-2,9.049535E-2,1.9434959E-1,-2.0691423E-1,2.2280288E-3,-3.970877E-1,-2.9809985E-1,1.21371426E-1],"split_indices":[0,8,7,14,12,7,1,0,0,0,0,0,0,0,0],"split_type":[0,0,0,0,0,0,0,0,0,0,0,0,0,0,0],"sum_hessian":[3.0486844E2,2.3294162E2,7.1926834E1,2.1884402E2,1.4097599E1,1.797727E1,5.3949566E1,1.792542E2,3.958982E1,1.5952368E0,1.2502362E1,1.6193413E1,1.7838578E0,2.3085368E0,5.164103E1],"tree_param":{"num_deleted":"0","num_feature":"22","num_nodes":"15","size_leaf_vector":"1"}},{"base_weights":[6.501833E-2,2.5415339E-2,3.1715485E-1,7.621986E-2,-3.1275997E-1,8.805436E-1,5.9854217E-2,3.0708564E-2,-1.2536608E-1,4.347302E-2,-2.578119E-1,-7.644995E-2,3.0359578E-1,-1.4248706E-2,2.80346E-1],"categories":[],"categories_nodes":[],"categories_segments":[],"categories_sizes":[],"default_left":[0,0,0,0,0,0,0,0,0,0,0,0,0,0,0],"id":22,"left_children":[1,3,5,7,9,11,13,-1,-1,-1,-1,-1,-1,-1,-1],"loss_changes":[3.0477426E0,4.5865993E0,5.9567027E0,3.035509E0,8.850985E0,2.1866398E0,2.8171406E0,0E0,0E0,0E0,0E0,0E0,0E0,0E0,0E0],"parents":[2147483647,0,0,1,1,2,2,3,3,4,4,5,5,6,6],"right_children":[2,4,6,8,10,12,14,-1,-1,-1,-1,-1,-1,-1,-1],"split_conditions":[4.634325E1,4.560648E1,7.25E1,1E1,9.910595E0,3.71E-1,1.02E1,3.0708564E-2,-1.2536608E-1,4.347302E-2,-2.578119E-1,-7.644995E-2,3.0359578E-1,-1.4248706E-2,2.80346E-1],"split_indices":[2,2,0,1,3,7,6,0,0,0,0,0,0,0,0],"split_type":[0,0,0,0,0,0,0,0,0,0,0,0,0,0,0],"sum_hessian":[3.050283E2,2.6457275E2,4.045555E1,2.3069044E2,3.3882317E1,1.1924117E1,2.8531433E1,2.1985146E2,1.0838986E1,1.8841518E1,1.5040796E1,1.1398182E0,1.0784299E1,2.6254702E1,2.2767313E0],"tree_param":{"num_deleted":"0","num_feature":"22","num_nodes":"15","size_leaf_vector":"1"}},{"base_weights":[1.2993247E-2,-1.3473004E-1,1.19859226E-1,4.1759592E-1,-2.2150558E-1,-6.489069E-1,1.569868E-1,-1.1935279E-1,2.1376891E-1,-1.9526199E-1,-1.8932823E-2,-3.420083E-1,8.8258214E-2,6.843117E-2,-5.154091E-2],"categories":[],"categories_nodes":[],"categories_segments":[],"categories_sizes":[],"default_left":[0,0,0,0,0,0,0,0,0,0,0,0,0,0,0],"id":23,"left_children":[1,3,5,7,9,11,13,-1,-1,-1,-1,-1,-1,-1,-1],"loss_changes":[4.760017E0,6.1606216E0,5.0937014E0,4.501645E0,7.4448733E0,4.1575537E0,3.9590354E0,0E0,0E0,0E0,0E0,0E0,0E0,0E0,0E0],"parents":[2147483647,0,0,1,1,2,2,3,3,4,4,5,5,6,6],"right_children":[2,4,6,8,10,12,14,-1,-1,-1,-1,-1,-1,-1,-1],"split_conditions":[9.3E0,6.2E1,3.9810844E1,6.350768E0,7.6E0,8.9E0,7.37E1,-1.1935279E-1,2.1376891E-1,-1.9526199E-1,-1.8932823E-2,-3.420083E-1,8.8258214E-2,6.843117E-2,-5.154091E-2],"split_indices":[3,0,2,4,1,6,0,0,0,0,0,0,0,0,0],"split_type":[0,0,0,0,0,0,0,0,0,0,0,0,0,0,0],"sum_hessian":[2.994998E2,1.2560809E2,1.7389168E2,1.6537107E1,1.09070984E2,7.252069E0,1.6663962E2,4.300255E0,1.2236853E1,2.8555601E1,8.051539E1,4.6314363E0,2.620633E0,1.3725717E2,2.9382435E1],"tree_param":{"num_deleted":"0","num_feature":"22","num_nodes":"15","size_leaf_vector":"1"}},{"base_weights":[1.0649976E-2,1.18485786E-1,-1.2033462E-1,-1.2730136E-2,2.4821104E-1,-3.1350794E-1,1.9679358E-2,-3.2881325E-1,7.7841803E-3,1.9669153E-1,3.152017E-2,9.449224E-2,-1.3021037E-1,-2.0090867E-2,2.4064077E-1],"categories":[],"categories_nodes":[],"categories_segments":[],"categories_sizes":[],"default_left":[0,0,0,0,0,0,0,0,0,0,0,0,0,0,0],"id":24,"left_children":[1,3,5,7,9,11,13,-1,-1,-1,-1,-1,-1,-1,-1],"loss_changes":[4.262464E0,2.8196404E0,3.6926856E0,3.5148823E0,4.7864227E0,4.4798512E0,5.4752297E0,0E0,0E0,0E0,0E0,0E0,0E0,0E0,0E0],"parents":[2147483647,0,0,1,1,2,2,3,3,4,4,5,5,6,6],"right_children":[2,4,6,8,10,12,14,-1,-1,-1,-1,-1,-1,-1,-1],"split_conditions":[7.6856103E0,8.8368845E0,8.3E0,3.89E1,9.5E0,4.01E1,1.15E1,-3.2881325E-1,7.7841803E-3,1.9669153E-1,3.152017E-2,9.449224E-2,-1.3021037E-1,-2.0090867E-2,2.4064077E-1],"split_indices":[4,5,1,2,5,2,4,0,0,0,0,0,0,0,0],"split_type":[0,0,0,0,0,0,0,0,0,0,0,0,0,0,0],"sum_hessian":[2.9976157E2,1.6446101E2,1.3530055E2,8.2209114E1,8.22519E1,5.63361E1,7.8964455E1,1.8915192E0,8.03176E1,2.0453955E1,6.1797947E1,8.805707E0,4.7530396E1,7.191502E1,7.049429E0],"tree_param":{"num_deleted":"0","num_feature":"22","num_nodes":"15","size_leaf_vector":"1"}},{"base_weights":[-3.0278962E-2,2.5709683E-1,-7.970733E-2,-1.8797392E-1,3.8632327E-1,-3.8922328E-1,-3.1399954E-2,1.5640755E-1,-2.2885133E-1,-2.2541866E-2,1.77023E-1,-1.9132936E-1,1.6102181E-1,1.3375564E-1,-1.74917E-2],"categories":[],"categories_nodes":[],"categories_segments":[],"categories_sizes":[],"default_left":[0,0,0,0,0,0,0,0,0,0,0,0,0,0,0],"id":25,"left_children":[1,3,5,7,9,11,13,-1,-1,-1,-1,-1,-1,-1,-1],"loss_changes":[4.1608434E0,2.54654E0,3.7177958E0,4.618723E0,3.209405E0,8.072998E0,2.8108642E0,0E0,0E0,0E0,0E0,0E0,0E0,0E0,0E0],"parents":[2147483647,0,0,1,1,2,2,3,3,4,4,5,5,6,6],"right_children":[2,4,6,8,10,12,14,-1,-1,-1,-1,-1,-1,-1,-1],"split_conditions":[4.13E1,8.027146E0,7.15E0,7.0574536E0,5.95E0,6.57E1,7.4E0,1.5640755E-1,-2.2885133E-1,-2.2541866E-2,1.77023E-1,-1.9132936E-1,1.6102181E-1,1.3375564E-1,-1.74917E-2],"split_indices":[2,5,1,3,1,0,1,0,0,0,0,0,0,0,0],"split_type":[0,0,0,0,0,0,0,0,0,0,0,0,0,0,0],"sum_hessian":[2.904813E2,4.2013577E1,2.4846771E2,9.351461E0,3.2662117E1,3.2591244E1,2.1587648E2,4.227798E0,5.123663E0,1.0197632E1,2.2464485E1,2.5939865E1,6.6513777E0,1.0689835E1,2.0518665E2],"tree_param":{"num_deleted":"0","num_feature":"22","num_nodes":"15","size_leaf_vector":"1"}},{"base_weights":[1.2955377E-3,-1.03643276E-1,1.0847325E-1,-1.4959456E-1,3.0746484E-1,7.760818E-1,6.4942665E-2,-2.2545906E-2,-2.066285E-1,3.0353457E-1,-4.114577E-2,-3.1826377E-2,2.8461793E-1,3.8165398E-2,-9.661133E-2],"categories":[],"categories_nodes":[],"categories_segments":[],"categories_sizes":[],"default_left":[0,0,1,0,0,0,0,0,0,0,0,0,0,0,0],"id":26,"left_children":[1,3,5,7,9,11,13,-1,-1,-1,-1,-1,-1,-1,-1],"loss_changes":[3.35606E0,2.8943295E0,4.2395244E0,5.4185023E0,4.9882374E0,1.4629307E0,3.4069552E0,0E0,0E0,0E0,0E0,0E0,0E0,0E0,0E0],"parents":[2147483647,0,0,1,1,2,2,3,3,4,4,5,5,6,6],"right_children":[2,4,6,8,10,12,14,-1,-1,-1,-1,-1,-1,-1,-1],"split_conditions":[1.588E0,1.31E1,1.684E0,1.1968844E1,1.1952286E-1,6.1E0,1.26E1,-2.2545906E-2,-2.066285E-1,3.0353457E-1,-4.114577E-2,-3.1826377E-2,2.8461793E-1,3.8165398E-2,-9.661133E-2],"split_indices":[7,3,7,3,21,6,5,0,0,0,0,0,0,0,0],"split_type":[0,0,0,0,0,0,0,0,0,0,0,0,0,0,0],"sum_hessian":[2.963937E2,1.4977774E2,1.4661597E2,1.3529173E2,1.4486011E1,7.944617E0,1.3867136E2,1.19879616E2,1.5412113E1,5.112187E0,9.373823E0,1.3634175E0,6.581199E0,1.2002709E2,1.8644262E1],"tree_param":{"num_deleted":"0","num_feature":"22","num_nodes":"15","size_leaf_vector":"1"}},{"base_weights":[-3.391025E-2,2.0328362E-1,-1.0639604E-1,4.4678834E-1,2.6674143E-3,6.399843E-1,-1.4583607E-1,6.899458E-3,2.1482292E-1,1.5467815E-1,-6.6802494E-2,2.9673052E-1,-1.2532927E-2,-2.6772666E-1,-3.371503E-2],"categories":[],"categories_nodes":[],"categories_segments":[],"categories_sizes":[],"default_left":[0,0,0,0,0,0,0,0,0,0,0,0,0,0,0],"id":27,"left_children":[1,3,5,7,9,11,13,-1,-1,-1,-1,-1,-1,-1,-1],"loss_changes":[5.1598644E0,3.4327986E0,6.8508863E0,3.606597E0,4.6859045E0,2.8277578E0,5.3655686E0,0E0,0E0,0E0,0E0,0E0,0E0,0E0,0E0],"parents":[2147483647,0,0,1,1,2,2,3,3,4,4,5,5,6,6],"right_children":[2,4,6,8,10,12,14,-1,-1,-1,-1,-1,-1,-1,-1],"split_conditions":[7.53E-1,8E0,6.8E0,6.7E0,2.00001E0,2.072E0,7.1E0,6.899458E-3,2.1482292E-1,1.5467815E-1,-6.6802494E-2,2.9673052E-1,-1.2532927E-2,-2.6772666E-1,-3.371503E-2],"split_indices":[7,1,5,1,16,7,5,0,0,0,0,0,0,0,0],"split_type":[0,0,0,0,0,0,0,0,0,0,0,0,0,0,0],"sum_hessian":[2.9785306E2,6.929521E1,2.2855785E2,3.0747416E1,3.85478E1,1.0707005E1,2.1785085E2,1.2368297E1,1.8379118E1,1.1372824E1,2.7174973E1,6.7828336E0,3.9241707E0,8.241536E0,2.096093E2],"tree_param":{"num_deleted":"0","num_feature":"22","num_nodes":"15","size_leaf_vector":"1"}},{"base_weights":[3.333027E-2,1.5510531E-1,-8.6700626E-2,-5.825508E-2,3.0149952E-1,8.3246636E-1,-1.2621024E-1,1.6522013E-1,-6.191339E-2,4.092295E-2,1.9125946E-1,3.3303332E-1,6.485348E-3,1.5586075E-2,-9.9227734E-2],"categories":[],"categories_nodes":[],"categories_segments":[],"categories_sizes":[],"default_left":[0,0,0,0,0,0,0,0,0,0,0,0,0,0,0],"id":28,"left_children":[1,3,5,7,9,11,13,-1,-1,-1,-1,-1,-1,-1,-1],"loss_changes":[4.302325E0,4.578183E0,5.494732E0,5.5488915E0,4.7259197E0,1.3826094E0,5.2344837E0,0E0,0E0,0E0,0E0,0E0,0E0,0E0,0E0],"parents":[2147483647,0,0,1,1,2,2,3,3,4,4,5,5,6,6],"right_children":[2,4,6,8,10,12,14,-1,-1,-1,-1,-1,-1,-1,-1],"split_conditions":[7E0,1.257E0,7.1E0,8.001834E0,4.3457333E1,7.942864E0,1.7868431E-17,1.6522013E-1,-6.191339E-2,4.092295E-2,1.9125946E-1,3.3303332E-1,6.485348E-3,1.5586075E-2,-9.9227734E-2],"split_indices":[9,7,1,3,2,4,20,0,0,0,0,0,0,0,0],"split_type":[0,0,0,0,0,0,0,0,0,0,0,0,0,0,0],"sum_hessian":[2.9242172E2,1.4501118E2,1.4741052E2,5.925411E1,8.575708E1,5.248042E0,1.4216248E2,1.10608225E1,4.8193283E1,5.8448006E1,2.7309072E1,3.6344783E0,1.6135639E0,7.6380455E1,6.578203E1],"tree_param":{"num_deleted":"0","num_feature":"22","num_nodes":"15","size_leaf_vector":"1"}},{"base_weights":[-1.8274542E-2,2.1826716E-1,-6.4122476E-2,5.93116E-1,-2.7305982E-1,-4.6120468E-1,-1.7897082E-2,2.3046991E-1,-1.3999505E-1,1.4618021E-1,-1.4839512E-1,-3.550828E-2,-3.113646E-1,-1.23754265E-2,1.5704598E-1],"categories":[],"categories_nodes":[],"categories_segments":[],"categories_sizes":[],"default_left":[0,0,0,0,0,0,0,0,0,0,0,0,0,0,0],"id":29,"left_children":[1,3,5,7,9,11,13,-1,-1,-1,-1,-1,-1,-1,-1],"loss_changes":[3.135114E0,8.809364E0,4.430825E0,5.3596764E0,3.7798214E0,4.8549924E0,2.773672E0,0E0,0E0,0E0,0E0,0E0,0E0,0E0,0E0],"parents":[2147483647,0,0,1,1,2,2,3,3,4,4,5,5,6,6],"right_children":[2,4,6,8,10,12,14,-1,-1,-1,-1,-1,-1,-1,-1],"split_conditions":[2.00001E0,5E0,4.0931293E1,1.04791565E1,7.6897955E0,6.22E1,1.13E1,2.3046991E-1,-1.3999505E-1,1.4618021E-1,-1.4839512E-1,-3.550828E-2,-3.113646E-1,-1.23754265E-2,1.5704598E-1],"split_indices":[15,8,2,4,5,0,4,0,0,0,0,0,0,0,0],"split_type":[0,0,0,0,0,0,0,0,0,0,0,0,0,0,0],"sum_hessian":[2.8679468E2,4.595255E1,2.4084213E2,2.5948471E1,2.0004076E1,2.4177439E1,2.1666469E2,2.2504837E1,3.4436345E0,4.2437744E0,1.5760302E1,1.5918742E1,8.258697E0,2.0859029E2,8.074413E0],"tree_param":{"num_deleted":"0","num_feature":"22","num_nodes":"15","size_leaf_vector":"1"}},{"base_weights":[4.166328E-3,-3.3765417E-1,3.657806E-2,-7.386952E-1,8.7860234E-2,1.21514164E-1,-1.2807512E-1,-1.2611446E-1,-3.837321E-1,1.0012241E-1,-2.2755657E-1,2.2508567E-2,1.9904964E-1,1.52642485E-2,-1.4285246E-1],"categories":[],"categories_nodes":[],"categories_segments":[],"categories_sizes":[],"default_left":[0,0,0,0,0,0,0,0,0,0,0,0,0,0,0],"id":30,"left_children":[1,3,5,7,9,11,13,-1,-1,-1,-1,-1,-1,-1,-1],"loss_changes":[3.2428482E0,4.391144E0,3.752856E0,1.7256436E0,2.9989977E0,4.4047976E0,5.7197003E0,0E0,0E0,0E0,0E0,0E0,0E0,0E0,0E0],"parents":[2147483647,0,0,1,1,2,2,3,3,4,4,5,5,6,6],"right_children":[2,4,6,8,10,12,14,-1,-1,-1,-1,-1,-1,-1,-1],"split_conditions":[7.1E0,7.08E1,1.1E1,6.9E0,7.6E1,1E1,9.5E0,-1.2611446E-1,-3.837321E-1,1.0012241E-1,-2.2755657E-1,2.2508567E-2,1.9904964E-1,1.52642485E-2,-1.4285246E-1],"split_indices":[5,0,3,5,0,6,6,0,0,0,0,0,0,0,0],"split_type":[0,0,0,0,0,0,0,0,0,0,0,0,0,0,0],"sum_hessian":[2.905876E2,2.4351734E1,2.6623584E2,1.2157482E1,1.2194253E1,1.758077E2,9.042815E1,8.769787E0,3.3876953E0,9.918523E0,2.2757297E0,1.6296844E2,1.2839248E1,6.028819E1,3.0139957E1],"tree_param":{"num_deleted":"0","num_feature":"22","num_nodes":"15","size_leaf_vector":"1"}},{"base_weights":[-1.7868457E-2,-1.6920073E-1,5.2919555E-2,6.98581E-1,-2.0972022E-1,-7.1868443E-1,7.953868E-2,-5.108052E-2,3.3185676E-1,-4.855005E-2,-2.6151115E-1,8.5852236E-2,-3.7615994E-1,-9.7067386E-2,3.6169313E-2],"categories":[],"categories_nodes":[],"categories_segments":[],"categories_sizes":[],"default_left":[0,0,0,0,0,0,0,0,0,0,0,0,0,0,0],"id":31,"left_children":[1,3,5,7,9,11,13,-1,-1,-1,-1,-1,-1,-1,-1],"loss_changes":[3.1377556E0,3.4277833E0,4.1599374E0,1.7444336E0,2.7095654E0,3.9947388E0,3.2470882E0,0E0,0E0,0E0,0E0,0E0,0E0,0E0,0E0],"parents":[2147483647,0,0,1,1,2,2,3,3,4,4,5,5,6,6],"right_children":[2,4,6,8,10,12,14,-1,-1,-1,-1,-1,-1,-1,-1],"split_conditions":[8.8E0,3E0,3E0,6.6130176E0,1.0416967E1,4.25E1,6.07954E1,-5.108052E-2,3.3185676E-1,-4.855005E-2,-2.6151115E-1,8.5852236E-2,-3.7615994E-1,-9.7067386E-2,3.6169313E-2],"split_indices":[5,8,8,4,3,2,0,0,0,0,0,0,0,0,0],"split_type":[0,0,0,0,0,0,0,0,0,0,0,0,0,0,0],"sum_hessian":[2.9106985E2,9.231865E1,1.9875122E2,3.3938553E0,8.892479E1,5.760943E0,1.9299028E2,1.2696882E0,2.1241672E0,8.4086586E1,4.838208E0,2.163684E0,3.597259E0,1.719127E1,1.75799E2],"tree_param":{"num_deleted":"0","num_feature":"22","num_nodes":"15","size_leaf_vector":"1"}},{"base_weights":[2.5952315E-2,1.10405594E-1,-1.1526862E-1,5.3759575E-1,6.2343262E-2,-5.107965E-1,1.4996928E-2,1.9109766E-1,-1.6945165E-1,-2.030394E-1,2.412648E-2,-3.6330977E-1,-6.832579E-2,-1.7002925E-2,1.9491476E-1],"categories":[],"categories_nodes":[],"categories_segments":[],"categories_sizes":[],"default_left":[0,0,1,0,0,0,0,0,0,0,0,0,0,0,0],"id":32,"left_children":[1,3,5,7,9,11,13,-1,-1,-1,-1,-1,-1,-1,-1],"loss_changes":[3.5528636E0,3.790682E0,5.7561564E0,2.409464E0,2.306704E0,5.208319E0,3.8991306E0,0E0,0E0,0E0,0E0,0E0,0E0,0E0,0E0],"parents":[2147483647,0,0,1,1,2,2,3,3,4,4,5,5,6,6],"right_children":[2,4,6,8,10,12,14,-1,-1,-1,-1,-1,-1,-1,-1],"split_conditions":[2.011E0,6.35E0,2.383E0,1.05E1,4.02E1,4.1763206E1,2.00001E0,1.9109766E-1,-1.6945165E-1,-2.030394E-1,2.412648E-2,-3.6330977E-1,-6.832579E-2,-1.7002925E-2,1.9491476E-1],"split_indices":[7,1,7,6,2,2,14,0,0,0,0,0,0,0,0],"split_type":[0,0,0,0,0,0,0,0,0,0,0,0,0,0,0],"sum_hessian":[2.9582776E2,1.852577E2,1.10570045E2,1.7705082E1,1.6755263E2,2.6670052E1,8.3899994E1,1.6628077E1,1.0770063E0,3.1303375E0,1.6442229E2,6.7333884E0,1.9936663E1,7.6205475E1,7.694522E0],"tree_param":{"num_deleted":"0","num_feature":"22","num_nodes":"15","size_leaf_vector":"1"}},{"base_weights":[-5.9087113E-2,-3.00916E-1,-6.303024E-3,5.617002E-1,-3.997648E-1,4.894927E-3,-3.2672518E-1,3.269903E-1,-2.4486372E-1,2.1418896E-2,-1.7538995E-1,6.125849E-2,-1.4982904E-2],"categories":[],"categories_nodes":[],"categories_segments":[],"categories_sizes":[],"default_left":[0,0,0,0,0,0,0,0,0,0,0,0,0],"id":33,"left_children":[1,3,5,7,9,11,-1,-1,-1,-1,-1,-1,-1],"loss_changes":[3.7015266E0,4.6550565E0,2.905253E0,5.080761E0,4.1531377E0,2.608262E0,0E0,0E0,0E0,0E0,0E0,0E0,0E0],"parents":[2147483647,0,0,1,1,2,2,3,3,4,4,5,5],"right_children":[2,4,6,8,10,12,-1,-1,-1,-1,-1,-1,-1],"split_conditions":[-2.6726124E-1,2.89E-1,1.7E1,8.8E0,6.350768E0,8.2E0,-3.2672518E-1,3.269903E-1,-2.4486372E-1,2.1418896E-2,-1.7538995E-1,6.125849E-2,-1.4982904E-2],"split_indices":[19,7,3,1,4,3,0,0,0,0,0,0,0],"split_type":[0,0,0,0,0,0,0,0,0,0,0,0,0],"sum_hessian":[2.8912967E2,5.095945E1,2.3817023E2,4.75777E0,4.620168E1,2.367176E2,1.4526172E0,3.5902889E0,1.1674813E0,1.3192546E1,3.3009132E1,5.049127E1,1.8622633E2],"tree_param":{"num_deleted":"0","num_feature":"22","num_nodes":"13","size_leaf_vector":"1"}},{"base_weights":[-2.609836E-3,3.0066776E-1,-4.1307997E-2,-3.1112173E-1,4.3144655E-1,-8.349121E-1,-1.5755292E-2,1.4448144E-1,-2.9151052E-1,2.1137154E-2,2.054093E-1,4.275213E-2,-3.1064802E-1,6.663123E-2,-2.5172394E-2],"categories":[],"categories_nodes":[],"categories_segments":[],"categories_sizes":[],"default_left":[0,0,0,0,0,0,0,0,0,0,0,0,0,0,0],"id":34,"left_children":[1,3,5,7,9,11,13,-1,-1,-1,-1,-1,-1,-1,-1],"loss_changes":[3.4038177E0,2.7601657E0,5.201449E0,3.799104E0,2.462103E0,1.7164063E0,4.073663E0,0E0,0E0,0E0,0E0,0E0,0E0,0E0,0E0],"parents":[2147483647,0,0,1,1,2,2,3,3,4,4,5,5,6,6],"right_children":[2,4,6,8,10,12,14,-1,-1,-1,-1,-1,-1,-1,-1],"split_conditions":[3E0,-2.6726124E-1,4.02E1,9.050333E0,7.6532087E0,1.63E-1,4.28E1,1.4448144E-1,-2.9151052E-1,2.1137154E-2,2.054093E-1,4.275213E-2,-3.1064802E-1,6.663123E-2,-2.5172394E-2],"split_indices":[9,19,2,5,4,7,2,0,0,0,0,0,0,0,0],"split_type":[0,0,0,0,0,0,0,0,0,0,0,0,0,0,0],"sum_hessian":[2.8796686E2,3.1820435E1,2.5614642E2,5.3612504E0,2.6459185E1,7.002168E0,2.4914426E2,2.5600312E0,2.8012192E0,1.1436117E1,1.5023067E1,1.2415767E0,5.7605915E0,5.4984432E1,1.9415982E2],"tree_param":{"num_deleted":"0","num_feature":"22","num_nodes":"15","size_leaf_vector":"1"}},{"base_weights":[-1.7675422E-2,-2.7082932E-1,3.9523095E-2,-3.3245478E-2,-7.374645E-1,8.73142E-1,1.9830674E-2,-7.779673E-2,7.877788E-2,1.657419E-1,-3.079785E-1,-4.2848058E-2,4.1685188E-1,1.7339681E-4,2.3628673E-1],"categories":[],"categories_nodes":[],"categories_segments":[],"categories_sizes":[],"default_left":[0,0,0,0,0,0,0,0,0,0,0,0,0,0,0],"id":35,"left_children":[1,3,5,7,9,11,13,-1,-1,-1,-1,-1,-1,-1,-1],"loss_changes":[4.221153E0,5.930922E0,3.8906448E0,2.5188103E0,7.3086967E0,3.0683832E0,3.4524515E0,0E0,0E0,0E0,0E0,0E0,0E0,0E0,0E0],"parents":[2147483647,0,0,1,1,2,2,3,3,4,4,5,5,6,6],"right_children":[2,4,6,8,10,12,14,-1,-1,-1,-1,-1,-1,-1,-1],"split_conditions":[6.31E1,1.0935031E1,6.34E1,7.5E0,2.00001E0,1.0416967E1,1E1,-7.779673E-2,7.877788E-2,1.657419E-1,-3.079785E-1,-4.2848058E-2,4.1685188E-1,1.7339681E-4,2.3628673E-1],"split_indices":[0,3,0,6,15,3,8,0,0,0,0,0,0,0,0],"split_type":[0,0,0,0,0,0,0,0,0,0,0,0,0,0,0],"sum_hessian":[2.897763E2,5.2717953E1,2.3705836E2,3.5642223E1,1.7075731E1,4.4705873E0,2.3258777E2,2.0273123E1,1.5369099E1,2.95983E0,1.41159E1,1.7502646E0,2.7203228E0,2.2787448E2,4.713291E0],"tree_param":{"num_deleted":"0","num_feature":"22","num_nodes":"15","size_leaf_vector":"1"}},{"base_weights":[5.3695068E-2,-5.0241114E-3,2.6112968E-1,2.6667413E-1,-5.8545075E-2,5.1279974E-1,9.046256E-2,-1.6331549E-1,1.2046787E-1,-2.9906003E-2,1.0113823E-1,1.9974074E-1,-6.77292E-2,-6.251308E-2,1.3007516E-1],"categories":[],"categories_nodes":[],"categories_segments":[],"categories_sizes":[],"default_left":[0,0,0,0,0,0,0,0,0,0,0,0,0,0,0],"id":36,"left_children":[1,3,5,7,9,11,13,-1,-1,-1,-1,-1,-1,-1,-1],"loss_changes":[3.4572072E0,3.2454548E0,2.643033E0,4.237154E0,3.06759E0,2.9853802E0,4.0407667E0,0E0,0E0,0E0,0E0,0E0,0E0,0E0,0E0],"parents":[2147483647,0,0,1,1,2,2,3,3,4,4,5,5,6,6],"right_children":[2,4,6,8,10,12,14,-1,-1,-1,-1,-1,-1,-1,-1],"split_conditions":[2.00001E0,4.153875E1,5E0,6.1E0,1.3063192E1,7.407273E1,-1.4819496E-18,-1.6331549E-1,1.2046787E-1,-2.9906003E-2,1.0113823E-1,1.9974074E-1,-6.77292E-2,-6.251308E-2,1.3007516E-1],"split_indices":[14,2,8,6,5,0,18,0,0,0,0,0,0,0,0],"split_type":[0,0,0,0,0,0,0,0,0,0,0,0,0,0,0],"sum_hessian":[2.8272614E2,2.2111125E2,6.1614883E1,3.573262E1,1.8537863E2,2.4088581E1,3.7526302E1,4.6623344E0,3.1070284E1,1.6859624E2,1.6782396E1,2.0036324E1,4.052257E0,2.026731E1,1.7258993E1],"tree_param":{"num_deleted":"0","num_feature":"22","num_nodes":"15","size_leaf_vector":"1"}},{"base_weights":[-2.107301E-2,-3.6597673E-2,6.081202E-1,-3.753531E-1,-9.959972E-3,1.0291237E0,-2.2084354E-1,-1.625279E-1,2.8439188E-1,9.665388E-2,-1.748082E-2,3.5091245E-1,7.3151596E-2,-1.9107005E-1,9.751165E-2],"categories":[],"categories_nodes":[],"categories_segments":[],"categories_sizes":[],"default_left":[0,1,0,0,0,0,0,0,0,0,0,0,0,0,0],"id":37,"left_children":[1,3,5,7,9,11,13,-1,-1,-1,-1,-1,-1,-1,-1],"loss_changes":[2.8722734E0,2.5742142E0,2.6990557E0,5.093904E0,4.285074E0,2.5283527E-1,9.3579334E-1,0E0,0E0,0E0,0E0,0E0,0E0,0E0,0E0],"parents":[2147483647,0,0,1,1,2,2,3,3,4,4,5,5,6,6],"right_children":[2,4,6,8,10,12,14,-1,-1,-1,-1,-1,-1,-1,-1],"split_conditions":[7.9E1,3.05E-1,3.1622776E-1,1.2831486E1,6.25E-1,9.1E0,1.045E1,-1.625279E-1,2.8439188E-1,9.665388E-2,-1.748082E-2,3.5091245E-1,7.3151596E-2,-1.9107005E-1,9.751165E-2],"split_indices":[0,7,20,3,7,6,1,0,0,0,0,0,0,0,0],"split_type":[0,0,0,0,0,0,0,0,0,0,0,0,0,0,0],"sum_hessian":[2.9077048E2,2.8468796E2,6.082534E0,1.9799816E1,2.6488812E2,3.873734E0,2.2088E0,1.8112766E1,1.6870497E0,3.2915646E1,2.3197249E2,2.8703418E0,1.0033921E0,1.1588337E0,1.0499665E0],"tree_param":{"num_deleted":"0","num_feature":"22","num_nodes":"15","size_leaf_vector":"1"}},{"base_weights":[1.9081617E-2,8.722387E-1,5.439591E-3,3.5576886E-1,1.8391214E-2,-3.939456E-1,2.4111664E-2,-3.725353E-1,-3.1006651E-2,-1.6461598E-2,3.0303612E-2],"categories":[],"categories_nodes":[],"categories_segments":[],"categories_sizes":[],"default_left":[0,0,0,0,0,0,0,0,0,0,0],"id":38,"left_children":[1,3,5,-1,-1,7,9,-1,-1,-1,-1],"loss_changes":[3.4541802E0,1.1153977E0,2.198368E0,0E0,0E0,3.1157432E0,1.7144331E0,0E0,0E0,0E0,0E0],"parents":[2147483647,0,0,1,1,2,2,5,5,6,6],"right_children":[2,4,6,-1,-1,8,10,-1,-1,-1,-1],"split_conditions":[4.2E-2,8.935129E0,-3.1622776E-1,3.5576886E-1,1.8391214E-2,6.63074E0,6.87E1,-3.725353E-1,-3.1006651E-2,-1.6461598E-2,3.0303612E-2],"split_indices":[7,4,20,0,0,6,0,0,0,0,0],"split_type":[0,0,0,0,0,0,0,0,0,0,0],"sum_hessian":[2.961894E2,3.6710083E0,2.925184E2,2.3137155E0,1.3572928E0,1.21673565E1,2.8035104E2,2.270251E0,9.897105E0,1.3844348E2,1.4190756E2],"tree_param":{"num_deleted":"0","num_feature":"22","num_nodes":"11","size_leaf_vector":"1"}},{"base_weights":[-1.9936638E-2,-1.06976256E-1,1.2256689E-1,-1.204526E-2,-3.0390555E-1,2.579417E-3,4.8068285E-1,-4.0574703E-2,8.37712E-2,-2.4451807E-1,-4.499554E-2,7.224548E-2,-4.5867816E-2,1.663571E-1,-2.0046887E-1],"categories":[],"categories_nodes":[],"categories_segments":[],"categories_sizes":[],"default_left":[0,0,1,0,0,0,0,0,0,0,0,0,0,0,0],"id":39,"left_children":[1,3,5,7,9,11,13,-1,-1,-1,-1,-1,-1,-1,-1],"loss_changes":[3.475848E0,3.2464073E0,4.567504E0,4.284802E0,4.3234363E0,3.023937E0,2.6338735E0,0E0,0E0,0E0,0E0,0E0,0E0,0E0,0E0],"parents":[2147483647,0,0,1,1,2,2,3,3,4,4,5,5,6,6],"right_children":[2,4,6,8,10,12,14,-1,-1,-1,-1,-1,-1,-1,-1],"split_conditions":[7.06E1,8.299001E0,2.786E0,7.5E0,8.321284E0,4.529096E1,1.54E1,-4.0574703E-2,8.37712E-2,-2.4451807E-1,-4.499554E-2,7.224548E-2,-4.5867816E-2,1.663571E-1,-2.0046887E-1],"split_indices":[0,4,7,6,6,2,3,0,0,0,0,0,0,0,0],"split_type":[0,0,0,0,0,0,0,0,0,0,0,0,0,0,0],"sum_hessian":[2.7817517E2,1.7284973E2,1.0532544E2,1.1734433E2,5.5505398E1,7.964681E1,2.5678623E1,8.2840836E1,3.4503494E1,1.1851707E1,4.365369E1,3.1234877E1,4.8411938E1,2.4614025E1,1.0645992E0],"tree_param":{"num_deleted":"0","num_feature":"22","num_nodes":"15","size_leaf_vector":"1"}},{"base_weights":[1.7877037E-2,-1.4084062E-1,9.805376E-2,1.385656E-2,-4.0859306E-1,3.8448298E-1,4.4660907E-2,1.243366E-1,-6.3397974E-2,1.7341535E-1,-1.7664126E-1,-1.953763E-2,2.2258574E-1,-1.0029767E-1,3.8835675E-2],"categories":[],"categories_nodes":[],"categories_segments":[],"categories_sizes":[],"default_left":[0,0,0,0,0,0,1,0,0,0,0,0,0,0,0],"id":40,"left_children":[1,3,5,7,9,11,13,-1,-1,-1,-1,-1,-1,-1,-1],"loss_changes":[3.65804E0,4.003647E0,2.9015703E0,5.6934395E0,6.630752E0,4.8466744E0,5.248988E0,0E0,0E0,0E0,0E0,0E0,0E0,0E0,0E0],"parents":[2147483647,0,0,1,1,2,2,3,3,4,4,5,5,6,6],"right_children":[2,4,6,8,10,12,14,-1,-1,-1,-1,-1,-1,-1,-1],"split_conditions":[9E0,8.2E0,2.00001E0,6.76E1,7.8E0,6.69E1,7.9E-1,1.243366E-1,-6.3397974E-2,1.7341535E-1,-1.7664126E-1,-1.953763E-2,2.2258574E-1,-1.0029767E-1,3.8835675E-2],"split_indices":[3,3,15,0,5,0,7,0,0,0,0,0,0,0,0],"split_type":[0,0,0,0,0,0,0,0,0,0,0,0,0,0,0],"sum_hessian":[2.8537308E2,9.552178E1,1.8985132E2,6.114359E1,3.4378193E1,2.885514E1,1.6099617E2,2.1699625E1,3.9443962E1,4.968476E0,2.9409716E1,1.3142692E1,1.571245E1,2.8896479E1,1.3209969E2],"tree_param":{"num_deleted":"0","num_feature":"22","num_nodes":"15","size_leaf_vector":"1"}},{"base_weights":[-2.9357607E-2,-5.8714774E-2,4.440297E-1,2.6644737E-1,-9.000709E-2,6.632106E-1,-2.6201385E-1,-2.5474632E-1,1.1982668E-1,-2.2005107E-1,-1.9202251E-2,-5.5244815E-2,2.7417102E-1],"categories":[],"categories_nodes":[],"categories_segments":[],"categories_sizes":[],"default_left":[0,0,0,0,0,0,0,0,0,0,0,0,0],"id":41,"left_children":[1,3,5,7,9,11,-1,-1,-1,-1,-1,-1,-1],"loss_changes":[3.9870791E0,2.763719E0,5.4187517E0,3.883209E0,4.0749702E0,3.3415036E0,0E0,0E0,0E0,0E0,0E0,0E0,0E0],"parents":[2147483647,0,0,1,1,2,2,3,3,4,4,5,5],"right_children":[2,4,6,8,10,12,-1,-1,-1,-1,-1,-1,-1],"split_conditions":[1.085E1,6.3E0,3.8018515E0,6.5E0,4.05E1,1.059E0,-2.6201385E-1,-2.5474632E-1,1.1982668E-1,-2.2005107E-1,-1.9202251E-2,-5.5244815E-2,2.7417102E-1],"split_indices":[1,1,7,5,2,7,0,0,0,0,0,0,0],"split_type":[0,0,0,0,0,0,0,0,0,0,0,0,0],"sum_hessian":[2.8401978E2,2.6825958E2,1.576018E1,2.2890186E1,2.4536942E2,1.3937879E1,1.8223026E0,1.8642354E0,2.1025951E1,8.472046E0,2.3689737E2,3.242712E0,1.0695167E1],"tree_param":{"num_deleted":"0","num_feature":"22","num_nodes":"13","size_leaf_vector":"1"}},{"base_weights":[8.733102E-3,6.445686E-1,-1.145332E-2,-1.2929505E-1,9.802297E-1,1.5718134E-1,-1.0214256E-1,1.2526864E-1,-2.0933013E-1,3.5274205E-1,7.0472494E-2,2.2975118E-1,2.7598305E-2,-1.5870884E-1,-1.924575E-2],"categories":[],"categories_nodes":[],"categories_segments":[],"categories_sizes":[],"default_left":[0,0,0,0,0,0,0,0,0,0,0,0,0,0,0],"id":42,"left_children":[1,3,5,7,9,11,13,-1,-1,-1,-1,-1,-1,-1,-1],"loss_changes":[3.717567E0,2.4417293E0,4.3157797E0,1.404175E0,6.468735E-1,3.8462481E0,2.9408946E0,0E0,0E0,0E0,0E0,0E0,0E0,0E0,0E0],"parents":[2147483647,0,0,1,1,2,2,3,3,4,4,5,5,6,6],"right_children":[2,4,6,8,10,12,14,-1,-1,-1,-1,-1,-1,-1,-1],"split_conditions":[1.08E-1,6.824948E0,6.9E0,6E0,9.1E0,3E0,7.0653305E0,1.2526864E-1,-2.0933013E-1,3.5274205E-1,7.0472494E-2,2.2975118E-1,2.7598305E-2,-1.5870884E-1,-1.924575E-2],"split_indices":[7,4,6,8,6,9,6,0,0,0,0,0,0,0,0],"split_type":[0,0,0,0,0,0,0,0,0,0,0,0,0,0,0],"sum_hessian":[2.880622E2,7.912179E0,2.8015002E2,2.5796416E0,5.3325377E0,9.771603E1,1.82434E2,1.4501226E0,1.129519E0,3.7665794E0,1.5659583E0,8.413182E0,8.930284E1,1.3852353E1,1.6858165E2],"tree_param":{"num_deleted":"0","num_feature":"22","num_nodes":"15","size_leaf_vector":"1"}},{"base_weights":[1.6917313E-2,6.294217E-2,-1.5118788E-1,-2.150566E-1,1.1317464E-1,-3.002546E-1,1.9037189E-1,2.0952958E-1,-8.7799445E-2,3.8902737E-2,-2.5308532E-1,5.2388467E-2,-1.381445E-1,-5.0230414E-2,1.8953201E-1],"categories":[],"categories_nodes":[],"categories_segments":[],"categories_sizes":[],"default_left":[0,0,0,0,0,0,0,0,0,0,0,0,0,0,0],"id":43,"left_children":[1,3,5,7,9,11,13,-1,-1,-1,-1,-1,-1,-1,-1],"loss_changes":[2.2199748E0,3.1663284E0,3.1987162E0,2.66999E0,3.1283948E0,3.37834E0,3.1632366E0,0E0,0E0,0E0,0E0,0E0,0E0,0E0,0E0],"parents":[2147483647,0,0,1,1,2,2,3,3,4,4,5,5,6,6],"right_children":[2,4,6,8,10,12,14,-1,-1,-1,-1,-1,-1,-1,-1],"split_conditions":[1.1968844E1,6.65E0,1.3244071E1,2.00001E0,5.811E0,1.08E1,6.892692E1,2.0952958E-1,-8.7799445E-2,3.8902737E-2,-2.5308532E-1,5.2388467E-2,-1.381445E-1,-5.0230414E-2,1.8953201E-1],"split_indices":[3,1,5,17,7,5,0,0,0,0,0,0,0,0,0],"split_type":[0,0,0,0,0,0,0,0,0,0,0,0,0,0,0],"sum_hessian":[2.8469904E2,2.239973E2,6.0701756E1,3.3778362E1,1.9021893E2,4.234297E1,1.8358786E1,2.018626E0,3.1759735E1,1.8784378E2,2.3751466E0,1.0659712E1,3.168326E1,1.0482328E1,7.8764567E0],"tree_param":{"num_deleted":"0","num_feature":"22","num_nodes":"15","size_leaf_vector":"1"}},{"base_weights":[3.3796985E-2,-3.6729623E-2,2.5884125E-1,1.3108172E-1,-9.3022764E-2,-9.637762E-2,5.4516155E-1,-6.9925435E-2,1.5792648E-1,2.9276777E-3,-1.0540206E-1,2.5974197E-2,-2.0622556E-1,-1.5107295E-1,1.961415E-1],"categories":[],"categories_nodes":[],"categories_segments":[],"categories_sizes":[],"default_left":[0,0,0,0,0,0,0,0,0,0,0,0,0,0,0],"id":44,"left_children":[1,3,5,7,9,11,13,-1,-1,-1,-1,-1,-1,-1,-1],"loss_changes":[4.5595055E0,2.0823936E0,7.0223026E0,8.107676E0,4.3758397E0,3.4586685E0,4.669636E0,0E0,0E0,0E0,0E0,0E0,0E0,0E0,0E0],"parents":[2147483647,0,0,1,1,2,2,3,3,4,4,5,5,6,6],"right_children":[2,4,6,8,10,12,14,-1,-1,-1,-1,-1,-1,-1,-1],"split_conditions":[1.16872635E1,6.48E1,6.69E1,9.5E0,1.01E1,6E0,6.2261157E0,-6.9925435E-2,1.5792648E-1,2.9276777E-3,-1.0540206E-1,2.5974197E-2,-2.0622556E-1,-1.5107295E-1,1.961415E-1],"split_indices":[3,0,0,5,5,8,6,0,0,0,0,0,0,0,0],"split_type":[0,0,0,0,0,0,0,0,0,0,0,0,0,0,0],"sum_hessian":[2.856753E2,2.18147E2,6.752828E1,5.4462948E1,1.6368405E2,3.0434088E1,3.7094196E1,2.8562803E1,2.5900145E1,1.1778207E2,4.590198E1,2.3891823E1,6.542265E0,3.1408036E0,3.3953392E1],"tree_param":{"num_deleted":"0","num_feature":"22","num_nodes":"15","size_leaf_vector":"1"}},{"base_weights":[-2.6004555E-2,4.989336E-1,-4.673175E-2,9.766333E-1,1.7729798E-2,5.1238653E-3,-2.3306818E-1,-7.535111E-3,3.777097E-1,-1.14879824E-1,2.3224673E-1,-5.0329603E-3,2.6005656E-1,1.334952E-1,-9.265677E-2],"categories":[],"categories_nodes":[],"categories_segments":[],"categories_sizes":[],"default_left":[0,0,0,0,0,0,0,0,0,0,0,0,0,0,0],"id":45,"left_children":[1,3,5,7,9,11,13,-1,-1,-1,-1,-1,-1,-1,-1],"loss_changes":[3.1364813E0,2.500712E0,2.6697059E0,1.5814738E0,2.2589955E0,4.1102824E0,3.2281675E0,0E0,0E0,0E0,0E0,0E0,0E0,0E0,0E0],"parents":[2147483647,0,0,1,1,2,2,3,3,4,4,5,5,6,6],"right_children":[2,4,6,8,10,12,14,-1,-1,-1,-1,-1,-1,-1,-1],"split_conditions":[2.00001E0,1.151E0,9.6E0,5.39E-1,1.04E1,9.5E0,6.1E0,-7.535111E-3,3.777097E-1,-1.14879824E-1,2.3224673E-1,-5.0329603E-3,2.6005656E-1,1.334952E-1,-9.265677E-2],"split_indices":[12,7,1,7,5,1,6,0,0,0,0,0,0,0,0],"split_type":[0,0,0,0,0,0,0,0,0,0,0,0,0,0,0],"sum_hessian":[2.8512344E2,9.954093E0,2.7516937E2,4.4785714E0,5.4755216E0,2.1602438E2,5.9144985E1,1.1852403E0,3.2933311E0,3.9023116E0,1.5732099E0,2.1162654E2,4.397834E0,5.45642E0,5.3688564E1],"tree_param":{"num_deleted":"0","num_feature":"22","num_nodes":"15","size_leaf_vector":"1"}},{"base_weights":[1.7794512E-3,1.0401638E-2,-7.848175E-1,-1.8092174E-2,2.5839284E-1,-2.3017587E-2,-3.3391514E-1,1.1044804E-1,-1.17023075E-2,2.3305033E-1,2.8643133E-2],"categories":[],"categories_nodes":[],"categories_segments":[],"categories_sizes":[],"default_left":[0,1,0,0,0,0,0,0,0,0,0],"id":46,"left_children":[1,3,5,7,9,-1,-1,-1,-1,-1,-1],"loss_changes":[1.9607025E0,2.0239003E0,6.4313304E-1,2.0925403E0,2.4187236E0,0E0,0E0,0E0,0E0,0E0,0E0],"parents":[2147483647,0,0,1,1,2,2,3,3,4,4],"right_children":[2,4,6,8,10,-1,-1,-1,-1,-1,-1],"split_conditions":[1.205E1,3.747E0,1.2333192E1,6.8E0,4.24E1,-2.3017587E-2,-3.3391514E-1,1.1044804E-1,-1.17023075E-2,2.3305033E-1,2.8643133E-2],"split_indices":[1,7,3,5,2,0,0,0,0,0,0],"split_type":[0,0,0,0,0,0,0,0,0,0,0],"sum_hessian":[2.868923E2,2.8475775E2,2.134561E0,2.562429E2,2.8514874E1,1.0668385E0,1.0677224E0,1.2309929E1,2.4393295E2,5.9170165E0,2.2597857E1],"tree_param":{"num_deleted":"0","num_feature":"22","num_nodes":"11","size_leaf_vector":"1"}},{"base_weights":[2.4496498E-2,4.3516228E-1,6.9612795E-3,7.022887E-1,-1.6346261E-1,-5.7266597E-2,1.3688387E-1,7.135015E-2,3.6073115E-1,-2.1375252E-1,2.0156072E-1,-1.5297313E-1,-9.791459E-3,1.8822958E-1,1.9718654E-2],"categories":[],"categories_nodes":[],"categories_segments":[],"categories_sizes":[],"default_left":[0,0,0,0,0,0,0,0,0,0,0,0,0,0,0],"id":47,"left_children":[1,3,5,7,9,11,13,-1,-1,-1,-1,-1,-1,-1,-1],"loss_changes":[2.1148877E0,2.0381458E0,2.3700585E0,1.689805E0,2.5528224E0,2.1030085E0,3.2378244E0,0E0,0E0,0E0,0E0,0E0,0E0,0E0,0E0],"parents":[2147483647,0,0,1,1,2,2,3,3,4,4,5,5,6,6],"right_children":[2,4,6,8,10,12,14,-1,-1,-1,-1,-1,-1,-1,-1],"split_conditions":[5.1E0,5E0,8.4E0,-3.1622776E-1,5E0,2.00001E0,7.959998E0,7.135015E-2,3.6073115E-1,-2.1375252E-1,2.0156072E-1,-1.5297313E-1,-9.791459E-3,1.8822958E-1,1.9718654E-2],"split_indices":[6,8,4,18,6,13,6,0,0,0,0,0,0,0,0],"split_type":[0,0,0,0,0,0,0,0,0,0,0,0,0,0,0],"sum_hessian":[2.9310965E2,1.10278E1,2.8208185E2,7.5054474E0,3.5223517E0,1.8913919E2,9.2942665E1,4.65665E0,2.8487973E0,2.2141035E0,1.308248E0,8.743257E0,1.8039594E2,1.0783386E1,8.215928E1],"tree_param":{"num_deleted":"0","num_feature":"22","num_nodes":"15","size_leaf_vector":"1"}},{"base_weights":[3.4221906E-2,-6.405808E-3,4.1121984E-1,-2.5272223E-1,4.5279983E-2,1.846757E-1,7.525425E-1,-2.134381E-1,-2.3968011E-2,9.1434255E-2,-5.298086E-4,-1.9178341E-1,1.2856475E-1,-6.640422E-2,2.837132E-1],"categories":[],"categories_nodes":[],"categories_segments":[],"categories_sizes":[],"default_left":[0,1,0,0,0,0,0,0,0,0,0,0,0,0,0],"id":48,"left_children":[1,3,5,7,9,11,13,-1,-1,-1,-1,-1,-1,-1,-1],"loss_changes":[4.310372E0,3.256224E0,1.9778466E0,3.459927E0,2.5828047E0,3.8466272E0,2.2027068E0,0E0,0E0,0E0,0E0,0E0,0E0,0E0,0E0],"parents":[2147483647,0,0,1,1,2,2,3,3,4,4,5,5,6,6],"right_children":[2,4,6,8,10,12,14,-1,-1,-1,-1,-1,-1,-1,-1],"split_conditions":[4.663995E1,5.76E-1,5E0,8.6E0,-2.6726124E-1,8.027146E0,2.00001E0,-2.134381E-1,-2.3968011E-2,9.1434255E-2,-5.298086E-4,-1.9178341E-1,1.2856475E-1,-6.640422E-2,2.837132E-1],"split_indices":[2,7,8,5,19,5,11,0,0,0,0,0,0,0,0],"split_type":[0,0,0,0,0,0,0,0,0,0,0,0,0,0,0],"sum_hessian":[2.80247E2,2.5387122E2,2.6375782E1,4.335705E1,2.1051416E2,1.6779728E1,9.596054E0,1.10118475E1,3.2345207E1,3.146702E1,1.7904713E2,3.4619133E0,1.3317815E1,1.5641661E0,8.031888E0],"tree_param":{"num_deleted":"0","num_feature":"22","num_nodes":"15","size_leaf_vector":"1"}},{"base_weights":[6.9466727E-3,-2.3802508E-1,6.319249E-2,-4.2579597E-1,1.8074256E-1,1.0862377E-1,-3.4144256E-1,8.460405E-3,-1.7239669E-1,1.8098113E-1,-1.3765197E-1,2.2685941E-2,1.5005188E-1,3.1599692E-1,-1.5252209E-1],"categories":[],"categories_nodes":[],"categories_segments":[],"categories_sizes":[],"default_left":[0,0,0,0,0,0,0,0,0,0,0,0,0,0,0],"id":49,"left_children":[1,3,5,7,9,11,13,-1,-1,-1,-1,-1,-1,-1,-1],"loss_changes":[3.9313722E0,4.266803E0,4.301014E0,2.5225744E0,4.924291E0,2.6668048E0,6.0442076E0,0E0,0E0,0E0,0E0,0E0,0E0,0E0,0E0],"parents":[2147483647,0,0,1,1,2,2,3,3,4,4,5,5,6,6],"right_children":[2,4,6,8,10,12,14,-1,-1,-1,-1,-1,-1,-1,-1],"split_conditions":[6.1086855E0,4.4914234E1,4.662212E1,5.1494355E0,4.62E1,4.62E1,9.2E0,8.460405E-3,-1.7239669E-1,1.8098113E-1,-1.3765197E-1,2.2685941E-2,1.5005188E-1,3.1599692E-1,-1.5252209E-1],"split_indices":[4,2,2,4,2,2,1,0,0,0,0,0,0,0,0],"split_type":[0,0,0,0,0,0,0,0,0,0,0,0,0,0,0],"sum_hessian":[2.8323215E2,5.2283943E1,2.309482E2,3.6086403E1,1.6197538E1,2.0829317E2,2.2655022E1,9.110729E0,2.6975674E1,9.788035E0,6.409503E0,1.9320123E2,1.5091945E1,1.8544965E0,2.0800526E1],"tree_param":{"num_deleted":"0","num_feature":"22","num_nodes":"15","size_leaf_vector":"1"}},{"base_weights":[-4.060586E-3,2.395402E-1,-6.739178E-2,-2.3102213E-1,2.8605098E-1,-4.7545785E-1,-1.7930893E-2,1.2509108E-1,-1.5961312E-2,-2.2711985E-2,-2.4402708E-1,4.5705508E-4,-2.7018222E-1],"categories":[],"categories_nodes":[],"categories_segments":[],"categories_sizes":[],"default_left":[0,0,1,0,0,0,0,0,0,0,0,0,0],"id":50,"left_children":[1,3,5,-1,7,9,11,-1,-1,-1,-1,-1,-1],"loss_changes":[4.3585076E0,2.9577746E0,4.5160046E0,0E0,2.5297937E0,3.2071996E0,3.4525383E0,0E0,0E0,0E0,0E0,0E0,0E0],"parents":[2147483647,0,0,1,1,2,2,4,4,5,5,6,6],"right_children":[2,4,6,-1,8,10,12,-1,-1,-1,-1,-1,-1],"split_conditions":[6.9E-1,5.736679E1,9.11E-1,-2.3102213E-1,8.672699E0,2.00001E0,1.185E1,1.2509108E-1,-1.5961312E-2,-2.2711985E-2,-2.4402708E-1,4.5705508E-4,-2.7018222E-1],"split_indices":[7,0,7,0,4,10,1,0,0,0,0,0,0],"split_type":[0,0,0,0,0,0,0,0,0,0,0,0,0],"sum_hessian":[2.8046857E2,5.7296734E1,2.2317183E2,1.8381851E0,5.545855E1,2.3194876E1,1.9997696E2,3.985093E1,1.5607622E1,1.11868725E1,1.2008002E1,1.966412E2,3.3357472E0],"tree_param":{"num_deleted":"0","num_feature":"22","num_nodes":"13","size_leaf_vector":"1"}},{"base_weights":[-6.0434137E-2,-1.497724E-2,-2.4651478E-1,-4.126957E-2,5.0023293E-1,-1.2481744E-1,-7.575413E-1,-1.7423091E-2,2.1463692E-1,2.4943845E-1,-1.2022971E-1,-1.6272278E-1,1.9191114E-2,-5.0101197E-1,-7.987777E-2],"categories":[],"categories_nodes":[],"categories_segments":[],"categories_sizes":[],"default_left":[0,0,0,0,0,0,0,0,0,0,0,0,0,0,0],"id":51,"left_children":[1,3,5,7,9,11,13,-1,-1,-1,-1,-1,-1,-1,-1],"loss_changes":[2.3969145E0,3.1247451E0,3.3665802E0,2.826272E0,3.6764607E0,3.6727223E0,4.265604E0,0E0,0E0,0E0,0E0,0E0,0E0,0E0,0E0],"parents":[2147483647,0,0,1,1,2,2,3,3,4,4,5,5,6,6],"right_children":[2,4,6,8,10,12,14,-1,-1,-1,-1,-1,-1,-1,-1],"split_conditions":[1E1,7.5E1,1.1478764E1,5.2644467E0,7.75E1,8.95E0,7.4081383E0,-1.7423091E-2,2.1463692E-1,2.4943845E-1,-1.2022971E-1,-1.6272278E-1,1.9191114E-2,-5.0101197E-1,-7.987777E-2],"split_indices":[9,0,5,7,0,1,4,0,0,0,0,0,0,0,0],"split_type":[0,0,0,0,0,0,0,0,0,0,0,0,0,0,0],"sum_hessian":[2.8280496E2,2.2815129E2,5.4653683E1,2.1794878E2,1.02025175E1,4.514659E1,9.5070915E0,2.1411636E2,3.8324177E0,7.5164638E0,2.6860533E0,1.3472591E1,3.1674E1,2.4875011E0,7.0195904E0],"tree_param":{"num_deleted":"0","num_feature":"22","num_nodes":"15","size_leaf_vector":"1"}},{"base_weights":[3.5922136E-2,1.6615798E-1,-4.2322364E-2,-3.0627722E-1,2.4905342E-1,-2.6934293E-1,3.96193E-2,1.7839989E-2,-1.8289107E-1,-1.0734296E-1,8.3451346E-2,-1.6396822E-1,4.559991E-2,-2.5643984E-2,7.3922016E-2],"categories":[],"categories_nodes":[],"categories_segments":[],"categories_sizes":[],"default_left":[0,0,0,0,0,1,0,0,0,0,0,0,0,0,0],"id":52,"left_children":[1,3,5,7,9,11,13,-1,-1,-1,-1,-1,-1,-1,-1],"loss_changes":[2.7928603E0,4.10243E0,3.2024107E0,1.7886846E0,1.6547332E0,5.4131784E0,3.304954E0,0E0,0E0,0E0,0E0,0E0,0E0,0E0,0E0],"parents":[2147483647,0,0,1,1,2,2,3,3,4,4,5,5,6,6],"right_children":[2,4,6,8,10,12,14,-1,-1,-1,-1,-1,-1,-1,-1],"split_conditions":[4.3149666E1,5.95E0,6.88E1,9.051413E0,5.2E0,1.9028957E0,5E0,1.7839989E-2,-1.8289107E-1,-1.0734296E-1,8.3451346E-2,-1.6396822E-1,4.559991E-2,-2.5643984E-2,7.3922016E-2],"split_indices":[2,1,0,3,6,7,8,0,0,0,0,0,0,0,0],"split_type":[0,0,0,0,0,0,0,0,0,0,0,0,0,0,0],"sum_hessian":[2.7238205E2,1.0180569E2,1.7057635E2,1.4794513E1,8.701118E1,4.463299E1,1.2594337E2,7.072077E0,7.722436E0,3.46689E0,8.354428E1,2.6741516E1,1.7891478E1,7.883658E1,4.7106785E1],"tree_param":{"num_deleted":"0","num_feature":"22","num_nodes":"15","size_leaf_vector":"1"}},{"base_weights":[4.26104E-2,-1.3524356E-3,4.3381625E-1,5.3267054E-2,-2.348371E-1,6.7045116E-1,-1.6415846E-2,4.4579715E-2,-4.033818E-2,-2.0747203E-1,4.7677144E-2,3.049357E-1,5.591728E-2,8.635473E-2,-1.6291705E-1],"categories":[],"categories_nodes":[],"categories_segments":[],"categories_sizes":[],"default_left":[0,0,0,0,0,0,0,0,0,0,0,0,0,0,0],"id":53,"left_children":[1,3,5,7,9,11,13,-1,-1,-1,-1,-1,-1,-1,-1],"loss_changes":[4.838513E0,3.250164E0,3.0390286E0,3.7167087E0,8.799231E0,2.93476E0,1.8817035E0,0E0,0E0,0E0,0E0,0E0,0E0,0E0,0E0],"parents":[2147483647,0,0,1,1,2,2,3,3,4,4,5,5,6,6],"right_children":[2,4,6,8,10,12,14,-1,-1,-1,-1,-1,-1,-1,-1],"split_conditions":[4.655667E1,9.2E0,2.5160532E0,8.6E0,6.69E1,4.7340034E1,1.7868431E-17,4.4579715E-2,-4.033818E-2,-2.0747203E-1,4.7677144E-2,3.049357E-1,5.591728E-2,8.635473E-2,-1.6291705E-1],"split_indices":[2,6,7,1,0,2,20,0,0,0,0,0,0,0,0],"split_type":[0,0,0,0,0,0,0,0,0,0,0,0,0,0,0],"sum_hessian":[2.80299E2,2.5287772E2,2.7421288E1,2.0556207E2,4.7315647E1,1.7653671E1,9.767616E0,1.3646883E2,6.9093254E1,2.1555908E1,2.5759737E1,9.653562E0,8.00011E0,6.4782524E0,3.2893634E0],"tree_param":{"num_deleted":"0","num_feature":"22","num_nodes":"15","size_leaf_vector":"1"}},{"base_weights":[-4.3742236E-2,1.547192E-1,-8.86901E-2,-4.6332392E-1,2.6576775E-1,-8.223216E-1,-6.674284E-2,6.889649E-3,-2.7207917E-1,1.2218607E-1,-1.3422418E-1,-3.3465415E-1,4.794255E-2,3.4097873E-2,-4.581688E-2],"categories":[],"categories_nodes":[],"categories_segments":[],"categories_sizes":[],"default_left":[0,0,0,0,0,0,1,0,0,0,0,0,0,0,0],"id":54,"left_children":[1,3,5,7,9,11,13,-1,-1,-1,-1,-1,-1,-1,-1],"loss_changes":[2.4994495E0,3.679747E0,3.613535E0,1.8021239E0,4.679964E0,2.0584803E0,3.4655418E0,0E0,0E0,0E0,0E0,0E0,0E0,0E0,0E0],"parents":[2147483647,0,0,1,1,2,2,3,3,4,4,5,5,6,6],"right_children":[2,4,6,8,10,12,14,-1,-1,-1,-1,-1,-1,-1,-1],"split_conditions":[7.8557553E0,6.35E1,7.2783246E0,7.2783246E0,4.62E1,1.01E1,1.015E0,6.889649E-3,-2.7207917E-1,1.2218607E-1,-1.3422418E-1,-3.3465415E-1,4.794255E-2,3.4097873E-2,-4.581688E-2],"split_indices":[5,0,3,3,2,5,7,0,0,0,0,0,0,0,0],"split_type":[0,0,0,0,0,0,0,0,0,0,0,0,0,0,0],"sum_hessian":[2.776559E2,5.0820858E1,2.2683507E2,7.2573967E0,4.356346E1,5.529582E0,2.2130548E2,3.914492E0,3.3429048E0,3.6708237E1,6.855227E0,4.153762E0,1.37582E0,7.13267E1,1.4997879E2],"tree_param":{"num_deleted":"0","num_feature":"22","num_nodes":"15","size_leaf_vector":"1"}},{"base_weights":[2.483349E-2,-3.3106333E-1,3.6602832E-2,-1.0594083E-2,2.5833762E-1,4.2057365E-2,-2.694839E-2,-7.4918307E-3,1.3380401E-1],"categories":[],"categories_nodes":[],"categories_segments":[],"categories_sizes":[],"default_left":[0,0,0,0,0,0,0,0,0],"id":55,"left_children":[1,-1,3,5,7,-1,-1,-1,-1],"loss_changes":[3.8836825E0,0E0,3.010216E0,2.8549201E0,2.6948535E0,0E0,0E0,0E0,0E0],"parents":[2147483647,0,0,2,2,3,3,4,4],"right_children":[2,-1,4,6,8,-1,-1,-1,-1],"split_conditions":[4.4E0,-3.3106333E-1,9.224968E0,6.6E0,8.430585E0,4.2057365E-2,-2.694839E-2,-7.4918307E-3,1.3380401E-1],"split_indices":[6,0,4,4,1,0,0,0,0],"split_type":[0,0,0,0,0,0,0,0,0],"sum_hessian":[2.8839856E2,2.0194638E0,2.863791E2,2.369053E2,4.947378E1,8.1340904E1,1.5556439E2,2.0059471E1,2.9414312E1],"tree_param":{"num_deleted":"0","num_feature":"22","num_nodes":"9","size_leaf_vector":"1"}},{"base_weights":[-3.7141223E-2,-5.221729E-2,7.5287294E-1,-7.753954E-2,3.5938957E-1,2.9629403E-1,2.88386E-2,-1.18889995E-2,-1.13197975E-1,2.8921106E-1,-9.25872E-2],"categories":[],"categories_nodes":[],"categories_segments":[],"categories_sizes":[],"default_left":[0,0,0,0,0,0,0,0,0,0,0],"id":56,"left_children":[1,3,5,7,9,-1,-1,-1,-1,-1,-1],"loss_changes":[3.3842187E0,2.909956E0,7.259278E-1,2.9548295E0,6.842141E0,0E0,0E0,0E0,0E0,0E0,0E0],"parents":[2147483647,0,0,1,1,2,2,3,3,4,4],"right_children":[2,4,6,8,10,-1,-1,-1,-1,-1,-1],"split_conditions":[1.24E1,7.69E1,1.035E1,7.41E1,1.7868431E-17,2.9629403E-1,2.88386E-2,-1.18889995E-2,-1.13197975E-1,2.8921106E-1,-9.25872E-2],"split_indices":[6,0,1,0,20,0,0,0,0,0,0],"split_type":[0,0,0,0,0,0,0,0,0,0,0],"sum_hessian":[2.7984128E2,2.7551743E2,4.3238745E0,2.6031436E2,1.5203049E1,2.814051E0,1.5098234E0,2.3209679E2,2.8217587E1,7.747405E0,7.4556437E0],"tree_param":{"num_deleted":"0","num_feature":"22","num_nodes":"11","size_leaf_vector":"1"}},{"base_weights":[-1.0306072E-2,-1.7043196E-1,4.948453E-2,1.5323961E-1,-3.3319634E-1,4.0304014E-1,-3.1834615E-3,-5.036944E-3,2.4830717E-1,-1.4309004E-1,5.1959723E-2,-1.896424E-2,2.199197E-1,4.0217496E-2,-3.6250513E-2],"categories":[],"categories_nodes":[],"categories_segments":[],"categories_sizes":[],"default_left":[0,0,0,0,0,0,0,0,0,0,0,0,0,0,0],"id":57,"left_children":[1,3,5,7,9,11,13,-1,-1,-1,-1,-1,-1,-1,-1],"loss_changes":[2.6770322E0,4.055255E0,3.794889E0,3.0089314E0,3.7875948E0,4.111975E0,2.895239E0,0E0,0E0,0E0,0E0,0E0,0E0,0E0,0E0],"parents":[2147483647,0,0,1,1,2,2,3,3,4,4,5,5,6,6],"right_children":[2,4,6,8,10,12,14,-1,-1,-1,-1,-1,-1,-1,-1],"split_conditions":[7.3E0,6.3E0,6.57E1,6.15E0,3.1622776E-1,4E0,2.00001E0,-5.036944E-3,2.4830717E-1,-1.4309004E-1,5.1959723E-2,-1.896424E-2,2.199197E-1,4.0217496E-2,-3.6250513E-2],"split_indices":[1,1,0,1,20,9,10,0,0,0,0,0,0,0,0],"split_type":[0,0,0,0,0,0,0,0,0,0,0,0,0,0,0],"sum_hessian":[2.7773322E2,7.500663E1,2.027266E2,2.5117247E1,4.988938E1,2.5421541E1,1.7730505E2,2.0838865E1,4.2783823E0,3.8902664E1,1.098672E1,1.08712635E1,1.4550277E1,8.177464E1,9.553041E1],"tree_param":{"num_deleted":"0","num_feature":"22","num_nodes":"15","size_leaf_vector":"1"}},{"base_weights":[9.466919E-3,3.0351368E-1,-1.9500095E-2,5.8229613E-1,-3.200259E-1,-3.7188563E-2,6.431905E-1,2.3338802E-1,-1.2629455E-1,-3.4360573E-1,7.2635666E-2,6.863962E-2,-2.3603512E-2,-1.3451621E-1,2.8008527E-1],"categories":[],"categories_nodes":[],"categories_segments":[],"categories_sizes":[],"default_left":[0,0,0,0,0,0,0,0,0,0,0,0,0,0,0],"id":58,"left_children":[1,3,5,7,9,11,13,-1,-1,-1,-1,-1,-1,-1,-1],"loss_changes":[2.3847518E0,4.5505185E0,3.0150983E0,3.802834E0,4.1754503E0,2.7712932E0,2.53911E0,0E0,0E0,0E0,0E0,0E0,0E0,0E0,0E0],"parents":[2147483647,0,0,1,1,2,2,3,3,4,4,5,5,6,6],"right_children":[2,4,6,8,10,12,14,-1,-1,-1,-1,-1,-1,-1,-1],"split_conditions":[2.00001E0,1.854E0,1.2E1,7.38E1,2.327E0,6.22E1,4.071189E1,2.3338802E-1,-1.2629455E-1,-3.4360573E-1,7.2635666E-2,6.863962E-2,-2.3603512E-2,-1.3451621E-1,2.8008527E-1],"split_indices":[17,7,4,0,7,0,2,0,0,0,0,0,0,0,0],"split_type":[0,0,0,0,0,0,0,0,0,0,0,0,0,0,0],"sum_hessian":[2.782826E2,2.4105688E1,2.5417691E2,1.6703674E1,7.4020123E0,2.4848817E2,5.688738E0,1.4165613E1,2.5380623E0,2.5786443E0,4.823368E0,3.292088E1,2.1556729E2,1.0811846E0,4.6075535E0],"tree_param":{"num_deleted":"0","num_feature":"22","num_nodes":"15","size_leaf_vector":"1"}},{"base_weights":[-1.608437E-2,1.2922947E-1,-7.038342E-2,-7.6634794E-2,3.6670864E-1,7.429414E-1,-9.151568E-2,6.627544E-2,-1.3606583E-1,1.6123939E-1,-1.22036465E-1,3.946096E-2,3.4974894E-1,-4.417501E-2,4.82778E-2],"categories":[],"categories_nodes":[],"categories_segments":[],"categories_sizes":[],"default_left":[0,0,0,0,0,0,0,0,0,0,0,0,0,0,0],"id":59,"left_children":[1,3,5,7,9,11,13,-1,-1,-1,-1,-1,-1,-1,-1],"loss_changes":[2.207709E0,3.7509515E0,3.5655236E0,4.7676916E0,4.911758E0,1.2074492E0,2.8268116E0,0E0,0E0,0E0,0E0,0E0,0E0,0E0,0E0],"parents":[2147483647,0,0,1,1,2,2,3,3,4,4,5,5,6,6],"right_children":[2,4,6,8,10,12,14,-1,-1,-1,-1,-1,-1,-1,-1],"split_conditions":[6.5247197E0,8.394068E0,5.9E0,1.965E0,1.1672366E1,9.1E0,2.84E0,6.627544E-2,-1.3606583E-1,1.6123939E-1,-1.22036465E-1,3.946096E-2,3.4974894E-1,-4.417501E-2,4.82778E-2],"split_indices":[4,3,6,7,3,3,7,0,0,0,0,0,0,0,0],"split_type":[0,0,0,0,0,0,0,0,0,0,0,0,0,0,0],"sum_hessian":[2.7764395E2,7.5149826E1,2.0249414E2,4.0617184E1,3.453264E1,4.26307E0,1.9823106E2,2.2929596E1,1.7687586E1,2.8537823E1,5.9948173E0,2.279071E0,1.9839991E0,1.6272186E2,3.550921E1],"tree_param":{"num_deleted":"0","num_feature":"22","num_nodes":"15","size_leaf_vector":"1"}},{"base_weights":[1.3622608E-2,-2.6667577E-1,4.3449383E-2,-6.020955E-1,2.5929907E-1,8.0597654E-2,-2.0804507E-1,-8.848194E-2,-2.7300078E-1,2.0442459E-1,-2.127502E-1,2.8226122E-2,-2.2190632E-1,-1.2034824E-1,1.4375946E-1],"categories":[],"categories_nodes":[],"categories_segments":[],"categories_sizes":[],"default_left":[0,0,0,0,0,0,0,0,0,0,0,0,0,0,0],"id":60,"left_children":[1,3,5,7,9,11,13,-1,-1,-1,-1,-1,-1,-1,-1],"loss_changes":[2.3930156E0,5.0140257E0,2.4300575E0,1.3502169E0,5.152254E0,2.5679655E0,4.641426E0,0E0,0E0,0E0,0E0,0E0,0E0,0E0,0E0],"parents":[2147483647,0,0,1,1,2,2,3,3,4,4,5,5,6,6],"right_children":[2,4,6,8,10,12,14,-1,-1,-1,-1,-1,-1,-1,-1],"split_conditions":[7.1E0,7.18E1,9.9E0,6.2261157E0,9.4E0,5.811E0,-1.4819496E-18,-8.848194E-2,-2.7300078E-1,2.0442459E-1,-2.127502E-1,2.8226122E-2,-2.2190632E-1,-1.2034824E-1,1.4375946E-1],"split_indices":[5,0,4,6,1,7,18,0,0,0,0,0,0,0,0],"split_type":[0,0,0,0,0,0,0,0,0,0,0,0,0,0,0],"sum_hessian":[2.8384637E2,2.653565E1,2.573107E2,1.6114525E1,1.0421124E1,2.2478694E2,3.2523773E1,9.047245E0,7.067281E0,7.4641814E0,2.9569435E0,2.2202115E2,2.7657902E0,2.5714315E1,6.8094597E0],"tree_param":{"num_deleted":"0","num_feature":"22","num_nodes":"15","size_leaf_vector":"1"}},{"base_weights":[4.569625E-2,-8.4012E-2,1.3784413E-1,-1.17987186E-1,3.312943E-1,3.135248E-1,4.819753E-2,-3.6517156E-3,-1.12659134E-1,1.1040863E-1,-3.2436767E-1,5.5703025E-2,-4.072741E-2],"categories":[],"categories_nodes":[],"categories_segments":[],"categories_sizes":[],"default_left":[0,0,0,0,0,0,0,0,0,0,0,0,0],"id":61,"left_children":[1,3,5,7,-1,9,11,-1,-1,-1,-1,-1,-1],"loss_changes":[3.3186738E0,4.7952404E0,2.538548E0,3.0813293E0,0E0,4.548787E0,2.7702618E0,0E0,0E0,0E0,0E0,0E0,0E0],"parents":[2147483647,0,0,1,1,2,2,3,3,5,5,6,6],"right_children":[2,4,6,8,-1,10,12,-1,-1,-1,-1,-1,-1],"split_conditions":[7.2E0,1.085E1,5E0,9.9E0,3.312943E-1,4.917E0,8.7E0,-3.6517156E-3,-1.12659134E-1,1.1040863E-1,-3.2436767E-1,5.5703025E-2,-4.072741E-2],"split_indices":[4,1,9,5,0,7,4,0,0,0,0,0,0],"split_type":[0,0,0,0,0,0,0,0,0,0,0,0,0],"sum_hessian":[2.7569E2,1.1454443E2,1.6114557E2,1.1223623E2,2.3082104E0,5.3602757E1,1.07542816E2,8.02938E1,3.1942429E1,5.22953E1,1.307457E0,6.154088E1,4.6001934E1],"tree_param":{"num_deleted":"0","num_feature":"22","num_nodes":"13","size_leaf_vector":"1"}},{"base_weights":[1.5536089E-2,-3.1277838E-1,4.5627862E-2,-3.5465855E-2,-1.0967449E0,-3.1668216E-1,7.026825E-2,-7.837662E-2,1.4144032E-1,-4.1709235E-1,8.277629E-3,1.1623994E-1,-1.7898487E-1,1.6383275E-2,2.074223E-1],"categories":[],"categories_nodes":[],"categories_segments":[],"categories_sizes":[],"default_left":[0,0,0,0,0,0,0,0,0,0,0,0,0,0,0],"id":62,"left_children":[1,3,5,7,9,11,13,-1,-1,-1,-1,-1,-1,-1,-1],"loss_changes":[2.7223144E0,4.992086E0,2.2716534E0,2.1980882E0,2.023161E0,3.429615E0,2.2646108E0,0E0,0E0,0E0,0E0,0E0,0E0,0E0,0E0],"parents":[2147483647,0,0,1,1,2,2,3,3,4,4,5,5,6,6],"right_children":[2,4,6,8,10,12,14,-1,-1,-1,-1,-1,-1,-1,-1],"split_conditions":[7.2E0,7E0,2.00001E0,4.530149E1,2.975E0,9.051413E0,1.16E1,-7.837662E-2,1.4144032E-1,-4.1709235E-1,8.277629E-3,1.1623994E-1,-1.7898487E-1,1.6383275E-2,2.074223E-1],"split_indices":[5,5,13,2,7,3,1,0,0,0,0,0,0,0,0],"split_type":[0,0,0,0,0,0,0,0,0,0,0,0,0,0,0],"sum_hessian":[2.731055E2,2.2141195E1,2.5096431E2,1.7127811E1,5.0133824E0,1.5226281E1,2.3573804E2,1.218515E1,4.9426613E0,3.787828E0,1.2255547E0,4.2220254E0,1.1004255E1,2.3100296E2,4.7350726E0],"tree_param":{"num_deleted":"0","num_feature":"22","num_nodes":"15","size_leaf_vector":"1"}},{"base_weights":[9.578107E-6,3.7160676E-2,-2.9125032E-1,1.9907108E-2,3.9763683E-1,6.298089E-1,-4.7481585E-1,-1.0838572E-2,6.0088E-2,1.74762E-1,-1.5713912E-1,3.3674845E-1,-3.5812333E-2,-7.347405E-2,-2.7377024E-1],"categories":[],"categories_nodes":[],"categories_segments":[],"categories_sizes":[],"default_left":[0,1,0,0,0,0,0,0,0,0,0,0,0,0,0],"id":63,"left_children":[1,3,5,7,9,11,13,-1,-1,-1,-1,-1,-1,-1,-1],"loss_changes":[3.007481E0,1.5251775E0,5.6150217E0,2.3956838E0,2.2144663E0,2.2212448E0,2.4723282E0,0E0,0E0,0E0,0E0,0E0,0E0,0E0,0E0],"parents":[2147483647,0,0,1,1,2,2,3,3,4,4,5,5,6,6],"right_children":[2,4,6,8,10,12,14,-1,-1,-1,-1,-1,-1,-1,-1],"split_conditions":[1.2721037E1,4.563E0,2.00001E0,8.636169E0,9.2E0,1.015E0,1.06E1,-1.0838572E-2,6.0088E-2,1.74762E-1,-1.5713912E-1,3.3674845E-1,-3.5812333E-2,-7.347405E-2,-2.7377024E-1],"split_indices":[5,7,15,6,6,7,4,0,0,0,0,0,0,0,0],"split_type":[0,0,0,0,0,0,0,0,0,0,0,0,0,0,0],"sum_hessian":[2.7593945E2,2.4549785E2,3.0441595E1,2.3529126E2,1.0206586E1,4.6547794E0,2.5786816E1,1.8013373E2,5.515753E1,8.80707E0,1.3995157E0,2.5074875E0,2.147292E0,1.7929773E1,7.857042E0],"tree_param":{"num_deleted":"0","num_feature":"22","num_nodes":"15","size_leaf_vector":"1"}},{"base_weights":[2.1363083E-2,-1.5276371E-1,8.2095675E-2,-5.5332392E-2,-7.471503E-1,1.431063E-1,-2.5953582E-1,-6.157205E-2,1.5923505E-1,-2.834082E-1,6.07242E-2,2.7623832E-2,1.9049601E-1,4.68241E-2,-1.6232593E-1],"categories":[],"categories_nodes":[],"categories_segments":[],"categories_sizes":[],"default_left":[0,0,0,0,0,0,0,0,0,0,0,0,0,0,0],"id":64,"left_children":[1,3,5,7,9,11,13,-1,-1,-1,-1,-1,-1,-1,-1],"loss_changes":[2.9234462E0,4.101035E0,4.304346E0,5.603494E0,2.0658436E0,4.3176165E0,3.7561162E0,0E0,0E0,0E0,0E0,0E0,0E0,0E0,0E0],"parents":[2147483647,0,0,1,1,2,2,3,3,4,4,5,5,6,6],"right_children":[2,4,6,8,10,12,14,-1,-1,-1,-1,-1,-1,-1,-1],"split_conditions":[4.23E1,1.2676442E1,1.025E1,1.126047E1,1.05E1,1.31E1,1.03E1,-6.157205E-2,1.5923505E-1,-2.834082E-1,6.07242E-2,2.7623832E-2,1.9049601E-1,4.68241E-2,-1.6232593E-1],"split_indices":[2,3,1,3,6,3,3,0,0,0,0,0,0,0,0],"split_type":[0,0,0,0,0,0,0,0,0,0,0,0,0,0,0],"sum_hessian":[2.742584E2,7.052898E1,2.0372942E2,6.1535263E1,8.993714E0,1.7335223E2,3.0377178E1,4.9519703E1,1.2015562E1,7.449151E0,1.5445628E0,1.581348E2,1.5217442E1,1.2447787E1,1.792939E1],"tree_param":{"num_deleted":"0","num_feature":"22","num_nodes":"15","size_leaf_vector":"1"}},{"base_weights":[-4.5259345E-2,-6.7802474E-2,3.1869552E-1,-2.4914358E-2,-2.6785097E-1,6.488425E-1,9.093459E-2,-1.4840975E-1,-6.1656453E-4,-1.939585E-1,-2.4303732E-2,-2.7422015E-2,2.65791E-1,-7.703747E-2,1.2711571E-1],"categories":[],"categories_nodes":[],"categories_segments":[],"categories_sizes":[],"default_left":[0,0,0,0,0,0,0,0,0,0,0,0,0,0,0],"id":65,"left_children":[1,3,5,7,9,11,13,-1,-1,-1,-1,-1,-1,-1,-1],"loss_changes":[2.2413824E0,2.1862476E0,1.1407788E0,2.27105E0,3.132864E0,1.1957564E0,1.335985E0,0E0,0E0,0E0,0E0,0E0,0E0,0E0,0E0],"parents":[2147483647,0,0,1,1,2,2,3,3,4,4,5,5,6,6],"right_children":[2,4,6,8,10,12,14,-1,-1,-1,-1,-1,-1,-1,-1],"split_conditions":[4.7137238E1,1E1,4.76E1,6.5E0,6.63074E0,8.264676E0,7.5E1,-1.4840975E-1,-6.1656453E-4,-1.939585E-1,-2.4303732E-2,-2.7422015E-2,2.65791E-1,-7.703747E-2,1.2711571E-1],"split_indices":[2,9,2,3,6,3,0,0,0,0,0,0,0,0,0],"split_type":[0,0,0,0,0,0,0,0,0,0,0,0,0,0,0],"sum_hessian":[2.695497E2,2.5459404E2,1.4955684E1,2.1057393E2,4.402011E1,5.350773E0,9.60491E0,8.813058E0,2.0176088E2,1.373076E1,3.028935E1,1.4472783E0,3.9034948E0,4.8086796E0,4.7962303E0],"tree_param":{"num_deleted":"0","num_feature":"22","num_nodes":"15","size_leaf_vector":"1"}},{"base_weights":[-4.3607466E-2,-5.7449497E-2,6.0718423E-1,-4.8102397E-2,-3.2862496E-1,2.6519E-1,-9.84888E-2,-7.939197E-3,-1.0698589E-1],"categories":[],"categories_nodes":[],"categories_segments":[],"categories_sizes":[],"default_left":[1,0,0,0,0,0,0,0,0],"id":66,"left_children":[1,3,5,7,-1,-1,-1,-1,-1],"loss_changes":[2.508937E0,2.5652514E0,1.7935927E0,1.782845E0,0E0,0E0,0E0,0E0,0E0],"parents":[2147483647,0,0,1,1,2,2,3,3],"right_children":[2,4,6,8,-1,-1,-1,-1,-1],"split_conditions":[5.063E0,4.917E0,1E1,1.09E1,-3.2862496E-1,2.6519E-1,-9.84888E-2,-7.939197E-3,-1.0698589E-1],"split_indices":[7,7,9,4,0,0,0,0,0],"split_type":[0,0,0,0,0,0,0,0,0],"sum_hessian":[2.736423E2,2.68836E2,4.80629E0,2.674737E2,1.3623104E0,3.7514174E0,1.0548728E0,2.5095807E2,1.6515617E1],"tree_param":{"num_deleted":"0","num_feature":"22","num_nodes":"9","size_leaf_vector":"1"}},{"base_weights":[1.5966417E-2,-6.6035956E-2,1.3620535E-1,-3.4499902E-2,-5.0958854E-1,2.2647133E-2,3.3619922E-1,3.4333855E-2,-3.2363154E-2,-2.7721852E-1,9.4088964E-2,4.195781E-2,-1.4225233E-1,1.6025552E-1,-4.4147696E-2],"categories":[],"categories_nodes":[],"categories_segments":[],"categories_sizes":[],"default_left":[0,0,0,0,0,0,0,0,0,0,0,0,0,0,0],"id":67,"left_children":[1,3,5,7,9,11,13,-1,-1,-1,-1,-1,-1,-1,-1],"loss_changes":[2.712991E0,2.272509E0,2.5251796E0,1.6946254E0,3.9730735E0,4.2710896E0,3.9369392E0,0E0,0E0,0E0,0E0,0E0,0E0,0E0,0E0],"parents":[2147483647,0,0,1,1,2,2,3,3,4,4,5,5,6,6],"right_children":[2,4,6,8,10,12,14,-1,-1,-1,-1,-1,-1,-1,-1],"split_conditions":[1.03E1,1.02E1,6.98E1,4E0,8.4172125E0,1.03E1,1.07E1,3.4333855E-2,-3.2363154E-2,-2.7721852E-1,9.4088964E-2,4.195781E-2,-1.4225233E-1,1.6025552E-1,-4.4147696E-2],"split_indices":[3,3,0,8,6,4,1,0,0,0,0,0,0,0,0],"split_type":[0,0,0,0,0,0,0,0,0,0,0,0,0,0,0],"sum_hessian":[2.732424E2,1.6271936E2,1.1052304E2,1.5292441E2,9.794959E0,7.120531E1,3.9317734E1,5.028759E1,1.0263681E2,6.4333863E0,3.361573E0,5.8194344E1,1.30109625E1,2.7818136E1,1.1499597E1],"tree_param":{"num_deleted":"0","num_feature":"22","num_nodes":"15","size_leaf_vector":"1"}},{"base_weights":[1.828528E-2,1.6071515E-1,-5.9634328E-2,3.0430658E-2,8.314603E-1,7.7395546E-1,-7.978966E-2,-1.4887106E-2,1.3176791E-1,2.3647437E-2,2.998967E-1,3.8076304E-2,2.9714617E-1,-9.2293605E-2,3.5032998E-3],"categories":[],"categories_nodes":[],"categories_segments":[],"categories_sizes":[],"default_left":[0,0,0,0,0,0,0,0,0,0,0,0,0,0,0],"id":68,"left_children":[1,3,5,7,9,11,13,-1,-1,-1,-1,-1,-1,-1,-1],"loss_changes":[2.985481E0,8.284541E0,2.986075E0,2.6615748E0,1.8742685E0,4.630761E-1,3.5643575E0,0E0,0E0,0E0,0E0,0E0,0E0,0E0,0E0],"parents":[2147483647,0,0,1,1,2,2,3,3,4,4,5,5,6,6],"right_children":[2,4,6,8,10,12,14,-1,-1,-1,-1,-1,-1,-1,-1],"split_conditions":[6.9E0,6.63074E0,5.6036253E0,1.06E1,4E0,5E0,7.6E0,-1.4887106E-2,1.3176791E-1,2.3647437E-2,2.998967E-1,3.8076304E-2,2.9714617E-1,-9.2293605E-2,3.5032998E-3],"split_indices":[6,6,4,3,9,9,4,0,0,0,0,0,0,0,0],"split_type":[0,0,0,0,0,0,0,0,0,0,0,0,0,0,0],"sum_hessian":[2.671452E2,9.409168E1,1.7305351E2,7.966336E1,1.4428319E1,3.2025368E0,1.6985097E2,6.735238E1,1.23109865E1,2.9036775E0,1.1524642E1,1.2007226E0,2.0018141E0,4.7975357E1,1.2187562E2],"tree_param":{"num_deleted":"0","num_feature":"22","num_nodes":"15","size_leaf_vector":"1"}},{"base_weights":[5.6597684E-4,1.0393035E-1,-5.9051976E-2,5.1900987E-2,5.429407E-1,-3.1953007E-1,-3.9383415E-3,3.22903E-2,-1.1360341E-1,-1.4956707E-1,2.592261E-1,-1.9300544E-1,3.118545E-2,2.1538205E-2,-7.435238E-2],"categories":[],"categories_nodes":[],"categories_segments":[],"categories_sizes":[],"default_left":[0,0,0,0,0,0,0,0,0,0,0,0,0,0,0],"id":69,"left_children":[1,3,5,7,9,11,13,-1,-1,-1,-1,-1,-1,-1,-1],"loss_changes":[1.6561308E0,2.2172413E0,2.4456782E0,2.1764092E0,3.8793602E0,4.1470985E0,2.6350782E0,0E0,0E0,0E0,0E0,0E0,0E0,0E0,0E0],"parents":[2147483647,0,0,1,1,2,2,3,3,4,4,5,5,6,6],"right_children":[2,4,6,8,10,12,14,-1,-1,-1,-1,-1,-1,-1,-1],"split_conditions":[9.051413E0,9E0,6.63074E0,8.600234E0,8.4E0,1.06E1,6E0,3.22903E-2,-1.1360341E-1,-1.4956707E-1,2.592261E-1,-1.9300544E-1,3.118545E-2,2.1538205E-2,-7.435238E-2],"split_indices":[3,3,6,3,5,3,8,0,0,0,0,0,0,0,0],"split_type":[0,0,0,0,0,0,0,0,0,0,0,0,0,0,0],"sum_hessian":[2.6675296E2,9.730474E1,1.6944821E2,8.799431E1,9.310432E0,2.8753891E1,1.4069432E2,7.8573875E1,9.420431E0,2.0640764E0,7.2463565E0,1.6000036E1,1.2753856E1,1.0789755E2,3.279677E1],"tree_param":{"num_deleted":"0","num_feature":"22","num_nodes":"15","size_leaf_vector":"1"}},{"base_weights":[-3.7554685E-2,-7.639132E-2,1.5083092E-1,5.994459E-2,-1.8234393E-1,2.3272003E-1,-4.6235076E-1,-2.259343E-2,8.593094E-2,-8.599074E-2,3.0131547E-2,1.7785391E-1,1.5344431E-2,-2.548971E-1,1.9010016E-1],"categories":[],"categories_nodes":[],"categories_segments":[],"categories_sizes":[],"default_left":[0,0,0,0,0,0,0,0,0,0,0,0,0,0,0],"id":70,"left_children":[1,3,5,7,9,11,13,-1,-1,-1,-1,-1,-1,-1,-1],"loss_changes":[1.9577404E0,3.2063377E0,2.4074922E0,3.008041E0,3.7070866E0,2.655315E0,2.9711924E0,0E0,0E0,0E0,0E0,0E0,0E0,0E0,0E0],"parents":[2147483647,0,0,1,1,2,2,3,3,4,4,5,5,6,6],"right_children":[2,4,6,8,10,12,14,-1,-1,-1,-1,-1,-1,-1,-1],"split_conditions":[1.21E1,7.95E0,3.95E0,7.3E0,4.601421E1,8.130494E0,4.668E0,-2.259343E-2,8.593094E-2,-8.599074E-2,3.0131547E-2,1.7785391E-1,1.5344431E-2,-2.548971E-1,1.9010016E-1],"split_indices":[5,1,7,1,2,4,7,0,0,0,0,0,0,0,0],"split_type":[0,0,0,0,0,0,0,0,0,0,0,0,0,0,0],"sum_hessian":[2.650126E2,2.2020975E2,4.4802845E1,9.648747E1,1.2372228E2,4.007181E1,4.731034E0,6.0829124E1,3.5658344E1,9.037705E1,3.334523E1,1.2672446E1,2.7399364E1,3.6618154E0,1.0692186E0],"tree_param":{"num_deleted":"0","num_feature":"22","num_nodes":"15","size_leaf_vector":"1"}},{"base_weights":[5.7254586E-2,1.916222E-1,-4.408792E-3,1.2728205E-1,5.25278E-1,-1.9516127E-1,5.678861E-2,-7.911589E-4,9.421638E-2,2.0039459E-1,-4.986224E-2,-1.6811289E-1,1.8385107E-2,-1.3443713E-2,7.259999E-2],"categories":[],"categories_nodes":[],"categories_segments":[],"categories_sizes":[],"default_left":[0,0,0,0,0,0,0,0,0,0,0,0,0,0,0],"id":71,"left_children":[1,3,5,7,9,11,13,-1,-1,-1,-1,-1,-1,-1,-1],"loss_changes":[2.2653425E0,1.7792056E0,2.2093637E0,1.7821871E0,1.4512587E0,4.339375E0,2.7083027E0,0E0,0E0,0E0,0E0,0E0,0E0,0E0,0E0],"parents":[2147483647,0,0,1,1,2,2,3,3,4,4,5,5,6,6],"right_children":[2,4,6,8,10,12,14,-1,-1,-1,-1,-1,-1,-1,-1],"split_conditions":[4.28E1,4.24E1,4.3875313E1,1.7868431E-17,8E0,1.227E0,5E0,-7.911589E-4,9.421638E-2,2.0039459E-1,-4.986224E-2,-1.6811289E-1,1.8385107E-2,-1.3443713E-2,7.259999E-2],"split_indices":[2,2,2,20,9,7,8,0,0,0,0,0,0,0,0],"split_type":[0,0,0,0,0,0,0,0,0,0,0,0,0,0,0],"sum_hessian":[2.7230646E2,8.499358E1,1.8731287E2,7.2411644E1,1.25819435E1,4.496568E1,1.423472E2,4.328701E1,2.912463E1,1.0457738E1,2.1242058E0,1.8060177E1,2.69055E1,9.2411354E1,4.993584E1],"tree_param":{"num_deleted":"0","num_feature":"22","num_nodes":"15","size_leaf_vector":"1"}},{"base_weights":[-2.802955E-2,-1.842088E-1,3.8571086E-2,6.539498E-1,-2.2777008E-1,2.8382808E-1,-9.113041E-3,2.8580463E-1,-4.7059666E-2,-1.08635254E-1,3.0506575E-3,-1.3986929E-1,1.3156597E-1,-2.0286345E-1,7.292746E-3],"categories":[],"categories_nodes":[],"categories_segments":[],"categories_sizes":[],"default_left":[1,0,0,0,0,0,0,0,0,0,0,0,0,0,0],"id":72,"left_children":[1,3,5,7,9,11,13,-1,-1,-1,-1,-1,-1,-1,-1],"loss_changes":[2.8255374E0,3.112843E0,2.233768E0,1.1834391E0,2.4941463E0,3.8121161E0,3.5993161E0,0E0,0E0,0E0,0E0,0E0,0E0,0E0,0E0],"parents":[2147483647,0,0,1,1,2,2,3,3,4,4,5,5,6,6],"right_children":[2,4,6,8,10,12,14,-1,-1,-1,-1,-1,-1,-1,-1],"split_conditions":[9.23E-1,2.00001E0,5.954301E0,8.7E0,2.00001E0,6.45E1,2.00001E0,2.8580463E-1,-4.7059666E-2,-1.08635254E-1,3.0506575E-3,-1.3986929E-1,1.3156597E-1,-2.0286345E-1,7.292746E-3],"split_indices":[7,12,4,1,14,0,12,0,0,0,0,0,0,0,0],"split_type":[0,0,0,0,0,0,0,0,0,0,0,0,0,0,0],"sum_hessian":[2.6996048E2,8.017749E1,1.8978299E2,3.2688906E0,7.69086E1,3.0086226E1,1.5969676E2,2.2609217E0,1.007969E0,4.8820946E1,2.8087654E1,4.8006916E0,2.5285534E1,6.7016253E0,1.5299513E2],"tree_param":{"num_deleted":"0","num_feature":"22","num_nodes":"15","size_leaf_vector":"1"}},{"base_weights":[-3.5762586E-2,1.5236726E-2,-2.4832796E-1,1.3685465E-1,-4.1949686E-2,4.471188E-1,-4.05392E-1,8.988455E-3,1.9697209E-1,-1.5303718E-1,-4.0633776E-4,2.328393E-1,-9.4911896E-2,-1.8468912E-1,4.6178065E-2],"categories":[],"categories_nodes":[],"categories_segments":[],"categories_sizes":[],"default_left":[0,0,0,0,0,0,0,0,0,0,0,0,0,0,0],"id":73,"left_children":[1,3,5,7,9,11,13,-1,-1,-1,-1,-1,-1,-1,-1],"loss_changes":[2.9158804E0,1.519056E0,5.8651977E0,3.8594518E0,2.8266687E0,2.7732503E0,5.1480856E0,0E0,0E0,0E0,0E0,0E0,0E0,0E0,0E0],"parents":[2147483647,0,0,1,1,2,2,3,3,4,4,5,5,6,6],"right_children":[2,4,6,8,10,12,14,-1,-1,-1,-1,-1,-1,-1,-1],"split_conditions":[2.963E0,6.9E0,7.8557553E0,1.06E1,7.0653305E0,7.49E1,1.21E1,8.988455E-3,1.9697209E-1,-1.5303718E-1,-4.0633776E-4,2.328393E-1,-9.4911896E-2,-1.8468912E-1,4.6178065E-2],"split_indices":[7,6,5,5,6,0,5,0,0,0,0,0,0,0,0],"split_type":[0,0,0,0,0,0,0,0,0,0,0,0,0,0,0],"sum_hessian":[2.6762656E2,2.1658997E2,5.1036583E1,6.882571E1,1.4776425E2,9.062591E0,4.197399E1,5.7962025E1,1.0863684E1,1.0867388E1,1.3689687E2,6.3217845E0,2.7408066E0,3.0433779E1,1.1540215E1],"tree_param":{"num_deleted":"0","num_feature":"22","num_nodes":"15","size_leaf_vector":"1"}},{"base_weights":[2.5454562E-2,3.4932267E-2,-6.403932E-1,5.0134443E-2,-3.6785305E-1,-2.2219103E-2,-2.5850472E-1,7.940006E-3,1.0960559E-1,-2.4028264E-1,3.41408E-2],"categories":[],"categories_nodes":[],"categories_segments":[],"categories_sizes":[],"default_left":[0,0,0,0,0,0,0,0,0,0,0],"id":74,"left_children":[1,3,5,7,9,-1,-1,-1,-1,-1,-1],"loss_changes":[1.7459848E0,1.6731822E0,4.2303896E-1,1.9396966E0,2.1664195E0,0E0,0E0,0E0,0E0,0E0,0E0],"parents":[2147483647,0,0,1,1,2,2,3,3,4,4],"right_children":[2,4,6,8,10,-1,-1,-1,-1,-1,-1],"split_conditions":[1.62E1,1.16E1,1E1,1.31E1,1.15E1,-2.2219103E-2,-2.5850472E-1,7.940006E-3,1.0960559E-1,-2.4028264E-1,3.41408E-2],"split_indices":[3,6,1,3,4,0,0,0,0,0,0],"split_type":[0,0,0,0,0,0,0,0,0,0,0],"sum_hessian":[2.7212534E2,2.692405E2,2.8848429E0,2.6029193E2,8.94857E0,1.1855193E0,1.6993237E0,2.4312138E2,1.7170536E1,4.3627944E0,4.585776E0],"tree_param":{"num_deleted":"0","num_feature":"22","num_nodes":"11","size_leaf_vector":"1"}},{"base_weights":[-3.3408124E-2,-1.0442119E-1,1.4576384E-1,5.3485304E-1,-1.35391E-1,-2.2382301E-1,2.517034E-1,-1.09132305E-2,2.4420221E-1,2.2815019E-2,-6.607051E-2,2.4745214E-1,-1.15690835E-1,1.3786262E-1,2.4341831E-2],"categories":[],"categories_nodes":[],"categories_segments":[],"categories_sizes":[],"default_left":[0,0,0,0,0,0,0,0,0,0,0,0,0,0,0],"id":75,"left_children":[1,3,5,7,9,11,13,-1,-1,-1,-1,-1,-1,-1,-1],"loss_changes":[3.4555175E0,3.9176831E0,3.077643E0,1.4928973E0,3.3543375E0,3.3250198E0,2.105459E0,0E0,0E0,0E0,0E0,0E0,0E0,0E0,0E0],"parents":[2147483647,0,0,1,1,2,2,3,3,4,4,5,5,6,6],"right_children":[2,4,6,8,10,12,14,-1,-1,-1,-1,-1,-1,-1,-1],"split_conditions":[8.636169E0,2.44E-1,6.32E1,4.220953E1,8.041013E0,9.050333E0,1.0812243E1,-1.09132305E-2,2.4420221E-1,2.2815019E-2,-6.607051E-2,2.4745214E-1,-1.15690835E-1,1.3786262E-1,2.4341831E-2],"split_indices":[6,7,0,2,3,5,3,0,0,0,0,0,0,0,0],"split_type":[0,0,0,0,0,0,0,0,0,0,0,0,0,0,0],"sum_hessian":[2.6938812E2,1.9322319E2,7.616493E1,8.176426E0,1.8504677E2,1.6720411E1,5.9444523E1,2.9695513E0,5.206875E0,5.3019577E1,1.3202719E2,1.6873965E0,1.5033014E1,2.603078E1,3.3413742E1],"tree_param":{"num_deleted":"0","num_feature":"22","num_nodes":"15","size_leaf_vector":"1"}},{"base_weights":[-2.4625708E-3,7.460083E-2,-2.7087915E-1,9.847022E-2,-5.373995E-1,-8.6382896E-1,-1.7237696E-1,-9.6399836E-2,4.1114833E-2,-2.3848027E-1,1.0825523E-1,1.4492006E-3,-4.168304E-1,8.864334E-2,-1.225346E-1],"categories":[],"categories_nodes":[],"categories_segments":[],"categories_sizes":[],"default_left":[0,0,0,1,0,0,0,0,0,0,0,0,0,0,0],"id":76,"left_children":[1,3,5,7,9,11,13,-1,-1,-1,-1,-1,-1,-1,-1],"loss_changes":[5.556597E0,3.1020975E0,3.350759E0,3.3113894E0,2.135253E0,3.7901187E0,5.933767E0,0E0,0E0,0E0,0E0,0E0,0E0,0E0,0E0],"parents":[2147483647,0,0,1,1,2,2,3,3,4,4,5,5,6,6],"right_children":[2,4,6,8,10,12,14,-1,-1,-1,-1,-1,-1,-1,-1],"split_conditions":[4.57E1,7.53E1,8.8E0,3.25E-1,7.9008517E0,2.00001E0,4E0,-9.6399836E-2,4.1114833E-2,-2.3848027E-1,1.0825523E-1,1.4492006E-3,-4.168304E-1,8.864334E-2,-1.225346E-1],"split_indices":[2,0,1,7,4,10,8,0,0,0,0,0,0,0,0],"split_type":[0,0,0,0,0,0,0,0,0,0,0,0,0,0,0],"sum_hessian":[2.6665118E2,2.077325E2,5.8918705E1,2.007422E2,6.9902964E0,7.286542E0,5.1632164E1,1.6278389E1,1.844638E2,5.522093E0,1.4682038E0,3.1203692E0,4.1661725E0,1.7231184E1,3.4400978E1],"tree_param":{"num_deleted":"0","num_feature":"22","num_nodes":"15","size_leaf_vector":"1"}},{"base_weights":[-6.8946384E-2,-2.7949296E-2,-2.136566E-1,-4.9048014E-2,3.4001046E-1,-3.2920635E-1,5.6899372E-2,-1.3779753E-3,-7.99047E-2,-7.275581E-2,2.2261147E-1,-1.2080335E-1,1.450869E-1,2.7328384E-1,-7.2664134E-2],"categories":[],"categories_nodes":[],"categories_segments":[],"categories_sizes":[],"default_left":[0,0,0,0,0,0,0,0,0,0,0,0,0,0,0],"id":77,"left_children":[1,3,5,7,9,11,13,-1,-1,-1,-1,-1,-1,-1,-1],"loss_changes":[1.5871766E0,1.6501493E0,1.8673618E0,1.9295174E0,2.8816948E0,2.6780772E0,4.959136E0,0E0,0E0,0E0,0E0,0E0,0E0,0E0,0E0],"parents":[2147483647,0,0,1,1,2,2,3,3,4,4,5,5,6,6],"right_children":[2,4,6,8,10,12,14,-1,-1,-1,-1,-1,-1,-1,-1],"split_conditions":[6E0,7.69E1,7.26E1,1E1,1.616E0,4.58E1,9.15E0,-1.3779753E-3,-7.99047E-2,-7.275581E-2,2.2261147E-1,-1.2080335E-1,1.450869E-1,2.7328384E-1,-7.2664134E-2],"split_indices":[8,0,0,9,7,2,1,0,0,0,0,0,0,0,0],"split_type":[0,0,0,0,0,0,0,0,0,0,0,0,0,0,0],"sum_hessian":[2.675369E2,2.094047E2,5.8132202E1,1.9886833E2,1.0536358E1,4.0583096E1,1.7549109E1,1.6594165E2,3.2926693E1,4.464357E0,6.0720005E0,3.7681656E1,2.9014397E0,4.0214167E0,1.3527692E1],"tree_param":{"num_deleted":"0","num_feature":"22","num_nodes":"15","size_leaf_vector":"1"}},{"base_weights":[-3.525963E-3,3.2608333E-1,-2.8704606E-2,4.329151E-1,-1.20875955E-1,-2.8453645E-1,-1.6847854E-2,1.031751E-2,2.5074807E-1,-6.706255E-2,6.747841E-3],"categories":[],"categories_nodes":[],"categories_segments":[],"categories_sizes":[],"default_left":[0,0,0,0,0,0,0,0,0,0,0],"id":78,"left_children":[1,3,5,7,-1,-1,9,-1,-1,-1,-1],"loss_changes":[2.2170858E0,1.6510332E0,2.6891727E0,2.7039165E0,0E0,0E0,2.0047255E0,0E0,0E0,0E0,0E0],"parents":[2147483647,0,0,1,1,2,2,3,3,6,6],"right_children":[2,4,6,8,-1,-1,10,-1,-1,-1,-1],"split_conditions":[4.03E1,6.38E1,4.05E1,5.95E1,-1.20875955E-1,-2.8453645E-1,7.8E0,1.031751E-2,2.5074807E-1,-6.706255E-2,6.747841E-3],"split_indices":[2,0,2,0,0,0,3,0,0,0,0],"split_type":[0,0,0,0,0,0,0,0,0,0,0],"sum_hessian":[2.6501944E2,1.7959814E1,2.4705963E2,1.6018534E1,1.9412806E0,2.139021E0,2.4492061E2,8.598773E0,7.41976E0,3.841385E1,2.0650676E2],"tree_param":{"num_deleted":"0","num_feature":"22","num_nodes":"11","size_leaf_vector":"1"}},{"base_weights":[5.053224E-2,-1.3128309E-2,2.2527978E-1,1.24568954E-1,-1.07869454E-1,4.4804797E-1,6.488721E-2,7.6146856E-2,-4.804741E-2,1.0265671E-2,-9.172435E-2,-5.739779E-2,1.9206585E-1,-1.7739715E-2,1.5487862E-1],"categories":[],"categories_nodes":[],"categories_segments":[],"categories_sizes":[],"default_left":[0,0,0,0,0,0,0,0,0,0,0,0,0,0,0],"id":79,"left_children":[1,3,5,7,9,11,13,-1,-1,-1,-1,-1,-1,-1,-1],"loss_changes":[3.0065966E0,2.607551E0,2.5489383E0,3.0405574E0,3.3375993E0,3.8127122E0,2.4442525E0,0E0,0E0,0E0,0E0,0E0,0E0,0E0,0E0],"parents":[2147483647,0,0,1,1,2,2,3,3,4,4,5,5,6,6],"right_children":[2,4,6,8,10,12,14,-1,-1,-1,-1,-1,-1,-1,-1],"split_conditions":[7.21E1,5E0,7.39E1,8.792815E0,1.02E1,7.6568866E0,3.043E0,7.6146856E-2,-4.804741E-2,1.0265671E-2,-9.172435E-2,-5.739779E-2,1.9206585E-1,-1.7739715E-2,1.5487862E-1],"split_indices":[0,9,0,6,3,3,7,0,0,0,0,0,0,0,0],"split_type":[0,0,0,0,0,0,0,0,0,0,0,0,0,0,0],"sum_hessian":[2.6900162E2,1.9784978E2,7.1151825E1,8.05146E1,1.17335175E2,2.9033684E1,4.2118145E1,5.5450832E1,2.5063768E1,6.8776596E1,4.855858E1,6.7107472E0,2.2322937E1,3.372176E1,8.396384E0],"tree_param":{"num_deleted":"0","num_feature":"22","num_nodes":"15","size_leaf_vector":"1"}},{"base_weights":[-1.9994432E-2,9.559311E-2,-8.50728E-2,1.6481143E-1,-4.7668073E-1,-1.3671573E-1,2.4932232E-1,-3.9526945E-5,9.520056E-2,-1.8994245E-1,1.2952527E-1,7.985078E-2,-5.9280112E-2,-1.2077677E-1,1.319898E-1],"categories":[],"categories_nodes":[],"categories_segments":[],"categories_sizes":[],"default_left":[0,0,0,0,0,0,0,0,0,0,0,0,0,0,0],"id":80,"left_children":[1,3,5,7,9,11,13,-1,-1,-1,-1,-1,-1,-1,-1],"loss_changes":[2.0534368E0,3.976893E0,3.0473332E0,2.227443E0,1.8191955E0,3.7759502E0,3.1221943E0,0E0,0E0,0E0,0E0,0E0,0E0,0E0,0E0],"parents":[2147483647,0,0,1,1,2,2,3,3,4,4,5,5,6,6],"right_children":[2,4,6,8,10,12,14,-1,-1,-1,-1,-1,-1,-1,-1],"split_conditions":[6.9E0,1.1595472E1,1.3063192E1,2.00001E0,1.46E1,8.041013E0,8.4E0,-3.9526945E-5,9.520056E-2,-1.8994245E-1,1.2952527E-1,7.985078E-2,-5.9280112E-2,-1.2077677E-1,1.319898E-1],"split_indices":[4,3,5,10,3,3,4,0,0,0,0,0,0,0,0],"split_type":[0,0,0,0,0,0,0,0,0,0,0,0,0,0,0],"sum_hessian":[2.7090063E2,9.741327E1,1.7348737E2,8.753735E1,9.875914E0,1.5079086E2,2.2696507E1,4.2536453E1,4.5000904E1,8.683396E0,1.192517E0,1.9353497E1,1.3143736E2,4.883953E0,1.7812553E1],"tree_param":{"num_deleted":"0","num_feature":"22","num_nodes":"15","size_leaf_vector":"1"}},{"base_weights":[4.3194104E-2,-5.87133E-2,1.269392E-1,-7.86375E-1,-2.631166E-2,2.2105613E-1,-3.6544457E-2,1.6446392E-1,-3.7614197E-1,1.03700005E-1,-1.9654566E-2,1.1123649E-1,2.3928403E-3,1.6576812E-1,-3.6958758E-2],"categories":[],"categories_nodes":[],"categories_segments":[],"categories_sizes":[],"default_left":[0,0,0,0,0,0,0,0,0,0,0,0,0,0,0],"id":81,"left_children":[1,3,5,7,9,11,13,-1,-1,-1,-1,-1,-1,-1,-1],"loss_changes":[2.292992E0,2.8436828E0,2.2748291E0,3.8965995E0,1.7338524E0,2.9845252E0,2.8594606E0,0E0,0E0,0E0,0E0,0E0,0E0,0E0,0E0],"parents":[2147483647,0,0,1,1,2,2,3,3,4,4,5,5,6,6],"right_children":[2,4,6,8,10,12,14,-1,-1,-1,-1,-1,-1,-1,-1],"split_conditions":[4.3875313E1,-3.1622776E-1,9.6E0,4.058114E1,7.2783246E0,1.965E0,7E0,1.6446392E-1,-3.7614197E-1,1.03700005E-1,-1.9654566E-2,1.1123649E-1,2.3928403E-3,1.6576812E-1,-3.6958758E-2],"split_indices":[2,20,1,2,3,7,9,0,0,0,0,0,0,0,0],"split_type":[0,0,0,0,0,0,0,0,0,0,0,0,0,0,0],"sum_hessian":[2.6680795E2,1.2048796E2,1.4631999E2,4.1444364E0,1.1634352E2,9.263704E1,5.3682957E1,1.03021E0,3.114226E0,1.0347288E1,1.0599624E2,5.397116E1,3.866588E1,6.1942368E0,4.748872E1],"tree_param":{"num_deleted":"0","num_feature":"22","num_nodes":"15","size_leaf_vector":"1"}},{"base_weights":[-5.36255E-2,3.0382186E-1,-7.71575E-2,7.054149E-3,6.6187155E-1,-1.9404627E-1,-9.0572005E-3,8.1298634E-2,-2.2268455E-1,2.4263193E-1,-8.595431E-3,2.0628008E-1,-7.01417E-2,-1.8892114E-1,4.69475E-3],"categories":[],"categories_nodes":[],"categories_segments":[],"categories_sizes":[],"default_left":[0,0,0,0,0,0,0,0,0,0,0,0,0,0,0],"id":82,"left_children":[1,3,5,7,9,11,13,-1,-1,-1,-1,-1,-1,-1,-1],"loss_changes":[2.2409227E0,1.7470905E0,1.9734803E0,2.1839435E0,7.799854E-1,3.3611484E0,2.4303074E0,0E0,0E0,0E0,0E0,0E0,0E0,0E0,0E0],"parents":[2147483647,0,0,1,1,2,2,3,3,4,4,5,5,6,6],"right_children":[2,4,6,8,10,12,14,-1,-1,-1,-1,-1,-1,-1,-1],"split_conditions":[7E0,8.45E0,7.124064E0,7.1E0,3.1622776E-1,5.96E1,5.8323646E0,8.1298634E-2,-2.2268455E-1,2.4263193E-1,-8.595431E-3,2.0628008E-1,-7.01417E-2,-1.8892114E-1,4.69475E-3],"split_indices":[5,1,6,3,20,0,1,0,0,0,0,0,0,0,0],"split_type":[0,0,0,0,0,0,0,0,0,0,0,0,0,0,0],"sum_hessian":[2.626264E2,1.5485968E1,2.4714043E2,9.0251875E0,6.46078E0,9.029934E1,1.5684108E2,7.146354E0,1.8788333E0,5.1862197E0,1.2745606E0,3.1933885E0,8.710595E1,5.066644E0,1.5177444E2],"tree_param":{"num_deleted":"0","num_feature":"22","num_nodes":"15","size_leaf_vector":"1"}},{"base_weights":[6.584497E-2,1.5015958E-1,-2.0106448E-2,3.9038785E-2,4.3436062E-1,1.5030728E-1,-1.9294521E-1,-5.2461375E-2,8.663134E-2,1.814472E-1,2.3728305E-2,5.8501404E-2,-2.5844073E-1,-2.903541E-1,-3.2540787E-2],"categories":[],"categories_nodes":[],"categories_segments":[],"categories_sizes":[],"default_left":[0,0,0,0,0,1,0,0,0,0,0,0,0,0,0],"id":83,"left_children":[1,3,5,7,9,11,13,-1,-1,-1,-1,-1,-1,-1,-1],"loss_changes":[1.9133391E0,4.1891613E0,3.899751E0,5.2241416E0,2.2133813E0,3.1859748E0,4.1945868E0,0E0,0E0,0E0,0E0,0E0,0E0,0E0,0E0],"parents":[2147483647,0,0,1,1,2,2,3,3,4,4,5,5,6,6],"right_children":[2,4,6,8,10,12,14,-1,-1,-1,-1,-1,-1,-1,-1],"split_conditions":[2.00001E0,4.4807873E1,4.4667866E1,9.9E0,2.173E0,4.917E0,8.15E0,-5.2461375E-2,8.663134E-2,1.814472E-1,2.3728305E-2,5.8501404E-2,-2.5844073E-1,-2.903541E-1,-3.2540787E-2],"split_indices":[10,2,2,3,7,7,1,0,0,0,0,0,0,0,0],"split_type":[0,0,0,0,0,0,0,0,0,0,0,0,0,0,0],"sum_hessian":[2.626029E2,1.3218657E2,1.3041634E2,9.584798E1,3.633859E1,6.573449E1,6.468184E1,5.1788193E1,4.4059784E1,2.4081425E1,1.2257166E1,6.3726505E1,2.007989E0,5.3302383E0,5.9351604E1],"tree_param":{"num_deleted":"0","num_feature":"22","num_nodes":"15","size_leaf_vector":"1"}},{"base_weights":[4.582985E-3,-2.9934397E-1,3.316644E-2,1.9906243E-2,-6.1413103E-1,4.6263194E-1,7.2512953E-3,1.19577475E-1,-1.1728888E-1,6.460979E-2,