{"learner":{"attributes":{},"feature_names":[],"feature_types":[],"gradient_booster":{"model":{"cats":{"enc":[],"feature_segments":[],"sorted_idx":[]},"gbtree_model_param":{"num_parallel_tree":"1","num_trees":"100"},"iteration_indptr":[0,1,2,3,4,5,6,7,8,9,10,11,12,13,14,15,16,17,18,19,20,21,22,23,24,25,26,27,28,29,30,31,32,33,34,35,36,37,38,39,40,41,42,43,44,45,46,47,48,49,50,51,52,53,54,55,56,57,58,59,60,61,62,63,64,65,66,67,68,69,70,71,72,73,74,75,76,77,78,79,80,81,82,83,84,85,86,87,88,89,90,91,92,93,94,95,96,97,98,99,100],"tree_info":[0,0,0,0,0,0,0,0,0,0,0,0,0,0,0,0,0,0,0,0,0,0,0,0,0,0,0,0,0,0,0,0,0,0,0,0,0,0,0,0,0,0,0,0,0,0,0,0,0,0,0,0,0,0,0,0,0,0,0,0,0,0,0,0,0,0,0,0,0,0,0,0,0,0,0,0,0,0,0,0,0,0,0,0,0,0,0,0,0,0,0,0,0,0,0,0,0,0,0,0],"trees":[{"base_weights":[-5.2616026E-2,-3.7768468E-1,7.9230464E-1,-6.1353946E-1,2.0233573E-1,8.246083E-1,-2.916886E-1,-3.2997835E-1,-6.325486E-2,1.4550678E-1,-1.7983313E-1,1.652432E-1,3.2551354E-1],"categories":[],"categories_nodes":[],"categories_segments":[],"categories_sizes":[],"default_left":[1,0,0,0,0,0,0,0,0,0,0,0,0],"id":0,"left_children":[1,3,5,7,9,11,-1,-1,-1,-1,-1,-1,-1],"loss_changes":[9.431951E1,3.4035137E1,6.2416954E0,3.433309E1,1.6702986E1,6.123581E0,0E0,0E0,0E0,0E0,0E0,0E0,0E0],"parents":[2147483647,0,0,1,1,2,2,3,3,4,4,5,5],"right_children":[2,4,6,8,10,12,-1,-1,-1,-1,-1,-1,-1],"split_conditions":[2.644E0,2.00001E0,4.85E1,1.227E0,7E0,3.689E0,-2.916886E-1,-3.2997835E-1,-6.325486E-2,1.4550678E-1,-1.7983313E-1,1.652432E-1,3.2551354E-1],"split_indices":[7,14,2,7,8,7,0,0,0,0,0,0,0],"split_type":[0,0,0,0,0,0,0,0,0,0,0,0,0],"sum_hessian":[3.413186E2,2.4688634E2,9.443226E1,1.7547487E2,7.141146E1,9.325773E1,1.1745306E0,7.869355E1,9.678132E1,5.3088783E1,1.8322678E1,4.6981224E1,4.6276505E1],"tree_param":{"num_deleted":"0","num_feature":"22","num_nodes":"13","size_leaf_vector":"1"}},{"base_weights":[-3.2027327E-2,-2.2343233E-1,5.5302685E-1,-4.083378E-1,2.447648E-1,4.1897082E-1,9.430791E-1,1.5348257E-1,-1.3810202E-1,1.4507817E-1,-3.4602992E-2,-5.9119377E-2,1.651637E-1,3.1499863E-1,-4.646287E-2],"categories":[],"categories_nodes":[],"categories_segments":[],"categories_sizes":[],"default_left":[1,0,0,0,0,0,0,0,0,0,0,0,0,0,0],"id":1,"left_children":[1,3,5,7,9,11,13,-1,-1,-1,-1,-1,-1,-1,-1],"loss_changes":[3.8590466E1,2.2569128E1,4.047657E0,9.154478E0,6.42926E0,5.3797216E0,2.6199512E0,0E0,0E0,0E0,0E0,0E0,0E0,0E0,0E0],"parents":[2147483647,0,0,1,1,2,2,3,3,4,4,5,5,6,6],"right_children":[2,4,6,8,10,12,14,-1,-1,-1,-1,-1,-1,-1,-1],"split_conditions":[2.84E0,2.00001E0,4.773E0,2.00001E0,6E0,7.15E0,1.1E1,1.5348257E-1,-1.3810202E-1,1.4507817E-1,-3.4602992E-2,-5.9119377E-2,1.651637E-1,3.1499863E-1,-4.646287E-2],"split_indices":[7,14,7,12,8,1,9,0,0,0,0,0,0,0,0],"split_type":[0,0,0,0,0,0,0,0,0,0,0,0,0,0,0],"sum_hessian":[3.4250873E2,2.585426E2,8.396612E1,1.8543605E2,7.310656E1,6.403294E1,1.9933174E1,9.448531E0,1.7598752E2,4.37488E1,2.9357763E1,1.1181806E1,5.2851135E1,1.8204174E1,1.7289989E0],"tree_param":{"num_deleted":"0","num_feature":"22","num_nodes":"15","size_leaf_vector":"1"}},{"base_weights":[2.8289735E-2,-3.0037242E-1,3.5018957E-1,-4.782583E-1,3.7310697E-2,2.66769E-1,7.91329E-1,1.8735896E-1,-1.6524217E-1,8.4145635E-2,-1.3584237E-1,5.9603013E-2,2.225844E-1,2.8026688E-1,-1.7716625E-1],"categories":[],"categories_nodes":[],"categories_segments":[],"categories_sizes":[],"default_left":[1,0,0,0,0,0,0,0,0,0,0,0,0,0,0],"id":2,"left_children":[1,3,5,7,9,11,13,-1,-1,-1,-1,-1,-1,-1,-1],"loss_changes":[3.5809925E1,1.008104E1,6.0801907E0,9.128489E0,7.1266165E0,4.5532646E0,5.8197994E0,0E0,0E0,0E0,0E0,0E0,0E0,0E0,0E0],"parents":[2147483647,0,0,1,1,2,2,3,3,4,4,5,5,6,6],"right_children":[2,4,6,8,10,12,14,-1,-1,-1,-1,-1,-1,-1,-1],"split_conditions":[1.611E0,2.00001E0,4.18E0,2.00001E0,7E0,2.00001E0,1.07E1,1.8735896E-1,-1.6524217E-1,8.4145635E-2,-1.3584237E-1,5.9603013E-2,2.225844E-1,2.8026688E-1,-1.7716625E-1],"split_indices":[7,14,7,12,8,14,1,0,0,0,0,0,0,0,0],"split_type":[0,0,0,0,0,0,0,0,0,0,0,0,0,0,0],"sum_hessian":[3.364857E2,1.6652711E2,1.6995857E2,1.087979E2,5.7729218E1,1.4427965E2,2.5678917E1,6.246023E0,1.0255187E2,3.8870934E1,1.8858288E1,1.27436356E2,1.6843296E1,2.3566017E1,2.1128998E0],"tree_param":{"num_deleted":"0","num_feature":"22","num_nodes":"15","size_leaf_vector":"1"}},{"base_weights":[7.5763546E-2,-5.2511342E-2,3.7369013E-1,-9.3141586E-2,6.5041053E-1,6.0352117E-1,6.819365E-2,1.6423573E-1,-4.043805E-2,1.021229E-1,4.0573648E-1,2.007731E-1,-4.242907E-2,-2.5392756E-1,9.209725E-2],"categories":[],"categories_nodes":[],"categories_segments":[],"categories_sizes":[],"default_left":[1,0,0,0,0,0,0,0,0,0,0,0,0,0,0],"id":3,"left_children":[1,3,5,7,9,11,13,-1,-1,-1,-1,-1,-1,-1,-1],"loss_changes":[1.2686426E1,6.7027097E0,6.9716816E0,5.9634314E0,2.3326454E0,2.879078E0,9.871712E0,0E0,0E0,0E0,0E0,0E0,0E0,0E0,0E0],"parents":[2147483647,0,0,1,1,2,2,3,3,4,4,5,5,6,6],"right_children":[2,4,6,8,10,12,14,-1,-1,-1,-1,-1,-1,-1,-1],"split_conditions":[2.437E0,1.085E1,4.4574745E1,6.8E0,1.11E1,1.302258E1,8.634376E0,1.6423573E-1,-4.043805E-2,1.021229E-1,4.0573648E-1,2.007731E-1,-4.242907E-2,-2.5392756E-1,9.209725E-2],"split_indices":[7,1,2,5,4,3,1,0,0,0,0,0,0,0,0],"split_type":[0,0,0,0,0,0,0,0,0,0,0,0,0,0,0],"sum_hessian":[3.3044855E2,2.3156848E2,9.888008E1,2.1973486E2,1.1833607E1,5.587139E1,4.3008694E1,1.2673692E1,2.0706117E2,9.238886E0,2.5947206E0,5.1435207E1,4.4361844E0,8.377486E0,3.4631207E1],"tree_param":{"num_deleted":"0","num_feature":"22","num_nodes":"15","size_leaf_vector":"1"}},{"base_weights":[-8.297506E-3,-7.740607E-2,3.3296725E-1,3.8021383E-1,-1.07623145E-1,-3.134775E-1,4.6648586E-1,-1.5259932E-1,2.3003311E-1,-6.1226916E-2,1.5258097E-2,4.5736738E-2,-3.351912E-1,1.6327602E-1,-8.555687E-2],"categories":[],"categories_nodes":[],"categories_segments":[],"categories_sizes":[],"default_left":[1,0,0,0,0,0,0,0,0,0,0,0,0,0,0],"id":4,"left_children":[1,3,5,7,9,11,13,-1,-1,-1,-1,-1,-1,-1,-1],"loss_changes":[7.5504384E0,3.7210205E0,4.8000765E0,6.1300917E0,3.8390415E0,3.8512836E0,2.7910156E0,0E0,0E0,0E0,0E0,0E0,0E0,0E0,0E0],"parents":[2147483647,0,0,1,1,2,2,3,3,4,4,5,5,6,6],"right_children":[2,4,6,8,10,12,14,-1,-1,-1,-1,-1,-1,-1,-1],"split_conditions":[3.171E0,5.4E0,1.1952286E-1,6.63E1,8.370557E0,1.1203076E1,1.07E1,-1.5259932E-1,2.3003311E-1,-6.1226916E-2,1.5258097E-2,4.5736738E-2,-3.351912E-1,1.6327602E-1,-8.555687E-2],"split_indices":[7,6,21,0,6,3,1,0,0,0,0,0,0,0,0],"split_type":[0,0,0,0,0,0,0,0,0,0,0,0,0,0,0],"sum_hessian":[3.1805377E2,2.6513516E2,5.2918594E1,1.5705275E1,2.4942989E2,8.828181E0,4.4090412E1,4.6642523E0,1.1041022E1,1.5487312E2,9.455676E1,6.1017027E0,2.7264786E0,4.0206627E1,3.8837848E0],"tree_param":{"num_deleted":"0","num_feature":"22","num_nodes":"15","size_leaf_vector":"1"}},{"base_weights":[1.4078655E-2,9.909681E-2,-2.817955E-1,4.5777258E-1,2.9669741E-2,-7.053258E-1,5.7448386E-3,6.495277E-2,3.1353787E-1,-6.0736712E-2,4.4912726E-2,-1.17176205E-1,-3.9739046E-1,9.6778005E-2,-8.537813E-2],"categories":[],"categories_nodes":[],"categories_segments":[],"categories_sizes":[],"default_left":[0,0,0,0,1,0,0,0,0,0,0,0,0,0,0],"id":5,"left_children":[1,3,5,7,9,11,13,-1,-1,-1,-1,-1,-1,-1,-1],"loss_changes":[8.185321E0,6.2777443E0,8.8508005E0,5.5699797E0,5.958196E0,5.210088E0,4.1634765E0,0E0,0E0,0E0,0E0,0E0,0E0,0E0,0E0],"parents":[2147483647,0,0,1,1,2,2,3,3,4,4,5,5,6,6],"right_children":[2,4,6,8,10,12,14,-1,-1,-1,-1,-1,-1,-1,-1],"split_conditions":[6E0,2.00001E0,6.663708E1,1.1132089E1,1.432E0,1.1069486E1,2.00001E0,6.495277E-2,3.1353787E-1,-6.0736712E-2,4.4912726E-2,-1.17176205E-1,-3.9739046E-1,9.6778005E-2,-8.537813E-2],"split_indices":[8,15,0,5,7,5,10,0,0,0,0,0,0,0,0],"split_type":[0,0,0,0,0,0,0,0,0,0,0,0,0,0,0],"sum_hessian":[3.2328943E2,2.5164531E2,7.164412E1,3.990315E1,2.1174216E2,2.8383665E1,4.326046E1,2.925492E1,1.06482315E1,7.1940674E1,1.3980148E2,1.9900654E1,8.48301E0,2.0632729E1,2.262773E1],"tree_param":{"num_deleted":"0","num_feature":"22","num_nodes":"15","size_leaf_vector":"1"}},{"base_weights":[7.5626647E-4,3.11072E-1,-6.80978E-2,3.6859068E-1,-4.4953516E-1,-2.638449E-1,9.981788E-2,-1.1843971E-1,1.5408516E-1,2.5635102E-1,-9.508804E-2,-6.1635524E-2,6.9048055E-2],"categories":[],"categories_nodes":[],"categories_segments":[],"categories_sizes":[],"default_left":[0,0,1,0,0,0,0,0,0,0,0,0,0],"id":6,"left_children":[1,3,5,7,-1,9,11,-1,-1,-1,-1,-1,-1],"loss_changes":[7.2907405E0,7.001487E0,9.205623E0,6.940298E0,0E0,7.9468307E0,6.057346E0,0E0,0E0,0E0,0E0,0E0,0E0],"parents":[2147483647,0,0,1,1,2,2,3,3,5,5,6,6],"right_children":[2,4,6,8,-1,10,12,-1,-1,-1,-1,-1,-1],"split_conditions":[2.00001E0,1.18E1,1.611E0,6.7E0,-4.4953516E-1,6.6E0,8.711896E0,-1.1843971E-1,1.5408516E-1,2.5635102E-1,-9.508804E-2,-6.1635524E-2,6.9048055E-2],"split_indices":[16,1,7,1,0,5,3,0,0,0,0,0,0],"split_type":[0,0,0,0,0,0,0,0,0,0,0,0,0],"sum_hessian":[3.392315E2,6.0962795E1,2.782687E2,5.9856464E1,1.1063325E0,1.282225E2,1.5004622E2,9.280987E0,5.0575478E1,5.129634E0,1.2309287E2,4.472388E1,1.05322334E2],"tree_param":{"num_deleted":"0","num_feature":"22","num_nodes":"13","size_leaf_vector":"1"}},{"base_weights":[-1.2738294E-2,-1.0724396E0,3.4924787E-3,-9.1530725E-2,-3.7234604E-1,4.1197294E-1,-3.8047504E-2,3.2467008E-2,2.648768E-1,-2.1812703E-2,1.1053511E-1],"categories":[],"categories_nodes":[],"categories_segments":[],"categories_sizes":[],"default_left":[0,0,0,0,0,0,0,0,0,0,0],"id":7,"left_children":[1,3,5,-1,-1,7,9,-1,-1,-1,-1],"loss_changes":[5.4841003E0,2.4400902E-1,5.35762E0,0E0,0E0,4.073601E0,4.065993E0,0E0,0E0,0E0,0E0],"parents":[2147483647,0,0,1,1,2,2,5,5,6,6],"right_children":[2,4,6,-1,-1,8,10,-1,-1,-1,-1],"split_conditions":[5.67E1,5.5E0,4.08E1,-9.1530725E-2,-3.7234604E-1,4.016571E1,1.34E1,3.2467008E-2,2.648768E-1,-2.1812703E-2,1.1053511E-1],"split_indices":[0,6,2,0,0,2,5,0,0,0,0],"split_type":[0,0,0,0,0,0,0,0,0,0,0],"sum_hessian":[3.1762955E2,3.8098729E0,3.1381967E2,1.1928785E0,2.6169944E0,2.8144566E1,2.856751E2,1.7857058E1,1.0287509E1,2.6398648E2,2.1688627E1],"tree_param":{"num_deleted":"0","num_feature":"22","num_nodes":"11","size_leaf_vector":"1"}},{"base_weights":[-2.5247298E-2,-5.6495965E-2,5.577367E-1,-2.3296042E-1,1.5325509E-2,8.144129E-1,-3.6125642E-1,-3.893152E-2,-3.2040825E-1,-1.6763654E-1,1.2093973E-2,2.812273E-1,-2.9970396E-2,-3.4758988E-1,1.000355E-1],"categories":[],"categories_nodes":[],"categories_segments":[],"categories_sizes":[],"default_left":[0,0,0,0,0,0,0,0,0,0,0,0,0,0,0],"id":8,"left_children":[1,3,5,7,9,11,13,-1,-1,-1,-1,-1,-1,-1,-1],"loss_changes":[5.826011E0,3.8412395E0,4.132927E0,7.414368E0,3.1233387E0,1.5589333E0,2.7382097E0,0E0,0E0,0E0,0E0,0E0,0E0,0E0,0E0],"parents":[2147483647,0,0,1,1,2,2,3,3,4,4,5,5,6,6],"right_children":[2,4,6,8,10,12,14,-1,-1,-1,-1,-1,-1,-1,-1],"split_conditions":[7.72E1,1.1952286E-1,3.1622776E-1,7.407956E1,3.96E1,1.2E1,2.095E0,-3.893152E-2,-3.2040825E-1,-1.6763654E-1,1.2093973E-2,2.812273E-1,-2.9970396E-2,-3.4758988E-1,1.000355E-1],"split_indices":[0,21,20,0,2,1,7,0,0,0,0,0,0,0,0],"split_type":[0,0,0,0,0,0,0,0,0,0,0,0,0,0,0],"sum_hessian":[3.1707385E2,3.0180008E2,1.52737665E1,8.665246E1,2.1514761E2,1.2028099E1,3.2456677E0,7.815082E1,8.501643E0,8.08252E0,2.070651E2,1.0579467E1,1.4486315E0,1.2002449E0,2.0454228E0],"tree_param":{"num_deleted":"0","num_feature":"22","num_nodes":"15","size_leaf_vector":"1"}},{"base_weights":[4.97996E-2,-3.1659582E-1,1.1061931E-1,-9.169821E-2,-1.0640514E0,7.012056E-1,6.651821E-2,-3.777706E-1,3.9369047E-2,-2.3942018E-2,-4.3939775E-1,3.0060098E-1,5.699144E-2,3.6866397E-2,-1.09029576E-1],"categories":[],"categories_nodes":[],"categories_segments":[],"categories_sizes":[],"default_left":[1,0,0,0,0,0,0,0,0,0,0,0,0,0,0],"id":9,"left_children":[1,3,5,7,9,11,13,-1,-1,-1,-1,-1,-1,-1,-1],"loss_changes":[6.9261494E0,7.346504E0,6.880337E0,9.310156E0,3.8844585E0,2.6353397E0,6.069335E0,0E0,0E0,0E0,0E0,0E0,0E0,0E0,0E0],"parents":[2147483647,0,0,1,1,2,2,3,3,4,4,5,5,6,6],"right_children":[2,4,6,8,10,12,14,-1,-1,-1,-1,-1,-1,-1,-1],"split_conditions":[4.92E-1,9.3E0,6.28E-1,6.0296655E0,4E0,9E0,1.025E1,-3.777706E-1,3.9369047E-2,-2.3942018E-2,-4.3939775E-1,3.0060098E-1,5.699144E-2,3.6866397E-2,-1.09029576E-1],"split_indices":[7,6,7,4,8,9,1,0,0,0,0,0,0,0,0],"split_type":[0,0,0,0,0,0,0,0,0,0,0,0,0,0,0],"sum_hessian":[3.082402E2,4.3283356E1,2.6495685E2,3.413527E1,9.148084E0,1.7375141E1,2.4758171E2,4.7274914E0,2.940778E1,2.9932485E0,6.154835E0,1.0334566E1,7.0405755E0,2.1951569E2,2.806602E1],"tree_param":{"num_deleted":"0","num_feature":"22","num_nodes":"15","size_leaf_vector":"1"}},{"base_weights":[4.2892344E-2,-1.9118232E-1,1.17887616E-1,-2.642439E-1,2.8129584E-1,3.3116204E-1,1.2811719E-3,-1.7946601E-1,-1.2795824E-2,1.106898E-1,-2.3683766E-1,-9.794755E-2,3.1115482E-2],"categories":[],"categories_nodes":[],"categories_segments":[],"categories_sizes":[],"default_left":[0,0,0,0,0,0,0,0,0,0,0,0,0],"id":10,"left_children":[1,3,5,7,-1,9,11,-1,-1,-1,-1,-1,-1],"loss_changes":[5.587137E0,6.622923E0,5.985375E0,5.405038E0,0E0,3.8954315E0,5.2924085E0,0E0,0E0,0E0,0E0,0E0,0E0],"parents":[2147483647,0,0,1,1,2,2,3,3,5,5,6,6],"right_children":[2,4,6,8,-1,10,12,-1,-1,-1,-1,-1,-1],"split_conditions":[6.45E1,4.304E0,6.9E0,7.465557E0,2.8129584E-1,7.408947E0,9.14729E0,-1.7946601E-1,-1.2795824E-2,1.106898E-1,-2.3683766E-1,-9.794755E-2,3.1115482E-2],"split_indices":[0,7,6,6,0,4,3,0,0,0,0,0,0],"split_type":[0,0,0,0,0,0,0,0,0,0,0,0,0],"sum_hessian":[3.1599005E2,7.62985E1,2.3969154E2,7.2379776E1,3.9187222E0,8.407588E1,1.5561566E2,2.8191168E1,4.418861E1,8.198101E1,2.0948675E0,3.653276E1,1.1908291E2],"tree_param":{"num_deleted":"0","num_feature":"22","num_nodes":"13","size_leaf_vector":"1"}},{"base_weights":[-1.5039105E-3,2.9660085E-1,-6.583082E-2,5.3928345E-1,-4.2693317E-1,1.2612068E-2,-3.900908E-1,-1.7397912E-3,2.2670668E-1,2.4371956E-2,-3.516695E-1,7.496653E-2,-3.798069E-2,-2.0884563E-1,5.6771818E-3],"categories":[],"categories_nodes":[],"categories_segments":[],"categories_sizes":[],"default_left":[0,0,0,0,0,0,0,0,0,0,0,0,0,0,0],"id":11,"left_children":[1,3,5,7,9,11,13,-1,-1,-1,-1,-1,-1,-1,-1],"loss_changes":[5.938232E0,9.881118E0,6.4830937E0,4.9114504E0,5.535099E0,6.837752E0,6.227528E0,0E0,0E0,0E0,0E0,0E0,0E0,0E0,0E0],"parents":[2147483647,0,0,1,1,2,2,3,3,4,4,5,5,6,6],"right_children":[2,4,6,8,10,12,14,-1,-1,-1,-1,-1,-1,-1,-1],"split_conditions":[2.00001E0,6E0,1.18E1,6.8E0,8.230544E0,6E0,1.3167313E1,-1.7397912E-3,2.2670668E-1,2.4371956E-2,-3.516695E-1,7.496653E-2,-3.798069E-2,-2.0884563E-1,5.6771818E-3],"split_indices":[15,8,5,6,4,9,5,0,0,0,0,0,0,0,0],"split_type":[0,0,0,0,0,0,0,0,0,0,0,0,0,0,0],"sum_hessian":[3.076492E2,5.396286E1,2.5368634E2,4.0599815E1,1.3363046E1,2.0504442E2,4.8641926E1,1.1814533E1,2.8785282E1,8.475275E0,4.887771E0,7.552499E1,1.2951944E2,2.7421038E1,2.122089E1],"tree_param":{"num_deleted":"0","num_feature":"22","num_nodes":"15","size_leaf_vector":"1"}},{"base_weights":[3.4236655E-2,-5.2837916E-2,3.1118736E-1,-1.1109461E-1,4.5768622E-1,-3.1782135E-1,4.3884704E-1,-1.0098764E-1,-5.9605663E-4,3.5649228E-1,8.536105E-2,1.5835422E-1,-2.4070884E-1,1.7459843E-1,-2.7112507E-3],"categories":[],"categories_nodes":[],"categories_segments":[],"categories_sizes":[],"default_left":[0,0,0,1,0,0,0,0,0,0,0,0,0,0,0],"id":12,"left_children":[1,3,5,7,9,11,13,-1,-1,-1,-1,-1,-1,-1,-1],"loss_changes":[7.432448E0,7.03467E0,6.0578523E0,5.205508E0,2.729196E0,5.7564974E0,3.960391E0,0E0,0E0,0E0,0E0,0E0,0E0,0E0,0E0],"parents":[2147483647,0,0,1,1,2,2,3,3,4,4,5,5,6,6],"right_children":[2,4,6,8,10,12,14,-1,-1,-1,-1,-1,-1,-1,-1],"split_conditions":[2.00001E0,1.302258E1,6.7E0,1.207E0,1.15E1,3.997595E1,7.37E1,-1.0098764E-1,-5.9605663E-4,3.5649228E-1,8.536105E-2,1.5835422E-1,-2.4070884E-1,1.7459843E-1,-2.7112507E-3],"split_indices":[14,3,1,7,5,2,0,0,0,0,0,0,0,0,0],"split_type":[0,0,0,0,0,0,0,0,0,0,0,0,0,0,0],"sum_hessian":[3.0652206E2,2.3381787E2,7.270419E1,2.1057161E2,2.324626E1,1.2014819E1,6.0689377E1,6.797625E1,1.4259535E2,3.3304E0,1.991586E1,4.3439536E0,7.670865E0,4.576353E1,1.4925843E1],"tree_param":{"num_deleted":"0","num_feature":"22","num_nodes":"15","size_leaf_vector":"1"}},{"base_weights":[-1.3526779E-2,2.7139384E-1,-7.443986E-2,9.815388E-2,1.2135357E0,-5.3275424E-1,-3.3905357E-2,-2.269971E-2,3.72066E-1,3.7471283E-2,4.1405022E-1,-5.2613292E-2,-4.2385745E-1,1.0975032E-1,-2.1360233E-2],"categories":[],"categories_nodes":[],"categories_segments":[],"categories_sizes":[],"default_left":[0,0,0,0,0,0,0,0,0,0,0,0,0,0,0],"id":13,"left_children":[1,3,5,7,9,11,13,-1,-1,-1,-1,-1,-1,-1,-1],"loss_changes":[5.4531E0,8.9152355E0,4.7876906E0,9.59126E0,1.3711824E0,6.342171E0,3.5852082E0,0E0,0E0,0E0,0E0,0E0,0E0,0E0,0E0],"parents":[2147483647,0,0,1,1,2,2,3,3,4,4,5,5,6,6],"right_children":[2,4,6,8,10,12,14,-1,-1,-1,-1,-1,-1,-1,-1],"split_conditions":[2.00001E0,1.21E1,7.2E0,7.5E1,6.0390312E1,7E0,5.8E0,-2.269971E-2,3.72066E-1,3.7471283E-2,4.1405022E-1,-5.2613292E-2,-4.2385745E-1,1.0975032E-1,-2.1360233E-2],"split_indices":[11,5,5,0,0,5,6,0,0,0,0,0,0,0,0],"split_type":[0,0,0,0,0,0,0,0,0,0,0,0,0,0,0],"sum_hessian":[3.12038E2,5.435189E1,2.5768613E2,4.6842693E1,7.5091996E0,1.995185E1,2.3773427E2,4.1465496E1,5.3771973E0,1.2290703E0,6.2801294E0,1.5042809E1,4.9090424E0,1.9535866E1,2.181984E2],"tree_param":{"num_deleted":"0","num_feature":"22","num_nodes":"15","size_leaf_vector":"1"}},{"base_weights":[5.053368E-3,-1.9448486E-1,9.1871545E-2,1.453667E-1,-3.7023807E-1,4.0600556E-1,1.4165408E-3,1.5877491E-1,-9.724779E-2,7.850938E-3,-1.7079179E-1,2.1807578E-1,4.6839096E-2,-2.5408998E-2,8.808008E-2],"categories":[],"categories_nodes":[],"categories_segments":[],"categories_sizes":[],"default_left":[0,0,0,0,0,0,0,0,0,0,0,0,0,0,0],"id":14,"left_children":[1,3,5,7,9,11,13,-1,-1,-1,-1,-1,-1,-1,-1],"loss_changes":[5.200064E0,5.4901643E0,5.9417534E0,5.892885E0,4.7711678E0,3.6354294E0,4.1355257E0,0E0,0E0,0E0,0E0,0E0,0E0,0E0,0E0],"parents":[2147483647,0,0,1,1,2,2,3,3,4,4,5,5,6,6],"right_children":[2,4,6,8,10,12,14,-1,-1,-1,-1,-1,-1,-1,-1],"split_conditions":[8.8E0,4E0,6.9E0,8.25E0,7.3E0,2.00001E0,9.914286E0,1.5877491E-1,-9.724779E-2,7.850938E-3,-1.7079179E-1,2.1807578E-1,4.6839096E-2,-2.5408998E-2,8.808008E-2],"split_indices":[5,8,6,1,3,10,6,0,0,0,0,0,0,0,0],"split_type":[0,0,0,0,0,0,0,0,0,0,0,0,0,0,0],"sum_hessian":[2.9814178E2,9.001531E1,2.0812648E2,3.0742281E1,5.9273033E1,4.5751442E1,1.6237505E2,1.6843714E1,1.3898567E1,2.010536E1,3.916767E1,1.9192926E1,2.6558516E1,1.2596146E2,3.6413586E1],"tree_param":{"num_deleted":"0","num_feature":"22","num_nodes":"15","size_leaf_vector":"1"}},{"base_weights":[-6.669349E-2,-9.6142076E-2,4.717285E-1,-1.2901916E-1,3.2194898E-1,7.640151E-1,-4.2771097E-2,-2.719854E-2,-1.3277696E-1,1.788142E-1,-2.6615676E-2,2.7313033E-1,7.1055716E-4,-3.446644E-1,1.5606153E-1],"categories":[],"categories_nodes":[],"categories_segments":[],"categories_sizes":[],"default_left":[1,0,0,0,0,0,0,0,0,0,0,0,0,0,0],"id":15,"left_children":[1,3,5,7,9,11,13,-1,-1,-1,-1,-1,-1,-1,-1],"loss_changes":[4.898254E0,4.0418425E0,2.4449775E0,3.2136354E0,2.4733007E0,1.1445713E0,4.806251E0,0E0,0E0,0E0,0E0,0E0,0E0,0E0,0E0],"parents":[2147483647,0,0,1,1,2,2,3,3,4,4,5,5,6,6],"right_children":[2,4,6,8,10,12,14,-1,-1,-1,-1,-1,-1,-1,-1],"split_conditions":[4.378E0,7.64E1,9.15E0,9.9E0,1.7868431E-17,8E0,4.4953163E1,-2.719854E-2,-1.3277696E-1,1.788142E-1,-2.6615676E-2,2.7313033E-1,7.1055716E-4,-3.446644E-1,1.5606153E-1],"split_indices":[7,0,1,1,20,9,2,0,0,0,0,0,0,0,0],"split_type":[0,0,0,0,0,0,0,0,0,0,0,0,0,0,0],"sum_hessian":[3.0506534E2,2.900241E2,1.5041216E1,2.695214E2,2.0502722E1,9.282737E0,5.758479E0,2.4129433E2,2.8227066E1,1.2025168E1,8.477553E0,7.622109E0,1.6606281E0,1.5912786E0,4.1672006E0],"tree_param":{"num_deleted":"0","num_feature":"22","num_nodes":"15","size_leaf_vector":"1"}},{"base_weights":[3.766069E-2,-9.046727E-3,2.6825637E-1,5.0519846E-2,-6.062953E-1,4.9763586E-2,6.6238743E-1,1.3447224E-1,2.5230884E-3,-4.249892E-1,-5.465733E-2,8.732495E-2,-1.6873068E-1,3.394835E-1,8.679701E-3],"categories":[],"categories_nodes":[],"categories_segments":[],"categories_sizes":[],"default_left":[0,0,0,0,0,0,0,0,0,0,0,0,0,0,0],"id":16,"left_children":[1,3,5,7,9,11,13,-1,-1,-1,-1,-1,-1,-1,-1],"loss_changes":[3.311413E0,9.153961E0,4.4260683E0,3.917101E0,7.7610188E0,5.2449207E0,5.432229E0,0E0,0E0,0E0,0E0,0E0,0E0,0E0,0E0],"parents":[2147483647,0,0,1,1,2,2,3,3,4,4,5,5,6,6],"right_children":[2,4,6,8,10,12,14,-1,-1,-1,-1,-1,-1,-1,-1],"split_conditions":[4.62E1,4.57E1,5E0,2.00001E0,8E0,4.76E1,8.399526E0,1.3447224E-1,2.5230884E-3,-4.249892E-1,-5.465733E-2,8.732495E-2,-1.6873068E-1,3.394835E-1,8.679701E-3],"split_indices":[2,2,8,17,9,2,4,0,0,0,0,0,0,0,0],"split_type":[0,0,0,0,0,0,0,0,0,0,0,0,0,0,0],"sum_hessian":[3.0622598E2,2.5544589E2,5.0780087E1,2.331119E2,2.2334E1,3.3393906E1,1.738618E1,2.139485E1,2.1171704E2,6.8690414E0,1.5464958E1,2.4328506E1,9.065398E0,9.536053E0,7.850127E0],"tree_param":{"num_deleted":"0","num_feature":"22","num_nodes":"15","size_leaf_vector":"1"}},{"base_weights":[3.7731647E-2,2.8549623E-1,-1.4829623E-2,4.70597E-2,6.1043394E-1,9.225944E-2,-2.5698566E-1,6.425545E-2,-3.0797222E-1,1.9532433E-2,2.790993E-1,5.6349793E-3,1.3712573E-1,1.9785108E-2,-1.3159302E-1],"categories":[],"categories_nodes":[],"categories_segments":[],"categories_sizes":[],"default_left":[0,0,0,0,0,0,0,0,0,0,0,0,0,0,0],"id":17,"left_children":[1,3,5,7,9,11,13,-1,-1,-1,-1,-1,-1,-1,-1],"loss_changes":[3.977184E0,4.1117992E0,6.5750804E0,5.9450407E0,3.8705626E0,4.7067213E0,4.58883E0,0E0,0E0,0E0,0E0,0E0,0E0,0E0,0E0],"parents":[2147483647,0,0,1,1,2,2,3,3,4,4,5,5,6,6],"right_children":[2,4,6,8,10,12,14,-1,-1,-1,-1,-1,-1,-1,-1],"split_conditions":[2.00001E0,8.370557E0,1.09E1,8.417384E0,1.1952286E-1,8.767687E0,7.9E0,6.425545E-2,-3.0797222E-1,1.9532433E-2,2.790993E-1,5.6349793E-3,1.3712573E-1,1.9785108E-2,-1.3159302E-1],"split_indices":[16,6,3,4,21,6,6,0,0,0,0,0,0,0,0],"split_type":[0,0,0,0,0,0,0,0,0,0,0,0,0,0,0],"sum_hessian":[3.04076E2,5.244199E1,2.51634E2,3.09073E1,2.1534689E1,1.7490465E2,7.6729355E1,2.7436895E1,3.4704065E0,8.406954E0,1.3127736E1,1.4645918E2,2.8445456E1,2.785248E1,4.8876873E1],"tree_param":{"num_deleted":"0","num_feature":"22","num_nodes":"15","size_leaf_vector":"1"}},{"base_weights":[1.7161664E-2,-8.40174E-2,1.1110112E-1,-2.2086579E-1,1.7730004E-1,3.6661083E-1,2.5450042E-3,-3.7420806E-2,-1.6976099E-1,-3.5816056E-1,8.625282E-2,2.2422291E-1,-5.7004757E-2,-1.3846505E-1,4.451508E-2],"categories":[],"categories_nodes":[],"categories_segments":[],"categories_sizes":[],"default_left":[0,0,0,0,0,0,0,0,0,0,0,0,0,0,0],"id":18,"left_children":[1,3,5,7,9,11,13,-1,-1,-1,-1,-1,-1,-1,-1],"loss_changes":[2.9048316E0,5.30448E0,4.392667E0,3.1490016E0,8.074264E0,1.0151894E1,7.660937E0,0E0,0E0,0E0,0E0,0E0,0E0,0E0,0E0],"parents":[2147483647,0,0,1,1,2,2,3,3,4,4,5,5,6,6],"right_children":[2,4,6,8,10,12,14,-1,-1,-1,-1,-1,-1,-1,-1],"split_conditions":[7.465557E0,4.4953163E1,4.251275E1,6E0,6.89E1,9.2E0,6.79E1,-3.7420806E-2,-1.6976099E-1,-3.5816056E-1,8.625282E-2,2.2422291E-1,-5.7004757E-2,-1.3846505E-1,4.451508E-2],"split_indices":[6,2,2,8,0,6,0,0,0,0,0,0,0,0,0],"split_type":[0,0,0,0,0,0,0,0,0,0,0,0,0,0,0],"sum_hessian":[3.0363824E2,1.4623692E2,1.5740132E2,9.607733E1,5.0159595E1,4.6224667E1,1.1117665E2,7.620547E1,1.9871864E1,3.000179E0,4.7159416E1,2.7243868E1,1.8980797E1,2.6065351E1,8.5111305E1],"tree_param":{"num_deleted":"0","num_feature":"22","num_nodes":"15","size_leaf_vector":"1"}},{"base_weights":[1.8209707E-2,-3.018827E-2,2.7610648E-1,-2.2494294E-4,-1.2598145E0,-2.0609088E-1,5.0390154E-1,-4.779213E-3,1.7292853E-1,-5.3919536E-1,1.22048855E-1,-2.971041E-1,1.5103193E-1,-5.2107584E-2,2.102025E-1],"categories":[],"categories_nodes":[],"categories_segments":[],"categories_sizes":[],"default_left":[0,0,0,0,0,0,0,0,0,0,0,0,0,0,0],"id":19,"left_children":[1,3,5,7,9,11,13,-1,-1,-1,-1,-1,-1,-1,-1],"loss_changes":[3.7947233E0,9.443621E0,5.3798027E0,2.2844844E0,6.1933146E0,9.468852E0,4.5098963E0,0E0,0E0,0E0,0E0,0E0,0E0,0E0,0E0],"parents":[2147483647,0,0,1,1,2,2,3,3,4,4,5,5,6,6],"right_children":[2,4,6,8,10,12,14,-1,-1,-1,-1,-1,-1,-1,-1],"split_conditions":[3.052E0,2.963E0,6.5700707E0,2.84E0,-3.1622776E-1,4E0,1.1952286E-1,-4.779213E-3,1.7292853E-1,-5.3919536E-1,1.22048855E-1,-2.971041E-1,1.5103193E-1,-5.2107584E-2,2.102025E-1],"split_indices":[7,7,4,7,18,8,21,0,0,0,0,0,0,0,0],"split_type":[0,0,0,0,0,0,0,0,0,0,0,0,0,0,0],"sum_hessian":[3.0235565E2,2.5532352E2,4.7032127E1,2.5022623E2,5.097288E0,1.5120429E1,3.1911695E1,2.4453833E2,5.687888E0,3.794978E0,1.30231E0,6.9940314E0,8.126398E0,7.2080207E0,2.4703676E1],"tree_param":{"num_deleted":"0","num_feature":"22","num_nodes":"15","size_leaf_vector":"1"}},{"base_weights":[2.939705E-2,-1.8948762E-1,7.7192776E-2,8.2161707E-1,-2.94211E-1,-1.0666368E-1,1.667251E-1,-5.9431776E-2,3.518558E-1,-5.2157287E-3,-2.0082429E-1,-2.4643132E-1,-1.1015825E-2,6.015533E-2,-1.5730584E-1],"categories":[],"categories_nodes":[],"categories_segments":[],"categories_sizes":[],"default_left":[0,0,0,0,0,0,0,0,0,0,0,0,0,0,0],"id":20,"left_children":[1,3,5,7,9,11,13,-1,-1,-1,-1,-1,-1,-1,-1],"loss_changes":[3.1488833E0,5.9578676E0,4.077224E0,2.1414242E0,5.145664E0,4.037966E0,3.9873214E0,0E0,0E0,0E0,0E0,0E0,0E0,0E0,0E0],"parents":[2147483647,0,0,1,1,2,2,3,3,4,4,5,5,6,6],"right_children":[2,4,6,8,10,12,14,-1,-1,-1,-1,-1,-1,-1,-1],"split_conditions":[6.32E1,2.57E-1,8.966762E0,4.016571E1,4.13E1,6.52E1,1.5E1,-5.9431776E-2,3.518558E-1,-5.2157287E-3,-2.0082429E-1,-2.4643132E-1,-1.1015825E-2,6.015533E-2,-1.5730584E-1],"split_indices":[0,7,3,2,2,0,3,0,0,0,0,0,0,0,0],"split_type":[0,0,0,0,0,0,0,0,0,0,0,0,0,0,0],"sum_hessian":[2.9859192E2,5.298374E1,2.4560818E2,4.3301854E0,4.8653557E1,8.0371765E1,1.6523642E2,1.2210763E0,3.1091094E0,2.8599306E1,2.005425E1,6.206113E0,7.416566E1,1.5821002E2,7.0263834E0],"tree_param":{"num_deleted":"0","num_feature":"22","num_nodes":"15","size_leaf_vector":"1"}},{"base_weights":[1.4480213E-2,5.6896603E-1,-3.9741965E-3,3.785757E-1,8.743637E-2,-4.6726784E-1,4.11399E-2,-1.4242636E-1,1.553728E-1,-1.7905442E-1,2.7784446E-1,4.4023376E-2,-1.8593479E-2],"categories":[],"categories_nodes":[],"categories_segments":[],"categories_sizes":[],"default_left":[0,0,1,0,0,0,0,0,0,0,0,0,0],"id":21,"left_children":[1,3,5,-1,7,9,11,-1,-1,-1,-1,-1,-1],"loss_changes":[3.0736003E0,3.1179051E0,6.1113524E0,0E0,1.8873258E0,5.237416E0,2.9115338E0,0E0,0E0,0E0,0E0,0E0,0E0],"parents":[2147483647,0,0,1,1,2,2,4,4,5,5,6,6],"right_children":[2,4,6,-1,8,10,12,-1,-1,-1,-1,-1,-1],"split_conditions":[1.34E-1,9.474744E0,4.25E-1,3.785757E-1,5.2E-2,1.065E1,7E0,-1.4242636E-1,1.553728E-1,-1.7905442E-1,2.7784446E-1,4.4023376E-2,-1.8593479E-2],"split_indices":[7,5,7,0,7,1,9,0,0,0,0,0,0],"split_type":[0,0,0,0,0,0,0,0,0,0,0,0,0],"sum_hessian":[2.9914914E2,8.674743E0,2.904744E2,2.8921304E0,5.782613E0,2.494521E1,2.655292E2,2.463046E0,3.3195667E0,2.3345837E1,1.5993726E0,1.3097397E2,1.3455524E2],"tree_param":{"num_deleted":"0","num_feature":"22","num_nodes":"13","size_leaf_vector":"1"}},{"base_weights":[-3.9122224E-2,-6.674116E-2,4.3643326E-1,4.2112094E-1,-9.1051936E-2,8.557047E-1,-7.738428E-2,2.16962E-1,-2.2521242E-1,-3.9097663E-2,7.433556E-2,3.079251E-1,4.2957444E-2,2.1215127E-1,-1.1408097E-1],"categories":[],"categories_nodes":[],"categories_segments":[],"categories_sizes":[],"default_left":[0,0,0,0,0,0,0,0,0,0,0,0,0,0,0],"id":22,"left_children":[1,3,5,7,9,11,13,-1,-1,-1,-1,-1,-1,-1,-1],"loss_changes":[3.9084408E0,3.3593721E0,3.5873153E0,5.3107805E0,3.5925848E0,9.5787E-1,2.2320507E0,0E0,0E0,0E0,0E0,0E0,0E0,0E0,0E0],"parents":[2147483647,0,0,1,1,2,2,3,3,4,4,5,5,6,6],"right_children":[2,4,6,8,10,12,14,-1,-1,-1,-1,-1,-1,-1,-1],"split_conditions":[7.7E1,2.00001E0,1.7868431E-17,2.00001E0,1.302258E1,2.00001E0,2.00001E0,2.16962E-1,-2.2521242E-1,-3.9097663E-2,7.433556E-2,3.079251E-1,4.2957444E-2,2.1215127E-1,-1.1408097E-1],"split_indices":[0,12,20,14,3,14,10,0,0,0,0,0,0,0,0],"split_type":[0,0,0,0,0,0,0,0,0,0,0,0,0,0,0],"sum_hessian":[2.943566E2,2.79012E2,1.5344583E1,1.2468814E1,2.6654318E2,8.083289E0,7.261293E0,1.0217647E1,2.251167E0,2.3940933E2,2.7133852E1,6.165522E0,1.9177673E0,1.6507158E0,5.610577E0],"tree_param":{"num_deleted":"0","num_feature":"22","num_nodes":"15","size_leaf_vector":"1"}},{"base_weights":[-3.2863352E-2,1.4182244E-1,-1.2142218E-1,3.2394826E-2,6.971875E-1,-4.307089E-1,-6.7599915E-2,1.3587902E-1,-1.9550905E-2,-9.4266444E-2,2.9223493E-1,-3.0648714E-1,-7.128787E-2,8.5690744E-2,-4.9239267E-2],"categories":[],"categories_nodes":[],"categories_segments":[],"categories_sizes":[],"default_left":[0,0,0,0,0,0,0,0,0,0,0,0,0,0,0],"id":23,"left_children":[1,3,5,7,9,11,13,-1,-1,-1,-1,-1,-1,-1,-1],"loss_changes":[4.6453414E0,6.1218076E0,3.2845874E0,3.537999E0,4.953764E0,3.1025333E0,5.8688993E0,0E0,0E0,0E0,0E0,0E0,0E0,0E0,0E0],"parents":[2147483647,0,0,1,1,2,2,3,3,4,4,5,5,6,6],"right_children":[2,4,6,8,10,12,14,-1,-1,-1,-1,-1,-1,-1,-1],"split_conditions":[6.9E0,6.7E0,6.7E0,6.51E0,6.34E1,4E0,4.28E1,1.3587902E-1,-1.9550905E-2,-9.4266444E-2,2.9223493E-1,-3.0648714E-1,-7.128787E-2,8.5690744E-2,-4.9239267E-2],"split_indices":[6,6,1,1,0,8,2,0,0,0,0,0,0,0,0],"split_type":[0,0,0,0,0,0,0,0,0,0,0,0,0,0,0],"sum_hessian":[2.9816812E2,1.00105194E2,1.9806293E2,8.451159E1,1.5593604E1,2.8320171E1,1.6974275E2,1.5228661E1,6.928293E1,3.3229074E0,1.2270697E1,5.9178667E0,2.2402304E1,3.6010513E1,1.3373224E2],"tree_param":{"num_deleted":"0","num_feature":"22","num_nodes":"15","size_leaf_vector":"1"}},{"base_weights":[-3.7944138E-3,4.9060687E-2,-2.1758969E-1,1.0194672E-1,-2.8385732E-1,8.8066176E-2,-5.3474474E-1,7.681974E-3,1.3019708E-1,-3.2927704E-1,-4.311814E-2,2.876897E-1,-4.2597294E-2,-2.4539383E-1,-2.9158691E-2],"categories":[],"categories_nodes":[],"categories_segments":[],"categories_sizes":[],"default_left":[0,0,0,0,0,0,0,0,0,0,0,0,0,0,0],"id":24,"left_children":[1,3,5,7,9,11,13,-1,-1,-1,-1,-1,-1,-1,-1],"loss_changes":[3.2733262E0,4.11917E0,5.6129055E0,5.088993E0,3.503638E0,6.16611E0,3.4300175E0,0E0,0E0,0E0,0E0,0E0,0E0,0E0,0E0],"parents":[2147483647,0,0,1,1,2,2,3,3,4,4,5,5,6,6],"right_children":[2,4,6,8,10,12,14,-1,-1,-1,-1,-1,-1,-1,-1],"split_conditions":[1E1,7E0,2.00001E0,2.00001E0,7.3E0,2.00001E0,1.863E0,7.681974E-3,1.3019708E-1,-3.2927704E-1,-4.311814E-2,2.876897E-1,-4.2597294E-2,-2.4539383E-1,-2.9158691E-2],"split_indices":[9,8,10,14,3,16,7,0,0,0,0,0,0,0,0],"split_type":[0,0,0,0,0,0,0,0,0,0,0,0,0,0,0],"sum_hessian":[2.877258E2,2.3131094E2,5.6414852E1,2.002015E2,3.1109438E1,2.9096058E1,2.7318792E1,1.6365312E2,3.6548378E1,3.5664573E0,2.7542982E1,5.4178777E0,2.367818E1,1.6055971E1,1.1262822E1],"tree_param":{"num_deleted":"0","num_feature":"22","num_nodes":"15","size_leaf_vector":"1"}},{"base_weights":[-1.4265696E-2,-3.2371938E-1,-6.799608E-3,8.460675E-1,-2.152601E-2,-1.1888821E-2,3.7888715E-1,-1.3459352E-1,-3.273688E-4],"categories":[],"categories_nodes":[],"categories_segments":[],"categories_sizes":[],"default_left":[0,0,0,0,0,0,0,0,0],"id":25,"left_children":[1,-1,3,5,7,-1,-1,-1,-1],"loss_changes":[2.3725913E0,0E0,3.764614E0,1.9287002E0,2.5673163E0,0E0,0E0,0E0,0E0],"parents":[2147483647,0,0,2,2,3,3,4,4],"right_children":[2,-1,4,6,8,-1,-1,-1,-1],"split_conditions":[3.6E1,-3.2371938E-1,3.87E1,5.25E0,5.95E0,-1.1888821E-2,3.7888715E-1,-1.3459352E-1,-3.273688E-4],"split_indices":[2,0,2,1,1,0,0,0,0],"split_type":[0,0,0,0,0,0,0,0,0],"sum_hessian":[2.983665E2,1.0781212E0,2.9728836E2,4.0879135E0,2.9320044E2,1.5979505E0,2.4899628E0,1.2430409E1,2.8077005E2],"tree_param":{"num_deleted":"0","num_feature":"22","num_nodes":"9","size_leaf_vector":"1"}},{"base_weights":[2.7534377E-2,-1.3280579E-2,4.9407822E-1,6.800886E-2,-1.3159801E-1,8.281611E-1,2.232914E-1,6.403318E-2,-3.401903E-2,-2.049182E-1,-2.3379698E-2,3.719211E-1,-3.8382195E-2,-1.0493866E-2,3.2258704E-1],"categories":[],"categories_nodes":[],"categories_segments":[],"categories_sizes":[],"default_left":[0,0,0,0,0,0,0,0,0,0,0,0,0,0,0],"id":26,"left_children":[1,3,5,7,9,11,13,-1,-1,-1,-1,-1,-1,-1,-1],"loss_changes":[5.6085815E0,2.620231E0,1.958458E0,4.28744E0,3.2290678E0,4.1871963E0,3.2184367E0,0E0,0E0,0E0,0E0,0E0,0E0,0E0,0E0],"parents":[2147483647,0,0,1,1,2,2,3,3,4,4,5,5,6,6],"right_children":[2,4,6,8,10,12,14,-1,-1,-1,-1,-1,-1,-1,-1],"split_conditions":[4.676658E1,7.960959E0,4.74E1,-3.1622776E-1,7.6E0,2.00001E0,2.00001E0,6.403318E-2,-3.401903E-2,-2.049182E-1,-2.3379698E-2,3.719211E-1,-3.8382195E-2,-1.0493866E-2,3.2258704E-1],"split_indices":[2,4,2,18,6,14,14,0,0,0,0,0,0,0,0],"split_type":[0,0,0,0,0,0,0,0,0,0,0,0,0,0,0],"sum_hessian":[2.931934E2,2.7050055E2,2.269284E1,1.6059186E2,1.0990869E2,9.237606E0,1.3455235E1,8.9034904E1,7.155695E1,8.7071295E0,1.0120156E2,6.2503443E0,2.9872615E0,1.1061152E1,2.3940825E0],"tree_param":{"num_deleted":"0","num_feature":"22","num_nodes":"15","size_leaf_vector":"1"}},{"base_weights":[6.275652E-2,-3.0565602E-1,7.911801E-2,-5.0370955E-1,2.610116E-1,2.676459E-1,3.9541606E-2,-1.8964733E-1,7.975086E-2,1.858295E-1,-6.234096E-2,3.932908E-2,-2.5840081E-2],"categories":[],"categories_nodes":[],"categories_segments":[],"categories_sizes":[],"default_left":[0,0,0,0,0,0,0,0,0,0,0,0,0],"id":27,"left_children":[1,3,5,7,-1,9,11,-1,-1,-1,-1,-1,-1],"loss_changes":[1.8258817E0,3.445632E0,2.1306767E0,1.3232546E0,0E0,8.427762E0,2.7539763E0,0E0,0E0,0E0,0E0,0E0,0E0],"parents":[2147483647,0,0,1,1,2,2,3,3,5,5,6,6],"right_children":[2,4,6,8,-1,10,12,-1,-1,-1,-1,-1,-1],"split_conditions":[-3.1622776E-1,9.9E0,2.00001E0,1.432E0,2.610116E-1,5E0,8E0,-1.8964733E-1,7.975086E-2,1.858295E-1,-6.234096E-2,3.932908E-2,-2.5840081E-2],"split_indices":[20,4,15,7,0,8,6,0,0,0,0,0,0],"split_type":[0,0,0,0,0,0,0,0,0,0,0,0,0],"sum_hessian":[2.9789932E2,1.1915519E1,2.859838E2,1.0686818E1,1.2287011E0,4.8618732E1,2.3736507E2,9.31118E0,1.3756377E0,2.776932E1,2.0849413E1,1.3729875E2,1.00066315E2],"tree_param":{"num_deleted":"0","num_feature":"22","num_nodes":"13","size_leaf_vector":"1"}},{"base_weights":[-4.0749997E-2,1.5263964E-1,-7.5930916E-2,-2.625339E-1,3.5543808E-1,-3.4688956E-1,-1.4061962E-2,2.9234546E-1,-1.2832992E-1,-1.8429153E-2,1.8851243E-1,2.0097714E-2,-1.8845616E-1,-4.4102706E-2,3.858534E-2],"categories":[],"categories_nodes":[],"categories_segments":[],"categories_sizes":[],"default_left":[0,0,0,0,0,0,0,0,0,0,0,0,0,0,0],"id":28,"left_children":[1,3,5,7,9,11,13,-1,-1,-1,-1,-1,-1,-1,-1],"loss_changes":[1.9732196E0,3.8577228E0,4.0957704E0,3.5333683E0,3.504563E0,5.331029E0,3.8161528E0,0E0,0E0,0E0,0E0,0E0,0E0,0E0,0E0],"parents":[2147483647,0,0,1,1,2,2,3,3,4,4,5,5,6,6],"right_children":[2,4,6,8,10,12,14,-1,-1,-1,-1,-1,-1,-1,-1],"split_conditions":[7.8E0,1.026E0,8.75626E0,2.66E-1,7.7E0,7.861427E0,6.84E1,2.9234546E-1,-1.2832992E-1,-1.8429153E-2,1.8851243E-1,2.0097714E-2,-1.8845616E-1,-4.4102706E-2,3.858534E-2],"split_indices":[5,7,5,7,1,1,0,0,0,0,0,0,0,0,0],"split_type":[0,0,0,0,0,0,0,0,0,0,0,0,0,0,0],"sum_hessian":[2.8732123E2,4.3709766E1,2.4361145E2,1.424747E1,2.9462297E1,4.4428303E1,1.9918315E2,1.1017228E0,1.3145747E1,1.19640255E1,1.7498272E1,1.8285753E1,2.614255E1,1.0309256E2,9.609058E1],"tree_param":{"num_deleted":"0","num_feature":"22","num_nodes":"15","size_leaf_vector":"1"}},{"base_weights":[4.0994426E-3,-1.3744348E-1,1.0268718E-1,-3.9695363E-2,-4.4211575E-1,7.7199385E-2,8.0711937E-1,-4.3383833E-2,1.07829906E-1,1.0742869E-1,-1.867601E-1,8.42772E-2,1.3476564E-3,3.0084205E-1,-2.2385575E-2],"categories":[],"categories_nodes":[],"categories_segments":[],"categories_sizes":[],"default_left":[0,0,0,0,0,0,0,0,0,0,0,0,0,0,0],"id":29,"left_children":[1,3,5,7,9,11,13,-1,-1,-1,-1,-1,-1,-1,-1],"loss_changes":[4.1375813E0,3.608187E0,3.0752244E0,3.9578135E0,4.4780927E0,2.51317E0,1.1094525E0,0E0,0E0,0E0,0E0,0E0,0E0,0E0,0E0],"parents":[2147483647,0,0,1,1,2,2,3,3,4,4,5,5,6,6],"right_children":[2,4,6,8,10,12,14,-1,-1,-1,-1,-1,-1,-1,-1],"split_conditions":[7.1E0,1E1,1.24E1,9.093021E0,4.19E1,7.651723E0,3.1622776E-1,-4.3383833E-2,1.07829906E-1,1.0742869E-1,-1.867601E-1,8.42772E-2,1.3476564E-3,3.0084205E-1,-2.2385575E-2],"split_indices":[4,5,6,5,2,4,20,0,0,0,0,0,0,0,0],"split_type":[0,0,0,0,0,0,0,0,0,0,0,0,0,0,0],"sum_hessian":[2.944959E2,1.20746056E2,1.7374986E2,9.2272514E1,2.847354E1,1.687536E2,4.99626E0,7.3570885E1,1.870163E1,5.0574236E0,2.3416117E1,4.3632404E1,1.251212E2,3.9764457E0,1.0198143E0],"tree_param":{"num_deleted":"0","num_feature":"22","num_nodes":"15","size_leaf_vector":"1"}},{"base_weights":[-9.385143E-3,2.4232635E-1,-7.6049715E-2,3.0969125E-1,-2.8246406E-1,-4.9281222E-1,-3.065916E-2,-2.4435247E-1,1.040138E-1,-1.7700541E-1,1.129638E-1,-3.5439804E-2,6.714765E-2],"categories":[],"categories_nodes":[],"categories_segments":[],"categories_sizes":[],"default_left":[0,0,0,0,0,0,0,0,0,0,0,0,0],"id":30,"left_children":[1,3,5,7,-1,9,11,-1,-1,-1,-1,-1,-1],"loss_changes":[4.931047E0,5.199508E0,4.377853E0,2.737091E0,0E0,2.143972E0,4.711878E0,0E0,0E0,0E0,0E0,0E0,0E0],"parents":[2147483647,0,0,1,1,2,2,3,3,5,5,6,6],"right_children":[2,4,6,8,-1,10,12,-1,-1,-1,-1,-1,-1],"split_conditions":[4.18E1,1.17E1,6.45E1,5.7E0,-2.8246406E-1,1.1E1,1.1203076E1,-2.4435247E-1,1.040138E-1,-1.7700541E-1,1.129638E-1,-3.5439804E-2,6.714765E-2],"split_indices":[2,4,0,3,0,6,3,0,0,0,0,0,0],"split_type":[0,0,0,0,0,0,0,0,0,0,0,0,0],"sum_hessian":[2.9176212E2,6.054015E1,2.3122195E2,5.797941E1,2.5607429E0,2.1741438E1,2.0948051E2,1.1789254E0,5.6800484E1,1.9843939E1,1.8974985E0,1.5629376E2,5.3186756E1],"tree_param":{"num_deleted":"0","num_feature":"22","num_nodes":"13","size_leaf_vector":"1"}},{"base_weights":[4.8014246E-2,2.415726E-1,-3.6116943E-2,1.24321476E-1,7.7303845E-1,2.9744318E-1,-5.381306E-2,5.7516918E-2,-3.8108304E-1,2.8769463E-1,-5.545995E-2,-2.8423836E-2,1.2154011E-1],"categories":[],"categories_nodes":[],"categories_segments":[],"categories_sizes":[],"default_left":[0,0,0,0,0,0,0,0,0,0,0,0,0],"id":31,"left_children":[1,3,5,7,9,-1,11,-1,-1,-1,-1,-1,-1],"loss_changes":[4.6404896E0,5.2819147E0,3.6743753E0,7.001689E0,2.9215546E0,0E0,3.7337027E0,0E0,0E0,0E0,0E0,0E0,0E0],"parents":[2147483647,0,0,1,1,2,2,3,3,4,4,6,6],"right_children":[2,4,6,8,10,-1,12,-1,-1,-1,-1,-1,-1],"split_conditions":[4.27E1,4.23E1,5.9E0,1.35E1,8.913291E0,2.9744318E-1,1.36E1,5.7516918E-2,-3.8108304E-1,2.8769463E-1,-5.545995E-2,-2.8423836E-2,1.2154011E-1],"split_indices":[2,2,3,3,4,0,3,0,0,0,0,0,0],"split_type":[0,0,0,0,0,0,0,0,0,0,0,0,0],"sum_hessian":[2.8343137E2,8.530381E1,1.9812756E2,7.089663E1,1.440718E1,2.4225879E0,1.9570497E2,6.845089E1,2.445739E0,1.2064211E1,2.3429685E0,1.804081E2,1.5296883E1],"tree_param":{"num_deleted":"0","num_feature":"22","num_nodes":"13","size_leaf_vector":"1"}},{"base_weights":[-2.145835E-3,1.4665978E-2,-8.535816E-1,-1.0073988E-2,6.0716623E-1,-1.14811E0,7.889702E-2,-2.1578738E-2,6.0923684E-2,2.665869E-1,5.2430447E-2,-2.415535E-2,-4.5231366E-1],"categories":[],"categories_nodes":[],"categories_segments":[],"categories_sizes":[],"default_left":[0,1,0,0,0,0,0,0,0,0,0,0,0],"id":32,"left_children":[1,3,5,7,9,11,-1,-1,-1,-1,-1,-1,-1],"loss_changes":[4.2781425E0,4.304158E0,2.2050796E0,3.7385209E0,1.2769709E0,1.708128E0,0E0,0E0,0E0,0E0,0E0,0E0,0E0],"parents":[2147483647,0,0,1,1,2,2,3,3,4,4,5,5],"right_children":[2,4,6,8,10,12,-1,-1,-1,-1,-1,-1,-1],"split_conditions":[1.55E1,4.609E0,1.13E1,6E0,1.0108488E1,8.296172E0,7.889702E-2,-2.1578738E-2,6.0923684E-2,2.665869E-1,5.2430447E-2,-2.415535E-2,-4.5231366E-1],"split_indices":[3,7,4,8,5,6,0,0,0,0,0,0,0],"split_type":[0,0,0,0,0,0,0,0,0,0,0,0,0],"sum_hessian":[2.9699988E2,2.9221283E2,4.7870407E0,2.814441E2,1.0768757E1,3.765527E0,1.0215136E0,2.1865488E2,6.278921E1,5.8837795E0,4.8849773E0,1.2571597E0,2.5083673E0],"tree_param":{"num_deleted":"0","num_feature":"22","num_nodes":"13","size_leaf_vector":"1"}},{"base_weights":[1.7729064E-2,1.7849799E-1,-3.9928768E-2,2.6471946E-1,-1.8260525E-1,-9.9277E-3,-3.8887835E-1,4.872926E-2,2.7126682E-1,-1.6701023E-1,1.9010879E-1,1.00151844E-1,-1.5969634E-2,-3.7335518E-1,-3.0062607E-2],"categories":[],"categories_nodes":[],"categories_segments":[],"categories_sizes":[],"default_left":[0,0,0,0,0,0,0,0,0,0,0,0,0,0,0],"id":33,"left_children":[1,3,5,7,9,11,13,-1,-1,-1,-1,-1,-1,-1,-1],"loss_changes":[2.6369903E0,2.3857274E0,2.1907861E0,3.844092E0,4.952347E0,2.90675E0,3.9681296E0,0E0,0E0,0E0,0E0,0E0,0E0,0E0,0E0],"parents":[2147483647,0,0,1,1,2,2,3,3,4,4,5,5,6,6],"right_children":[2,4,6,8,10,12,14,-1,-1,-1,-1,-1,-1,-1,-1],"split_conditions":[6.4309916E0,1E1,8E0,6.3723397E0,6.7E0,8.1E0,2.00001E0,4.872926E-2,2.7126682E-1,-1.6701023E-1,1.9010879E-1,1.00151844E-1,-1.5969634E-2,-3.7335518E-1,-3.0062607E-2],"split_indices":[4,5,8,4,6,3,11,0,0,0,0,0,0,0,0],"split_type":[0,0,0,0,0,0,0,0,0,0,0,0,0,0,0],"sum_hessian":[2.8270874E2,7.407304E1,2.086357E2,6.0010986E1,1.4062051E1,1.9306529E2,1.557041E1,5.2816914E1,7.1940746E0,9.860972E0,4.201078E0,2.0848969E1,1.7221632E2,3.0925727E0,1.2477838E1],"tree_param":{"num_deleted":"0","num_feature":"22","num_nodes":"15","size_leaf_vector":"1"}},{"base_weights":[-3.7732057E-2,4.2535013E-1,-6.489215E-2,9.470493E-1,1.2368667E-2,-1.5090927E-1,1.0822475E-1,3.4654742E-1,1.6254913E-2,-1.9425525E-1,1.755433E-1,-2.0751122E-2,-1.0895948E-1,-3.468779E-1,4.6705384E-2],"categories":[],"categories_nodes":[],"categories_segments":[],"categories_sizes":[],"default_left":[0,0,0,0,0,0,0,0,0,0,0,0,0,0,0],"id":34,"left_children":[1,3,5,7,9,11,13,-1,-1,-1,-1,-1,-1,-1,-1],"loss_changes":[3.6990964E0,3.5011792E0,4.1353126E0,1.2735739E0,4.201592E0,3.188662E0,5.7251387E0,0E0,0E0,0E0,0E0,0E0,0E0,0E0,0E0],"parents":[2147483647,0,0,1,1,2,2,3,3,4,4,5,5,6,6],"right_children":[2,4,6,8,10,12,14,-1,-1,-1,-1,-1,-1,-1,-1],"split_conditions":[5.97E1,9.020557E0,7.179902E1,7E0,1.00018835E1,8.45E0,7.95E0,3.4654742E-1,1.6254913E-2,-1.9425525E-1,1.755433E-1,-2.0751122E-2,-1.0895948E-1,-3.468779E-1,4.6705384E-2],"split_indices":[0,3,0,8,3,1,1,0,0,0,0,0,0,0,0],"split_type":[0,0,0,0,0,0,0,0,0,0,0,0,0,0,0],"sum_hessian":[2.9091312E2,1.5304753E1,2.7560837E2,6.190897E0,9.113856E0,1.8420842E2,9.139993E1,4.782444E0,1.4084531E0,4.174262E0,4.9395943E0,1.3395628E2,5.0252144E1,2.4612534E0,8.8938675E1],"tree_param":{"num_deleted":"0","num_feature":"22","num_nodes":"15","size_leaf_vector":"1"}},{"base_weights":[8.36097E-2,2.6977894E-1,1.6214417E-2,-4.99098E-1,3.1712466E-1,-6.532514E-1,4.326461E-2,3.8468868E-2,-2.954819E-1,2.8024158E-1,6.051718E-2,-2.3994659E-1,5.613452E-2,-1.4476626E-1,2.2028444E-2],"categories":[],"categories_nodes":[],"categories_segments":[],"categories_sizes":[],"default_left":[0,0,1,0,0,0,0,0,0,0,0,0,0,0,0],"id":35,"left_children":[1,3,5,7,9,11,13,-1,-1,-1,-1,-1,-1,-1,-1],"loss_changes":[3.5165474E0,2.871121E0,3.7786314E0,1.5622083E0,4.8535953E0,1.1479816E0,3.2074268E0,0E0,0E0,0E0,0E0,0E0,0E0,0E0,0E0],"parents":[2147483647,0,0,1,1,2,2,3,3,4,4,5,5,6,6],"right_children":[2,4,6,8,10,12,14,-1,-1,-1,-1,-1,-1,-1,-1],"split_conditions":[8.64E-1,6.8E0,9.12E-1,6.3897185E0,8E0,4.5513664E1,3.99E1,3.8468868E-2,-2.954819E-1,2.8024158E-1,6.051718E-2,-2.3994659E-1,5.613452E-2,-1.4476626E-1,2.2028444E-2],"split_indices":[7,5,7,5,3,2,2,0,0,0,0,0,0,0,0],"split_type":[0,0,0,0,0,0,0,0,0,0,0,0,0,0,0],"sum_hessian":[2.7962018E2,7.352249E1,2.0609767E2,3.711271E0,6.9811226E1,7.105048E0,1.9899261E2,1.9410366E0,1.7702346E0,9.881737E0,5.9929485E1,6.090955E0,1.0140934E0,9.982208E0,1.890104E2],"tree_param":{"num_deleted":"0","num_feature":"22","num_nodes":"15","size_leaf_vector":"1"}},{"base_weights":[4.408926E-2,-1.4493972E-1,1.273769E-1,1.0415001E-1,-2.6748425E-1,1.7677797E-1,-1.55112E-1,-2.2684146E-2,2.0278777E-1,-4.5627393E-2,-1.8971957E-1,-1.13140605E-1,6.2335398E-2,-7.515092E-3,-2.756277E-1],"categories":[],"categories_nodes":[],"categories_segments":[],"categories_sizes":[],"default_left":[0,0,0,0,0,0,0,0,0,0,0,0,0,0,0],"id":36,"left_children":[1,3,5,7,9,11,13,-1,-1,-1,-1,-1,-1,-1,-1],"loss_changes":[4.516232E0,2.709268E0,2.8023024E0,3.1025493E0,2.3948874E0,2.9931607E0,2.9695063E0,0E0,0E0,0E0,0E0,0E0,0E0,0E0,0E0],"parents":[2147483647,0,0,1,1,2,2,3,3,4,4,5,5,6,6],"right_children":[2,4,6,8,10,12,14,-1,-1,-1,-1,-1,-1,-1,-1],"split_conditions":[8.8E0,4E0,1.28E1,7.408947E0,8.3E0,5.99E1,1.07E1,-2.2684146E-2,2.0278777E-1,-4.5627393E-2,-1.8971957E-1,-1.13140605E-1,6.2335398E-2,-7.515092E-3,-2.756277E-1],"split_indices":[5,8,5,4,5,0,1,0,0,0,0,0,0,0,0],"split_type":[0,0,0,0,0,0,0,0,0,0,0,0,0,0,0],"sum_hessian":[2.8468558E2,8.684426E1,1.9784132E2,2.8685953E1,5.815831E1,1.687116E2,2.9129728E1,2.2484957E1,6.200996E0,4.5262287E1,1.2896022E1,8.351666E0,1.6035992E2,2.577297E1,3.3567588E0],"tree_param":{"num_deleted":"0","num_feature":"22","num_nodes":"15","size_leaf_vector":"1"}},{"base_weights":[-1.2201922E-1,-2.1961427E-1,-2.165335E-2,-1.8492459E-1,-1.4612674E0,7.9638463E-1,-5.2249637E-2,-1.704607E-2,-1.23043664E-1,-1.4212564E-1,-5.126003E-1,3.5077393E-1,-1.0138413E-1,-4.6063244E-2,5.9085894E-2],"categories":[],"categories_nodes":[],"categories_segments":[],"categories_sizes":[],"default_left":[0,0,1,0,0,0,0,0,0,0,0,0,0,0,0],"id":37,"left_children":[1,3,5,7,9,11,13,-1,-1,-1,-1,-1,-1,-1,-1],"loss_changes":[2.7984962E0,5.974709E0,3.6007109E0,4.0791507E0,1.1784649E-1,2.5895572E0,3.5140352E0,0E0,0E0,0E0,0E0,0E0,0E0,0E0,0E0],"parents":[2147483647,0,0,1,1,2,2,3,3,4,4,5,5,6,6],"right_children":[2,4,6,8,10,12,14,-1,-1,-1,-1,-1,-1,-1,-1],"split_conditions":[1.524E0,1.506E0,1.57E0,1.0763913E1,7.55E0,1.7868431E-17,5E0,-1.704607E-2,-1.23043664E-1,-1.4212564E-1,-5.126003E-1,3.5077393E-1,-1.0138413E-1,-4.6063244E-2,5.9085894E-2],"split_indices":[7,7,7,3,1,20,8,0,0,0,0,0,0,0,0],"split_type":[0,0,0,0,0,0,0,0,0,0,0,0,0,0,0],"sum_hessian":[2.8518585E2,1.4398637E2,1.4119948E2,1.4119069E2,2.795694E0,4.1883664E0,1.3701111E2,9.0797745E1,5.039294E1,1.1440523E0,1.6516418E0,3.129049E0,1.0593175E0,9.768749E1,3.9323616E1],"tree_param":{"num_deleted":"0","num_feature":"22","num_nodes":"15","size_leaf_vector":"1"}},{"base_weights":[3.136659E-2,3.0035484E-1,-6.035159E-3,1.261595E-1,9.9039334E-1,-6.256266E-1,3.0283352E-2,1.1910931E-1,-1.777654E-1,3.9629632E-1,8.107452E-2,-4.043984E-1,-8.084369E-2,-1.2416199E-2,7.1536936E-2],"categories":[],"categories_nodes":[],"categories_segments":[],"categories_sizes":[],"default_left":[0,0,0,0,0,0,0,0,0,0,0,0,0,0,0],"id":38,"left_children":[1,3,5,7,9,11,13,-1,-1,-1,-1,-1,-1,-1,-1],"loss_changes":[2.8548095E0,4.038474E0,5.6433306E0,5.842295E0,1.2703667E0,3.209146E0,3.5467446E0,0E0,0E0,0E0,0E0,0E0,0E0,0E0,0E0],"parents":[2147483647,0,0,1,1,2,2,3,3,4,4,5,5,6,6],"right_children":[2,4,6,8,10,12,14,-1,-1,-1,-1,-1,-1,-1,-1],"split_conditions":[6.22E1,6.1518982E1,6.31E1,1.1069486E1,6.2E1,4.09E1,3.1622776E-1,1.1910931E-1,-1.777654E-1,3.9629632E-1,8.107452E-2,-4.043984E-1,-8.084369E-2,-1.2416199E-2,7.1536936E-2],"split_indices":[0,0,0,5,0,2,20,0,0,0,0,0,0,0,0],"split_type":[0,0,0,0,0,0,0,0,0,0,0,0,0,0,0],"sum_hessian":[2.8258032E2,3.3637016E1,2.4894331E2,2.7801542E1,5.8354726E0,1.2885827E1,2.360575E2,2.0516685E1,7.2848573E0,3.427628E0,2.4078445E0,3.33552E0,9.550307E0,1.761969E2,5.9860596E1],"tree_param":{"num_deleted":"0","num_feature":"22","num_nodes":"15","size_leaf_vector":"1"}},{"base_weights":[-3.8321197E-2,-6.785379E-2,3.9675844E-1,-3.904021E-3,-2.7621543E-1,7.602099E-1,-1.9132169E-1,-1.438042E-2,1.3056073E-1,-3.5729658E-2,-2.3244868E-1,-1.8152047E-2,2.8225997E-1,-2.0442611E-1,2.8411067E-1],"categories":[],"categories_nodes":[],"categories_segments":[],"categories_sizes":[],"default_left":[0,0,0,0,0,0,0,0,0,0,0,0,0,0,0],"id":39,"left_children":[1,3,5,7,9,11,13,-1,-1,-1,-1,-1,-1,-1,-1],"loss_changes":[3.719808E0,3.5964675E0,4.081377E0,4.034647E0,4.8737626E0,1.774168E0,5.0152493E0,0E0,0E0,0E0,0E0,0E0,0E0,0E0,0E0],"parents":[2147483647,0,0,1,1,2,2,3,3,4,4,5,5,6,6],"right_children":[2,4,6,8,10,12,14,-1,-1,-1,-1,-1,-1,-1,-1],"split_conditions":[1.36E1,1.12E1,5E0,9.5E0,1E1,7.861427E0,2.387E0,-1.438042E-2,1.3056073E-1,-3.5729658E-2,-2.3244868E-1,-1.8152047E-2,2.8225997E-1,-2.0442611E-1,2.8411067E-1],"split_indices":[5,5,8,4,4,1,7,0,0,0,0,0,0,0,0],"split_type":[0,0,0,0,0,0,0,0,0,0,0,0,0,0,0],"sum_hessian":[2.8640588E2,2.6899118E2,1.7414701E1,2.0660065E2,6.2390553E1,1.0582003E1,6.832699E0,1.8858174E2,1.8018902E1,4.838345E1,1.4007101E1,2.029072E0,8.55293E0,5.056931E0,1.7757678E0],"tree_param":{"num_deleted":"0","num_feature":"22","num_nodes":"15","size_leaf_vector":"1"}},{"base_weights":[-9.543078E-3,-1.24625005E-1,8.615647E-2,-3.5296082E-2,-5.4597896E-1,1.1412695E-1,-5.3572893E-1,-6.719216E-2,5.8950786E-2,-2.8277546E-1,1.4122874E-1,2.5311875E-1,2.6762227E-2,-2.9159206E-1,1.2477467E-1],"categories":[],"categories_nodes":[],"categories_segments":[],"categories_sizes":[],"default_left":[0,0,0,0,0,0,0,0,0,0,0,0,0,0,0],"id":40,"left_children":[1,3,5,7,9,11,13,-1,-1,-1,-1,-1,-1,-1,-1],"loss_changes":[3.0914822E0,4.776415E0,2.7280107E0,4.6884537E0,9.403015E0,2.6072602E0,3.2167156E0,0E0,0E0,0E0,0E0,0E0,0E0,0E0,0E0],"parents":[2147483647,0,0,1,1,2,2,3,3,4,4,5,5,6,6],"right_children":[2,4,6,8,10,12,14,-1,-1,-1,-1,-1,-1,-1,-1],"split_conditions":[4.39E1,6.86E1,1.42E1,1.654E0,1.0059298E1,4.4E1,4.6486E1,-6.719216E-2,5.8950786E-2,-2.8277546E-1,1.4122874E-1,2.5311875E-1,2.6762227E-2,-2.9159206E-1,1.2477467E-1],"split_indices":[2,0,5,7,5,2,2,0,0,0,0,0,0,0,0],"split_type":[0,0,0,0,0,0,0,0,0,0,0,0,0,0,0],"sum_hessian":[2.7872977E2,1.2641238E2,1.523174E2,1.0519445E2,2.1217928E1,1.4654283E2,5.7745605E0,5.800981E1,4.718464E1,1.5316336E1,5.901592E0,3.7546551E0,1.4278818E2,3.9448395E0,1.8297209E0],"tree_param":{"num_deleted":"0","num_feature":"22","num_nodes":"15","size_leaf_vector":"1"}},{"base_weights":[-4.0811524E-2,2.505861E-1,-7.193645E-2,4.052962E-2,8.254005E-1,-4.8020387E-1,-4.9914073E-2,-3.5454564E-2,2.199565E-1,3.1620675E-1,-3.3610992E-2,3.5879012E-2,-3.2311687E-1,2.0561542E-1,-1.9120194E-2],"categories":[],"categories_nodes":[],"categories_segments":[],"categories_sizes":[],"default_left":[0,0,0,0,0,0,0,0,0,0,0,0,0,0,0],"id":41,"left_children":[1,3,5,7,9,11,13,-1,-1,-1,-1,-1,-1,-1,-1],"loss_changes":[2.593968E0,3.3029118E0,2.2901704E0,2.426936E0,1.6919432E0,4.803108E0,2.536631E0,0E0,0E0,0E0,0E0,0E0,0E0,0E0,0E0],"parents":[2147483647,0,0,1,1,2,2,3,3,4,4,5,5,6,6],"right_children":[2,4,6,8,10,12,14,-1,-1,-1,-1,-1,-1,-1,-1],"split_conditions":[4.08E1,9.015211E0,6.45E0,4.05E1,1.17E1,1.959E0,6.6E0,-3.5454564E-2,2.199565E-1,3.1620675E-1,-3.3610992E-2,3.5879012E-2,-3.2311687E-1,2.0561542E-1,-1.9120194E-2],"split_indices":[2,4,1,2,4,7,1,0,0,0,0,0,0,0,0],"split_type":[0,0,0,0,0,0,0,0,0,0,0,0,0,0,0],"sum_hessian":[2.8301526E2,2.663184E1,2.5638342E2,2.0288315E1,6.343523E0,1.2056969E1,2.4432646E2,1.7180958E1,3.107358E0,4.9998055E0,1.3437179E0,6.4124575E0,5.644511E0,3.6109152E0,2.4071555E2],"tree_param":{"num_deleted":"0","num_feature":"22","num_nodes":"15","size_leaf_vector":"1"}},{"base_weights":[2.4949561E-3,8.3151996E-1,-1.0773005E-2,5.4907084E-2,2.922238E-1,-1.629529E-1,7.0621476E-2,-2.0606752E-2,-1.8715897E-1,5.8234274E-2,-2.133557E-2],"categories":[],"categories_nodes":[],"categories_segments":[],"categories_sizes":[],"default_left":[0,0,0,0,0,0,0,0,0,0,0],"id":42,"left_children":[1,3,5,-1,-1,7,9,-1,-1,-1,-1],"loss_changes":[3.2453618E0,2.513876E-1,3.6108701E0,0E0,0E0,4.369791E0,3.3399172E0,0E0,0E0,0E0,0E0],"parents":[2147483647,0,0,1,1,2,2,5,5,6,6],"right_children":[2,4,6,-1,-1,8,10,-1,-1,-1,-1],"split_conditions":[3.87E1,1.116E0,6.67E1,5.4907084E-2,2.922238E-1,4.3122425E1,9.15E0,-2.0606752E-2,-1.8715897E-1,5.8234274E-2,-2.133557E-2],"split_indices":[2,7,0,0,0,2,1,0,0,0,0],"split_type":[0,0,0,0,0,0,0,0,0,0,0],"sum_hessian":[2.9323267E2,3.6475997E0,2.8958505E2,1.0689292E0,2.5786705E0,1.0056355E2,1.8902151E2,8.4442665E1,1.6120882E1,1.0081537E2,8.820615E1],"tree_param":{"num_deleted":"0","num_feature":"22","num_nodes":"11","size_leaf_vector":"1"}},{"base_weights":[-1.41243385E-2,-5.2953655E-1,7.6002814E-3,9.958026E-2,-6.411741E-1,-4.0029612E-1,3.676428E-2,-2.8788086E-2,-2.43638E-1,3.32493E-2,-2.578959E-1,2.0194887E-1,6.3735857E-3],"categories":[],"categories_nodes":[],"categories_segments":[],"categories_sizes":[],"default_left":[0,0,1,0,0,0,0,0,0,0,0,0,0],"id":43,"left_children":[1,3,5,-1,7,9,11,-1,-1,-1,-1,-1,-1],"loss_changes":[3.2640634E0,1.3466766E0,3.3498437E0,0E0,9.266677E-1,4.507407E0,2.5788877E0,0E0,0E0,0E0,0E0,0E0,0E0],"parents":[2147483647,0,0,1,1,2,2,4,4,5,5,6,6],"right_children":[2,4,6,-1,8,10,12,-1,-1,-1,-1,-1,-1],"split_conditions":[5.8E0,2.57E-1,3.22E-1,9.958026E-2,7.049736E0,1.54E-1,5.97E1,-2.8788086E-2,-2.43638E-1,3.32493E-2,-2.578959E-1,2.0194887E-1,6.3735857E-3],"split_indices":[1,7,7,0,3,7,0,0,0,0,0,0,0],"split_type":[0,0,0,0,0,0,0,0,0,0,0,0,0],"sum_hessian":[2.9014935E2,1.078975E1,2.793596E2,1.0114436E0,9.778306E0,1.7791843E1,2.6156775E2,2.7068284E0,7.071478E0,8.780497E0,9.011348E0,5.2178755E0,2.5634988E2],"tree_param":{"num_deleted":"0","num_feature":"22","num_nodes":"13","size_leaf_vector":"1"}},{"base_weights":[2.2451213E-2,-1.7300988E-2,2.8925666E-1,-3.827695E-2,3.8002306E-1,5.2546656E-1,-4.146732E-3,-1.2246592E-4,-1.1750925E-1,2.4187273E-1,-3.6992278E-2,2.369777E-1,-4.9421962E-2,-2.4519706E-1,1.0176522E-1],"categories":[],"categories_nodes":[],"categories_segments":[],"categories_sizes":[],"default_left":[0,0,0,0,0,0,0,0,0,0,0,0,0,0,0],"id":44,"left_children":[1,3,5,7,9,11,13,-1,-1,-1,-1,-1,-1,-1,-1],"loss_changes":[3.0035818E0,2.073141E0,2.546897E0,3.1520283E0,2.776249E0,3.844521E0,5.1267996E0,0E0,0E0,0E0,0E0,0E0,0E0,0E0,0E0],"parents":[2147483647,0,0,1,1,2,2,3,3,4,4,5,5,6,6],"right_children":[2,4,6,8,10,12,14,-1,-1,-1,-1,-1,-1,-1,-1],"split_conditions":[9.914286E0,7.7E1,1.09E1,9.9E0,9.626762E0,4.590032E1,1.14E1,-1.2246592E-4,-1.1750925E-1,2.4187273E-1,-3.6992278E-2,2.369777E-1,-4.9421962E-2,-2.4519706E-1,1.0176522E-1],"split_indices":[6,0,4,1,3,2,4,0,0,0,0,0,0,0,0],"split_type":[0,0,0,0,0,0,0,0,0,0,0,0,0,0,0],"sum_hessian":[2.817219E2,2.460041E2,3.571779E1,2.345264E2,1.1477709E1,1.934932E1,1.6368467E1,2.1273334E2,2.1793053E1,5.8890553E0,5.588654E0,1.3884764E1,5.4645557E0,4.449808E0,1.1918659E1],"tree_param":{"num_deleted":"0","num_feature":"22","num_nodes":"15","size_leaf_vector":"1"}},{"base_weights":[-4.3833945E-3,-2.3469597E-2,6.6313136E-1,4.6751676E-3,-7.614891E-1,1.0183938E0,-1.2702592E-1,-3.368436E-2,3.9395645E-2,1.6439749E-2,-3.1740975E-1,-3.9310787E-2,3.928174E-1,1.5035917E-1,-2.3736376E-1],"categories":[],"categories_nodes":[],"categories_segments":[],"categories_sizes":[],"default_left":[0,0,0,0,0,0,0,0,0,0,0,0,0,0,0],"id":45,"left_children":[1,3,5,7,9,11,13,-1,-1,-1,-1,-1,-1,-1,-1],"loss_changes":[3.596083E0,5.6989045E0,2.3319826E0,3.941547E0,2.4976158E0,2.019166E0,1.783004E0,0E0,0E0,0E0,0E0,0E0,0E0,0E0,0E0],"parents":[2147483647,0,0,1,1,2,2,3,3,4,4,5,5,6,6],"right_children":[2,4,6,8,10,12,14,-1,-1,-1,-1,-1,-1,-1,-1],"split_conditions":[1.13E1,4.75E1,1.2E1,7.526501E0,6.4309916E0,4E0,1.15E1,-3.368436E-2,3.9395645E-2,1.6439749E-2,-3.1740975E-1,-3.9310787E-2,3.928174E-1,1.5035917E-1,-2.3736376E-1],"split_indices":[1,2,1,4,4,8,5,0,0,0,0,0,0,0,0],"split_type":[0,0,0,0,0,0,0,0,0,0,0,0,0,0,0],"sum_hessian":[2.800384E2,2.7319186E2,6.8465157E0,2.6411343E2,9.078441E0,4.523746E0,2.3227699E0,1.3736719E2,1.2674624E2,2.6364236E0,6.4420166E0,1.0249461E0,3.4987998E0,1.3198152E0,1.0029547E0],"tree_param":{"num_deleted":"0","num_feature":"22","num_nodes":"15","size_leaf_vector":"1"}},{"base_weights":[6.821224E-3,-4.696649E-2,1.8891138E-1,-8.0839254E-2,4.5095086E-1,-8.737648E-2,3.816477E-1,1.5207523E-2,-8.103175E-2,1.8589647E-1,-1.5105736E-1,2.7761439E-2,-2.3585455E-1,1.8223482E-1,-3.0698126E-2],"categories":[],"categories_nodes":[],"categories_segments":[],"categories_sizes":[],"default_left":[0,0,0,0,0,0,0,0,0,0,0,0,0,0,0],"id":46,"left_children":[1,3,5,7,9,11,13,-1,-1,-1,-1,-1,-1,-1,-1],"loss_changes":[2.7213447E0,3.6557722E0,3.406874E0,5.0367346E0,2.5374858E0,3.4480832E0,4.16078E0,0E0,0E0,0E0,0E0,0E0,0E0,0E0,0E0],"parents":[2147483647,0,0,1,1,2,2,3,3,4,4,5,5,6,6],"right_children":[2,4,6,8,10,12,14,-1,-1,-1,-1,-1,-1,-1,-1],"split_conditions":[2.00001E0,1.34E1,8.1E0,7.6047554E0,6E0,7E0,7.4E1,1.5207523E-2,-8.103175E-2,1.8589647E-1,-1.5105736E-1,2.7761439E-2,-2.3585455E-1,1.8223482E-1,-3.0698126E-2],"split_indices":[14,5,1,6,8,9,0,0,0,0,0,0,0,0,0],"split_type":[0,0,0,0,0,0,0,0,0,0,0,0,0,0,0],"sum_hessian":[2.759464E2,2.1359464E2,6.2351772E1,2.0077385E2,1.2820776E1,2.5846878E1,3.650489E1,1.1888605E2,8.188781E1,1.1193168E1,1.6276082E0,2.124477E1,4.602108E0,2.4717602E1,1.178729E1],"tree_param":{"num_deleted":"0","num_feature":"22","num_nodes":"15","size_leaf_vector":"1"}},{"base_weights":[3.521364E-2,-6.376842E-2,1.9642891E-1,1.4909862E-2,-4.4748875E-1,2.352121E-1,-3.748317E-1,6.747159E-2,-2.757064E-2,-2.8289446E-1,-3.815358E-2,1.2460749E-1,4.4159785E-2,-4.0690053E-1,2.0157214E-2],"categories":[],"categories_nodes":[],"categories_segments":[],"categories_sizes":[],"default_left":[0,0,0,1,1,0,0,0,0,0,0,0,0,0,0],"id":47,"left_children":[1,3,5,7,9,11,13,-1,-1,-1,-1,-1,-1,-1,-1],"loss_changes":[4.4831333E0,5.2700143E0,2.4548087E0,3.2874165E0,4.5932097E0,1.5345879E0,3.204687E0,0E0,0E0,0E0,0E0,0E0,0E0,0E0,0E0],"parents":[2147483647,0,0,1,1,2,2,3,3,4,4,5,5,6,6],"right_children":[2,4,6,8,10,12,14,-1,-1,-1,-1,-1,-1,-1,-1],"split_conditions":[5E0,-1.4819496E-18,1.34E1,1.464E0,9.12E-1,7.465625E-1,1.21E1,6.747159E-2,-2.757064E-2,-2.8289446E-1,-3.815358E-2,1.2460749E-1,4.4159785E-2,-4.0690053E-1,2.0157214E-2],"split_indices":[8,18,5,7,7,7,3,0,0,0,0,0,0,0,0],"split_type":[0,0,0,0,0,0,0,0,0,0,0,0,0,0,0],"sum_hessian":[2.7915857E2,1.7333794E2,1.0582062E2,1.4464166E2,2.869628E1,9.964399E1,6.1766267E0,4.8393337E1,9.624832E1,1.050381E1,1.819247E1,3.1483574E1,6.8160416E1,1.2756318E0,4.900995E0],"tree_param":{"num_deleted":"0","num_feature":"22","num_nodes":"15","size_leaf_vector":"1"}},{"base_weights":[-3.608614E-2,6.3114963E-3,-2.000605E-1,4.2013206E-2,-2.8001475E-1,-2.9031643E-1,4.7891766E-1,-5.92672E-3,8.3647035E-2,-1.22843854E-1,2.4632803E-1,8.113056E-2,-1.21760026E-1,-2.5932255E-1,2.6643124E-1],"categories":[],"categories_nodes":[],"categories_segments":[],"categories_sizes":[],"default_left":[0,0,0,0,0,0,0,0,0,0,0,0,0,0,0],"id":48,"left_children":[1,3,5,7,9,11,13,-1,-1,-1,-1,-1,-1,-1,-1],"loss_changes":[2.002759E0,2.360041E0,3.7655087E0,3.0059295E0,3.9853983E0,3.5345774E0,4.7917E0,0E0,0E0,0E0,0E0,0E0,0E0,0E0,0E0],"parents":[2147483647,0,0,1,1,2,2,3,3,4,4,5,5,6,6],"right_children":[2,4,6,8,10,12,14,-1,-1,-1,-1,-1,-1,-1,-1],"split_conditions":[9.6E0,9.9E0,1.11E1,1.1203076E1,7E1,6.52E-1,7.0759445E1,-5.92672E-3,8.3647035E-2,-1.22843854E-1,2.4632803E-1,8.113056E-2,-1.21760026E-1,-2.5932255E-1,2.6643124E-1],"split_indices":[1,4,4,3,0,7,0,0,0,0,0,0,0,0,0],"split_type":[0,0,0,0,0,0,0,0,0,0,0,0,0,0,0],"sum_hessian":[2.8689706E2,2.2872012E2,5.8176952E1,2.0412167E2,2.4598442E1,5.185618E1,6.320772E0,1.6262071E2,4.150097E1,2.2572556E1,2.0258873E0,8.630926E0,4.3225254E1,1.2160554E0,5.104717E0],"tree_param":{"num_deleted":"0","num_feature":"22","num_nodes":"15","size_leaf_vector":"1"}},{"base_weights":[4.7039855E-2,1.0215154E-2,3.9026096E-1,-4.1377224E-2,2.0862627E-1,7.402339E-1,3.1353172E-2,-1.2771833E-1,1.610714E-2,1.1041201E-1,-2.0099933E-1,9.4691284E-2,3.957592E-1,-5.1976215E-2,2.4146053E-1],"categories":[],"categories_nodes":[],"categories_segments":[],"categories_sizes":[],"default_left":[0,0,0,0,0,0,0,0,0,0,0,0,0,0,0],"id":49,"left_children":[1,3,5,7,9,11,13,-1,-1,-1,-1,-1,-1,-1,-1],"loss_changes":[3.5263994E0,2.6013958E0,3.3730292E0,7.398347E0,7.590923E0,2.9379926E0,2.4173841E0,0E0,0E0,0E0,0E0,0E0,0E0,0E0,0E0],"parents":[2147483647,0,0,1,1,2,2,3,3,4,4,5,5,6,6],"right_children":[2,4,6,8,10,12,14,-1,-1,-1,-1,-1,-1,-1,-1],"split_conditions":[4.66E1,-1.4819496E-18,1.015E1,7.96E-1,2.281E0,9.85E0,7.88E1,-1.2771833E-1,1.610714E-2,1.1041201E-1,-2.0099933E-1,9.4691284E-2,3.957592E-1,-5.1976215E-2,2.4146053E-1],"split_indices":[2,18,1,7,7,1,0,0,0,0,0,0,0,0,0],"split_type":[0,0,0,0,0,0,0,0,0,0,0,0,0,0,0],"sum_hessian":[2.7832446E2,2.5228609E2,2.6038385E1,2.0085078E2,5.1435303E1,1.2645362E1,1.3393023E1,3.9138603E1,1.6171217E2,4.4028145E1,7.4071584E0,8.186661E0,4.4587016E0,1.1205109E1,2.187914E0],"tree_param":{"num_deleted":"0","num_feature":"22","num_nodes":"15","size_leaf_vector":"1"}},{"base_weights":[3.4906138E-2,8.963982E-2,-1.7472075E-1,6.9573015E-1,7.377563E-2,-2.8995606E-1,6.1590326E-1,3.73013E-1,-5.8762077E-3,-3.559886E-2,3.9311163E-2,-4.5947794E-2,-2.7761105E-1,-9.992899E-2,2.661535E-1],"categories":[],"categories_nodes":[],"categories_segments":[],"categories_sizes":[],"default_left":[0,0,0,0,0,0,0,0,0,0,0,0,0,0,0],"id":50,"left_children":[1,3,5,7,9,11,13,-1,-1,-1,-1,-1,-1,-1,-1],"loss_changes":[3.2122903E0,2.0792308E0,5.464857E0,2.191984E0,2.4073014E0,4.3192263E0,2.2781E0,0E0,0E0,0E0,0E0,0E0,0E0,0E0,0E0],"parents":[2147483647,0,0,1,1,2,2,3,3,4,4,5,5,6,6],"right_children":[2,4,6,8,10,12,14,-1,-1,-1,-1,-1,-1,-1,-1],"split_conditions":[6E0,1.54E-1,7.46E1,1.05E1,9.12E-1,9.35E0,4.16E-1,3.73013E-1,-5.8762077E-3,-3.559886E-2,3.9311163E-2,-4.5947794E-2,-2.7761105E-1,-9.992899E-2,2.661535E-1],"split_indices":[8,7,0,5,7,1,7,0,0,0,0,0,0,0,0],"split_type":[0,0,0,0,0,0,0,0,0,0,0,0,0,0,0],"sum_hessian":[2.7760602E2,2.2058386E2,5.7022163E1,4.533321E0,2.1605054E2,5.0321014E1,6.7011495E0,2.149471E0,2.3838496E0,4.9299126E1,1.6675142E2,4.242786E1,7.893153E0,1.4390476E0,5.262102E0],"tree_param":{"num_deleted":"0","num_feature":"22","num_nodes":"15","size_leaf_vector":"1"}},{"base_weights":[-2.3811312E-2,3.1878164E-1,-5.7342347E-2,4.9000108E-1,-5.0477177E-1,-9.351319E-2,2.7075502E-1,4.3770645E-2,2.7943993E-1,1.5136501E-1,-3.2363433E-1,1.15122184E-1,-3.5521142E-2,1.1900858E-1,-1.9272734E-1],"categories":[],"categories_nodes":[],"categories_segments":[],"categories_sizes":[],"default_left":[0,0,0,0,0,0,0,0,0,0,0,0,0,0,0],"id":51,"left_children":[1,3,5,7,9,11,13,-1,-1,-1,-1,-1,-1,-1,-1],"loss_changes":[3.2409658E0,3.7954133E0,3.0678818E0,3.1056104E0,3.338822E0,2.7973838E0,3.2121356E0,0E0,0E0,0E0,0E0,0E0,0E0,0E0,0E0],"parents":[2147483647,0,0,1,1,2,2,3,3,4,4,5,5,6,6],"right_children":[2,4,6,8,10,12,14,-1,-1,-1,-1,-1,-1,-1,-1],"split_conditions":[2.00001E0,7.37E1,7.5E1,7.9E0,7.204561E0,6.8E0,3.752E0,4.3770645E-2,2.7943993E-1,1.5136501E-1,-3.2363433E-1,1.15122184E-1,-3.5521142E-2,1.1900858E-1,-1.9272734E-1],"split_indices":[17,0,0,6,4,5,7,0,0,0,0,0,0,0,0],"split_type":[0,0,0,0,0,0,0,0,0,0,0,0,0,0,0],"sum_hessian":[2.795386E2,2.4162159E1,2.5537643E2,2.0338694E1,3.8234649E0,2.3066225E2,2.4714201E1,1.2177483E1,8.161211E0,1.43E0,2.393465E0,1.0718975E1,2.1994327E2,2.2215906E1,2.4982963E0],"tree_param":{"num_deleted":"0","num_feature":"22","num_nodes":"15","size_leaf_vector":"1"}},{"base_weights":[-6.691529E-2,-4.330137E-2,-4.5841682E-1,-1.1475885E-1,1.077066E-1,1.8334472E-1,-6.4730746E-1,-9.297533E-3,-9.1089904E-2,1.6995637E-1,1.4354249E-3,-2.4134389E-1,1.3429497E-1],"categories":[],"categories_nodes":[],"categories_segments":[],"categories_sizes":[],"default_left":[0,0,0,0,0,0,0,0,0,0,0,0,0],"id":52,"left_children":[1,3,5,7,9,-1,11,-1,-1,-1,-1,-1,-1],"loss_changes":[2.6207929E0,2.9311106E0,3.657184E0,2.9031594E0,4.1244397E0,0E0,2.805008E0,0E0,0E0,0E0,0E0,0E0,0E0],"parents":[2147483647,0,0,1,1,2,2,3,3,4,4,6,6],"right_children":[2,4,6,8,10,-1,12,-1,-1,-1,-1,-1,-1],"split_conditions":[7.66E1,8.85E0,5.9E0,7E0,9.15E0,1.8334472E-1,4.82E1,-9.297533E-3,-9.1089904E-2,1.6995637E-1,1.4354249E-3,-2.4134389E-1,1.3429497E-1],"split_indices":[0,1,6,9,1,0,2,0,0,0,0,0,0],"split_type":[0,0,0,0,0,0,0,0,0,0,0,0,0],"sum_hessian":[2.8463284E2,2.6948886E2,1.5143967E1,1.8309007E2,8.6398796E1,1.9375285E0,1.3206438E1,1.2764338E2,5.544669E1,1.5004766E1,7.139403E1,1.1780702E1,1.4257363E0],"tree_param":{"num_deleted":"0","num_feature":"22","num_nodes":"13","size_leaf_vector":"1"}},{"base_weights":[-7.868462E-3,-1.9117216E-2,6.1657524E-1,5.4229153E-3,-3.3190292E-1,-8.7505795E-2,9.400031E-1,-3.215765E-2,2.5548685E-2,-1.6393906E-1,2.2714044E-1,3.4255216E-1,5.9452716E-2],"categories":[],"categories_nodes":[],"categories_segments":[],"categories_sizes":[],"default_left":[0,0,0,0,0,0,0,0,0,0,0,0,0],"id":53,"left_children":[1,3,5,7,9,-1,11,-1,-1,-1,-1,-1,-1],"loss_changes":[1.9683293E0,2.109449E0,1.7309148E0,2.3043058E0,5.0851145E0,0E0,3.566997E-1,0E0,0E0,0E0,0E0,0E0,0E0],"parents":[2147483647,0,0,1,1,2,2,3,3,4,4,6,6],"right_children":[2,4,6,8,10,-1,12,-1,-1,-1,-1,-1,-1],"split_conditions":[1.23E1,1.059E1,2.00001E0,6.73E1,7.88E1,-8.7505795E-2,5E0,-3.215765E-2,2.5548685E-2,-1.6393906E-1,2.2714044E-1,3.4255216E-1,5.9452716E-2],"split_indices":[4,1,11,0,0,0,8,0,0,0,0,0,0],"split_type":[0,0,0,0,0,0,0,0,0,0,0,0,0],"sum_hessian":[2.775425E2,2.7358356E2,3.95896E0,2.545918E2,1.8991768E1,1.0653499E0,2.8936102E0,1.0539677E2,1.4919504E2,1.6282106E1,2.7096622E0,1.8508121E0,1.0427982E0],"tree_param":{"num_deleted":"0","num_feature":"22","num_nodes":"13","size_leaf_vector":"1"}},{"base_weights":[-2.8424261E-2,-9.421168E-2,1.2169664E-1,1.32898325E-2,-2.3802085E-1,5.44111E-1,-7.2956085E-2,-1.1974361E-2,2.9235253E-1,-1.0173028E-1,1.4273883E-1,1.955691E-1,-2.310691E-1,3.0962465E-2,-8.996996E-2],"categories":[],"categories_nodes":[],"categories_segments":[],"categories_sizes":[],"default_left":[0,0,0,0,0,0,0,0,0,0,0,0,0,0,0],"id":54,"left_children":[1,3,5,7,9,11,13,-1,-1,-1,-1,-1,-1,-1,-1],"loss_changes":[2.8001702E0,3.0471058E0,7.150001E0,5.8494277E0,6.24219E0,4.3833075E0,2.4328408E0,0E0,0E0,0E0,0E0,0E0,0E0,0E0,0E0],"parents":[2147483647,0,0,1,1,2,2,3,3,4,4,5,5,6,6],"right_children":[2,4,6,8,10,12,14,-1,-1,-1,-1,-1,-1,-1,-1],"split_conditions":[1.0958832E1,8E0,1.14E1,4.590032E1,3.34E0,1.34E1,9.136614E0,-1.1974361E-2,2.9235253E-1,-1.0173028E-1,1.4273883E-1,1.955691E-1,-2.310691E-1,3.0962465E-2,-8.996996E-2],"split_indices":[5,9,3,2,7,5,6,0,0,0,0,0,0,0,0],"split_type":[0,0,0,0,0,0,0,0,0,0,0,0,0,0,0],"sum_hessian":[2.8137E2,1.958953E2,8.5474686E1,1.1261781E2,8.327749E1,2.6396517E1,5.907817E1,1.07619446E2,4.9983644E0,7.3407555E1,9.869934E0,2.4861683E1,1.5348338E0,3.3567078E1,2.5511097E1],"tree_param":{"num_deleted":"0","num_feature":"22","num_nodes":"15","size_leaf_vector":"1"}},{"base_weights":[1.04230545E-1,2.0577212E-1,2.7180316E-2,1.3871947E-1,1.137718E0,-6.672018E-2,2.890416E-1,9.869961E-2,-3.339362E-2,4.315882E-1,-1.2289593E-1,-1.3638629E-2,-3.0991742E-1,1.4348887E-1,-1.6956741E-2],"categories":[],"categories_nodes":[],"categories_segments":[],"categories_sizes":[],"default_left":[1,0,0,0,0,0,0,0,0,0,0,0,0,0,0],"id":55,"left_children":[1,3,5,7,9,11,13,-1,-1,-1,-1,-1,-1,-1,-1],"loss_changes":[2.1712193E0,7.333718E0,3.937393E0,5.411598E0,4.2713556E0,2.3790889E0,2.789858E0,0E0,0E0,0E0,0E0,0E0,0E0,0E0,0E0],"parents":[2147483647,0,0,1,1,2,2,3,3,4,4,5,5,6,6],"right_children":[2,4,6,8,10,12,14,-1,-1,-1,-1,-1,-1,-1,-1],"split_conditions":[1.329E0,1.248E0,7.25E1,8E0,4.5732014E1,7.23E1,4.65E1,9.869961E-2,-3.339362E-2,4.315882E-1,-1.2289593E-1,-1.3638629E-2,-3.0991742E-1,1.4348887E-1,-1.6956741E-2],"split_indices":[7,7,0,9,2,0,2,0,0,0,0,0,0,0,0],"split_type":[0,0,0,0,0,0,0,0,0,0,0,0,0,0,0],"sum_hessian":[2.7722946E2,1.1888492E2,1.5834454E2,1.1197712E2,6.9078016E0,1.1709927E2,4.124527E1,6.340714E1,4.856998E1,5.842012E0,1.0657896E0,1.1560321E2,1.4960637E0,2.6401752E1,1.4843516E1],"tree_param":{"num_deleted":"0","num_feature":"22","num_nodes":"15","size_leaf_vector":"1"}},{"base_weights":[-4.432246E-2,-8.699831E-2,2.1580505E-1,-1.0214721E-1,5.3098E-1,3.7700895E-2,9.0982664E-1,-2.6764069E-2,-4.446996E-1,-8.58664E-2,2.3634037E-1,-5.320588E-2,1.1926942E-1,6.0916916E-2,2.9501447E-1],"categories":[],"categories_nodes":[],"categories_segments":[],"categories_sizes":[],"default_left":[0,1,0,0,0,0,0,0,0,0,0,0,0,0,0],"id":56,"left_children":[1,3,5,7,9,11,13,-1,-1,-1,-1,-1,-1,-1,-1],"loss_changes":[3.0834107E0,2.2811003E0,4.81048E0,4.0273E0,1.4538536E0,2.5650737E0,2.1418428E-1,0E0,0E0,0E0,0E0,0E0,0E0,0E0,0E0],"parents":[2147483647,0,0,1,1,2,2,3,3,4,4,5,5,6,6],"right_children":[2,4,6,8,10,12,14,-1,-1,-1,-1,-1,-1,-1,-1],"split_conditions":[9.5E0,5.063E0,2.84E0,4.917E0,6.0296655E0,7E1,6.29E1,-2.6764069E-2,-4.446996E-1,-8.58664E-2,2.3634037E-1,-5.320588E-2,1.1926942E-1,6.0916916E-2,2.9501447E-1],"split_indices":[4,7,7,7,4,0,0,0,0,0,0,0,0,0,0],"split_type":[0,0,0,0,0,0,0,0,0,0,0,0,0,0,0],"sum_hessian":[2.7506442E2,2.3686974E2,3.8194687E1,2.3201688E2,4.8528686E0,3.1233637E1,6.961049E0,2.3091759E2,1.09928E0,1.1330483E0,3.7198203E0,1.9867832E1,1.1365806E1,1.0106432E0,5.9504056E0],"tree_param":{"num_deleted":"0","num_feature":"22","num_nodes":"15","size_leaf_vector":"1"}},{"base_weights":[-1.2949115E-2,-3.3829215E-1,1.821118E-2,-7.126852E-1,2.3912975E-1,6.420864E-1,-1.6643412E-2,1.1470167E-2,-2.6492923E-1,2.728719E-1,-5.1326826E-2,-1.0029578E-1,2.7272353E-1,-1.399975E-1,4.184599E-3],"categories":[],"categories_nodes":[],"categories_segments":[],"categories_sizes":[],"default_left":[0,0,0,0,0,0,0,0,0,0,0,0,0,0,0],"id":57,"left_children":[1,3,5,7,9,11,13,-1,-1,-1,-1,-1,-1,-1,-1],"loss_changes":[2.7834847E0,5.3580427E0,5.467818E0,1.9287786E0,2.957523E0,3.7721968E0,3.2920759E0,0E0,0E0,0E0,0E0,0E0,0E0,0E0,0E0],"parents":[2147483647,0,0,1,1,2,2,3,3,4,4,5,5,6,6],"right_children":[2,4,6,8,10,12,14,-1,-1,-1,-1,-1,-1,-1,-1],"split_conditions":[6.07E1,1.576E0,6.22E1,8.1E0,5.81E1,6.4309916E0,6.32E1,1.1470167E-2,-2.6492923E-1,2.728719E-1,-5.1326826E-2,-1.0029578E-1,2.7272353E-1,-1.399975E-1,4.184599E-3],"split_indices":[0,7,0,3,0,4,0,0,0,0,0,0,0,0,0],"split_type":[0,0,0,0,0,0,0,0,0,0,0,0,0,0,0],"sum_hessian":[2.7295767E2,2.2996447E1,2.4996124E2,1.38087635E1,9.187682E0,1.2304082E1,2.3765715E2,2.6975744E0,1.111119E1,3.0255601E0,6.162122E0,2.58788E0,9.716202E0,1.4220267E1,2.2343689E2],"tree_param":{"num_deleted":"0","num_feature":"22","num_nodes":"15","size_leaf_vector":"1"}},{"base_weights":[2.0845544E-2,5.6770064E-2,-1.4437638E-1,3.5410054E-2,4.8326552E-1,3.319345E-1,-2.7343932E-1,5.02569E-3,2.4694842E-1,-1.4926544E-1,2.435855E-1,1.5296601E-1,-1.7413461E-1,-4.474172E-2,-3.0661485E-1],"categories":[],"categories_nodes":[],"categories_segments":[],"categories_sizes":[],"default_left":[0,0,0,0,0,0,0,0,0,0,0,0,0,0,0],"id":58,"left_children":[1,3,5,7,9,11,13,-1,-1,-1,-1,-1,-1,-1,-1],"loss_changes":[1.6817439E0,2.0992718E0,3.203751E0,3.253719E0,3.9504993E0,2.1221454E0,3.606083E0,0E0,0E0,0E0,0E0,0E0,0E0,0E0,0E0],"parents":[2147483647,0,0,1,1,2,2,3,3,4,4,5,5,6,6],"right_children":[2,4,6,8,10,12,14,-1,-1,-1,-1,-1,-1,-1,-1],"split_conditions":[9.7E0,9.5E0,2.00001E0,4.676658E1,8.238661E0,7.77E1,1.1E1,5.02569E-3,2.4694842E-1,-1.4926544E-1,2.435855E-1,1.5296601E-1,-1.7413461E-1,-4.474172E-2,-3.0661485E-1],"split_indices":[1,1,16,2,5,0,6,0,0,0,0,0,0,0,0],"split_type":[0,0,0,0,0,0,0,0,0,0,0,0,0,0,0],"sum_hessian":[2.8095477E2,2.3131573E2,4.9639023E1,2.2131474E2,1.0000997E1,1.0247695E1,3.9391327E1,2.1719185E2,4.1228857E0,2.381303E0,7.6196938E0,8.944331E0,1.3033633E0,3.481056E1,4.580771E0],"tree_param":{"num_deleted":"0","num_feature":"22","num_nodes":"15","size_leaf_vector":"1"}},{"base_weights":[4.385046E-2,1.7250087E-2,5.4767936E-1,8.987763E-2,-1.4386022E-1,-9.686795E-2,7.5606215E-1,1.8915918E-2,3.4088528E-1,-3.587955E-1,-2.2771906E-2,1.5032929E-1,-1.4756013E-1,2.8358647E-1,6.5864515E-3],"categories":[],"categories_nodes":[],"categories_segments":[],"categories_sizes":[],"default_left":[0,0,0,0,0,0,0,0,0,0,0,0,0,0,0],"id":59,"left_children":[1,3,5,7,9,11,13,-1,-1,-1,-1,-1,-1,-1,-1],"loss_changes":[3.7365556E0,3.1315558E0,1.9515395E0,5.102264E0,5.857673E0,1.2628367E0,1.463038E0,0E0,0E0,0E0,0E0,0E0,0E0,0E0,0E0],"parents":[2147483647,0,0,1,1,2,2,3,3,4,4,5,5,6,6],"right_children":[2,4,6,8,10,12,14,-1,-1,-1,-1,-1,-1,-1,-1],"split_conditions":[7.7E1,2.281E0,8.238661E0,2.221E0,2.339E0,6.8223066E0,1.15E1,1.8915918E-2,3.4088528E-1,-3.587955E-1,-2.2771906E-2,1.5032929E-1,-1.4756013E-1,2.8358647E-1,6.5864515E-3],"split_indices":[0,7,5,7,7,3,5,0,0,0,0,0,0,0,0],"split_type":[0,0,0,0,0,0,0,0,0,0,0,0,0,0,0],"sum_hessian":[2.7850998E2,2.6552542E2,1.2984557E1,1.8332553E2,8.219989E1,3.3030524E0,9.681505E0,1.797772E2,3.548322E0,3.979872E0,7.822002E1,1.2070967E0,2.0959558E0,7.468681E0,2.2128239E0],"tree_param":{"num_deleted":"0","num_feature":"22","num_nodes":"15","size_leaf_vector":"1"}},{"base_weights":[-3.313161E-3,-2.178694E-2,6.0346687E-1,9.833839E-2,-1.1804745E-1,-8.45315E-2,2.7216962E-1,-2.7077394E-2,6.317435E-2,2.974101E-1,-4.2391505E-2],"categories":[],"categories_nodes":[],"categories_segments":[],"categories_sizes":[],"default_left":[0,0,0,0,0,0,0,0,0,0,0],"id":60,"left_children":[1,3,5,7,9,-1,-1,-1,-1,-1,-1],"loss_changes":[2.9990919E0,3.0119507E0,2.3813744E0,2.4739804E0,3.868463E0,0E0,0E0,0E0,0E0,0E0,0E0],"parents":[2147483647,0,0,1,1,2,2,3,3,4,4],"right_children":[2,4,6,8,10,-1,-1,-1,-1,-1,-1],"split_conditions":[4.773E0,8.030669E0,6.7E0,6.7E0,6.3897185E0,-8.45315E-2,2.7216962E-1,-2.7077394E-2,6.317435E-2,2.974101E-1,-4.2391505E-2],"split_indices":[7,1,6,1,5,0,0,0,0,0,0],"split_type":[0,0,0,0,0,0,0,0,0,0,0],"sum_hessian":[2.653757E2,2.5847052E2,6.905194E0,1.1497253E2,1.4349799E2,1.7826273E0,5.1225667E0,4.296921E1,7.200331E1,2.0917838E0,1.414062E2],"tree_param":{"num_deleted":"0","num_feature":"22","num_nodes":"11","size_leaf_vector":"1"}},{"base_weights":[5.0419267E-2,-6.524008E-3,2.720768E-1,1.0011965E-2,-6.253562E-1,1.51945E-1,7.178685E-1,6.661918E-3,-2.4892654E-1,2.6669312E-2,-3.1741464E-1,7.03838E-2,-1.250104E-1,-1.1563089E-1,2.6402357E-1],"categories":[],"categories_nodes":[],"categories_segments":[],"categories_sizes":[],"default_left":[0,0,0,0,0,0,0,0,0,0,0,0,0,0,0],"id":61,"left_children":[1,3,5,7,9,11,13,-1,-1,-1,-1,-1,-1,-1,-1],"loss_changes":[3.4971585E0,2.270871E0,2.9234152E0,2.2357898E0,1.878957E0,2.2542171E0,2.4423742E0,0E0,0E0,0E0,0E0,0E0,0E0,0E0,0E0],"parents":[2147483647,0,0,1,1,2,2,3,3,4,4,5,5,6,6],"right_children":[2,4,6,8,10,12,14,-1,-1,-1,-1,-1,-1,-1,-1],"split_conditions":[9.031368E0,9.9E0,1E1,5.811E0,1.0059298E1,7E0,2.00001E0,6.661918E-3,-2.4892654E-1,2.6669312E-2,-3.1741464E-1,7.03838E-2,-1.250104E-1,-1.1563089E-1,2.6402357E-1],"split_indices":[6,4,9,7,5,8,13,0,0,0,0,0,0,0,0],"split_type":[0,0,0,0,0,0,0,0,0,0,0,0,0,0,0],"sum_hessian":[2.7592996E2,2.2030476E2,5.562519E1,2.1552937E2,4.7753944E0,4.487353E1,1.0751659E1,2.1340405E2,2.1253266E0,2.1012943E0,2.6741E0,3.9690845E1,5.1826878E0,1.201725E0,9.549934E0],"tree_param":{"num_deleted":"0","num_feature":"22","num_nodes":"15","size_leaf_vector":"1"}},{"base_weights":[5.0859074E-3,1.6665033E-1,-3.6778137E-2,9.343022E-2,6.841613E-1,-5.281078E-1,-1.2203937E-3,4.7644086E-2,-2.885419E-1,3.0261856E-1,-1.0132439E-1,-3.2595795E-2,-2.8546083E-1,-5.4321546E-2,1.731019E-2],"categories":[],"categories_nodes":[],"categories_segments":[],"categories_sizes":[],"default_left":[0,0,1,0,0,0,0,0,0,0,0,0,0,0,0],"id":62,"left_children":[1,3,5,7,9,11,13,-1,-1,-1,-1,-1,-1,-1,-1],"loss_changes":[1.8656368E0,2.0867596E0,3.8282962E0,3.6632793E0,2.6216083E0,2.52316E0,2.1868317E0,0E0,0E0,0E0,0E0,0E0,0E0,0E0,0E0],"parents":[2147483647,0,0,1,1,2,2,3,3,4,4,5,5,6,6],"right_children":[2,4,6,8,10,12,14,-1,-1,-1,-1,-1,-1,-1,-1],"split_conditions":[6.91E-1,1.302258E1,8.23E-1,1.27E1,6E0,1.00018835E1,7.3E0,4.7644086E-2,-2.885419E-1,3.0261856E-1,-1.0132439E-1,-3.2595795E-2,-2.8546083E-1,-5.4321546E-2,1.731019E-2],"split_indices":[7,3,7,3,8,3,1,0,0,0,0,0,0,0,0],"split_type":[0,0,0,0,0,0,0,0,0,0,0,0,0,0,0],"sum_hessian":[2.73923E2,5.5757874E1,2.1816515E2,4.9880993E1,5.876881E0,1.3788353E1,2.0437679E2,4.7770584E1,2.1104083E0,4.470052E0,1.4068294E0,7.5579357E0,6.2304173E0,4.9921753E1,1.5445503E2],"tree_param":{"num_deleted":"0","num_feature":"22","num_nodes":"15","size_leaf_vector":"1"}},{"base_weights":[1.4689264E-2,-3.2367697E-1,5.1069293E-2,-3.107275E-2,-1.0701537E0,1.2546614E-2,3.3364308E-1,-9.514424E-2,1.4024381E-1,-4.1999632E-1,-8.515356E-2,1.08910955E-1,-7.355208E-3,-6.0899816E-2,1.782778E-1],"categories":[],"categories_nodes":[],"categories_segments":[],"categories_sizes":[],"default_left":[0,0,0,0,0,0,0,0,0,0,0,0,0,0,0],"id":63,"left_children":[1,3,5,7,9,11,13,-1,-1,-1,-1,-1,-1,-1,-1],"loss_changes":[3.290452E0,5.636016E0,2.61928E0,2.954569E0,1.4904776E0,2.7775853E0,4.1590157E0,0E0,0E0,0E0,0E0,0E0,0E0,0E0,0E0],"parents":[2147483647,0,0,1,1,2,2,3,3,4,4,5,5,6,6],"right_children":[2,4,6,8,10,12,14,-1,-1,-1,-1,-1,-1,-1,-1],"split_conditions":[7.2E0,6.9E0,7E0,7.23E1,3.1622776E-1,7.9E0,1.1952286E-1,-9.514424E-2,1.4024381E-1,-4.1999632E-1,-8.515356E-2,1.08910955E-1,-7.355208E-3,-6.0899816E-2,1.782778E-1],"split_indices":[5,5,8,0,20,5,21,0,0,0,0,0,0,0,0],"split_type":[0,0,0,0,0,0,0,0,0,0,0,0,0,0,0],"sum_hessian":[2.6496115E2,2.4955547E1,2.4000562E2,1.8676394E1,6.279154E0,2.1213069E2,2.7874924E1,1.2098186E1,6.578209E0,3.8737645E0,2.4053893E0,1.9446157E1,1.9268454E2,9.184315E0,1.8690609E1],"tree_param":{"num_deleted":"0","num_feature":"22","num_nodes":"15","size_leaf_vector":"1"}},{"base_weights":[-1.9021735E-2,7.2846934E-2,-1.6445546E-1,4.0033063E-1,1.4539598E-2,-2.772459E-1,6.2302705E-2,1.770834E-1,-6.1685238E-2,-9.581938E-2,2.0936446E-2,2.459749E-2,-1.1174832E-1,1.9351882E-1,-7.515064E-2],"categories":[],"categories_nodes":[],"categories_segments":[],"categories_sizes":[],"default_left":[0,0,0,0,0,0,0,0,0,0,0,0,0,0,0],"id":64,"left_children":[1,3,5,7,9,11,13,-1,-1,-1,-1,-1,-1,-1,-1],"loss_changes":[3.6680083E0,3.2096453E0,2.7345514E0,3.0463786E0,2.6787052E0,2.4645462E0,6.7437105E0,0E0,0E0,0E0,0E0,0E0,0E0,0E0,0E0],"parents":[2147483647,0,0,1,1,2,2,3,3,4,4,5,5,6,6],"right_children":[2,4,6,8,10,12,14,-1,-1,-1,-1,-1,-1,-1,-1],"split_conditions":[5E0,2.00001E0,4.49E1,-1.4819496E-18,6.32E1,6.24E1,7.19E1,1.770834E-1,-6.1685238E-2,-9.581938E-2,2.0936446E-2,2.459749E-2,-1.1174832E-1,1.9351882E-1,-7.515064E-2],"split_indices":[8,15,2,18,0,0,0,0,0,0,0,0,0,0,0],"split_type":[0,0,0,0,0,0,0,0,0,0,0,0,0,0,0],"sum_hessian":[2.7263834E2,1.6739569E2,1.0524266E2,2.4413147E1,1.4298254E2,7.013472E1,3.510794E1,1.8606428E1,5.8067203E0,1.9618969E1,1.2336357E2,1.472759E1,5.5407127E1,1.1891574E1,2.3216368E1],"tree_param":{"num_deleted":"0","num_feature":"22","num_nodes":"15","size_leaf_vector":"1"}},{"base_weights":[-4.0614475E-2,6.9065535E-1,-5.0195567E-2,2.846903E-1,1.3481227E-2,-6.19351E-3,-1.976939E-1,-1.8090108E-2,8.76534E-2,-1.1834744E-1,7.339144E-2],"categories":[],"categories_nodes":[],"categories_segments":[],"categories_sizes":[],"default_left":[0,0,0,0,0,0,0,0,0,0,0],"id":65,"left_children":[1,3,5,-1,-1,7,9,-1,-1,-1,-1],"loss_changes":[1.9047854E0,5.4442596E-1,1.7147751E0,0E0,0E0,3.3219233E0,5.3821435E0,0E0,0E0,0E0,0E0],"parents":[2147483647,0,0,1,1,2,2,5,5,6,6],"right_children":[2,4,6,-1,-1,8,10,-1,-1,-1,-1],"split_conditions":[6E0,5.536018E0,4.5648502E1,2.846903E-1,1.3481227E-2,7.21E1,8.508264E0,-1.8090108E-2,8.76534E-2,-1.1834744E-1,7.339144E-2],"split_indices":[5,4,2,0,0,0,4,0,0,0,0],"split_type":[0,0,0,0,0,0,0,0,0,0,0],"sum_hessian":[2.65917E2,2.5196714E0,2.633973E2,1.4642735E0,1.0553979E0,2.0367769E2,5.971963E1,1.7308777E2,3.0589928E1,4.1405914E1,1.8313717E1],"tree_param":{"num_deleted":"0","num_feature":"22","num_nodes":"11","size_leaf_vector":"1"}},{"base_weights":[-1.5589319E-2,1.3727668E-1,-9.807744E-2,6.948244E-2,5.686109E-1,4.0352877E-2,-2.642921E-1,4.8568014E-2,-8.355543E-2,-1.1417887E-1,2.6305538E-1,-5.4642133E-2,4.8970874E-2,-2.2241522E-1,-3.687122E-2],"categories":[],"categories_nodes":[],"categories_segments":[],"categories_sizes":[],"default_left":[0,0,0,0,0,0,0,0,0,0,0,0,0,0,0],"id":66,"left_children":[1,3,5,7,9,11,13,-1,-1,-1,-1,-1,-1,-1,-1],"loss_changes":[3.5140326E0,2.8178768E0,4.172919E0,2.7973325E0,4.1762247E0,2.7518954E0,5.46254E0,0E0,0E0,0E0,0E0,0E0,0E0,0E0,0E0],"parents":[2147483647,0,0,1,1,2,2,3,3,4,4,5,5,6,6],"right_children":[2,4,6,8,10,12,14,-1,-1,-1,-1,-1,-1,-1,-1],"split_conditions":[6.9E0,6.8E0,1.7868431E-17,1E1,7.05E0,4E0,8.935827E0,4.8568014E-2,-8.355543E-2,-1.1417887E-1,2.6305538E-1,-5.4642133E-2,4.8970874E-2,-2.2241522E-1,-3.687122E-2],"split_indices":[6,6,20,9,1,8,3,0,0,0,0,0,0,0,0],"split_type":[0,0,0,0,0,0,0,0,0,0,0,0,0,0,0],"sum_hessian":[2.7661078E2,9.671517E1,1.798956E2,8.458219E1,1.213298E1,9.85644E1,8.133121E1,6.7256996E1,1.7325191E1,2.9166372E0,9.216343E0,3.4897167E1,6.3667233E1,1.7622662E1,6.3708546E1],"tree_param":{"num_deleted":"0","num_feature":"22","num_nodes":"15","size_leaf_vector":"1"}},{"base_weights":[3.350918E-2,1.2783551E-1,-1.6794586E-1,-4.6178926E-2,3.752323E-1,7.688424E-2,-3.9020005E-1,1.9364394E-2,-8.953489E-2,1.4368655E-1,1.1186071E-2,1.073487E-1,-9.110345E-2,-3.4704494E-1,-7.799188E-2],"categories":[],"categories_nodes":[],"categories_segments":[],"categories_sizes":[],"default_left":[0,0,0,0,0,0,0,0,0,0,0,0,0,0,0],"id":67,"left_children":[1,3,5,7,9,11,13,-1,-1,-1,-1,-1,-1,-1,-1],"loss_changes":[5.1373043E0,7.935681E0,4.725297E0,3.0603592E0,2.6482744E0,4.587834E0,4.2311044E0,0E0,0E0,0E0,0E0,0E0,0E0,0E0,0E0],"parents":[2147483647,0,0,1,1,2,2,3,3,4,4,5,5,6,6],"right_children":[2,4,6,8,10,12,14,-1,-1,-1,-1,-1,-1,-1,-1],"split_conditions":[1.0811412E1,7.465557E0,2.00001E0,6.9600663E0,1E1,9.5E0,6.7E0,1.9364394E-2,-8.953489E-2,1.4368655E-1,1.1186071E-2,1.073487E-1,-9.110345E-2,-3.4704494E-1,-7.799188E-2],"split_indices":[3,6,10,4,9,6,6,0,0,0,0,0,0,0,0],"split_type":[0,0,0,0,0,0,0,0,0,0,0,0,0,0,0],"sum_hessian":[2.682188E2,1.8293124E2,8.528758E1,1.07870445E2,7.506079E1,4.0893887E1,4.4393696E1,7.548335E1,3.2387093E1,5.7114002E1,1.7946789E1,2.3560453E1,1.7333433E1,5.301564E0,3.9092133E1],"tree_param":{"num_deleted":"0","num_feature":"22","num_nodes":"15","size_leaf_vector":"1"}},{"base_weights":[-5.2071726E-3,2.4309462E-1,-6.832275E-2,3.5876954E-1,-1.088614E-1,-5.8366716E-1,-4.5554545E-2,-5.0685044E-2,1.4880578E-1,-1.7707059E-1,9.8945595E-2,1.1034274E-1,-2.4878407E-1,-2.1600975E-2,7.737212E-2],"categories":[],"categories_nodes":[],"categories_segments":[],"categories_sizes":[],"default_left":[0,0,0,0,0,0,0,0,0,0,0,0,0,0,0],"id":68,"left_children":[1,3,5,7,9,11,13,-1,-1,-1,-1,-1,-1,-1,-1],"loss_changes":[4.278751E0,2.2920394E0,2.5269084E0,3.1173515E0,3.2473395E0,2.4370935E0,1.7000664E0,0E0,0E0,0E0,0E0,0E0,0E0,0E0,0E0],"parents":[2147483647,0,0,1,1,2,2,3,3,4,4,5,5,6,6],"right_children":[2,4,6,8,10,12,14,-1,-1,-1,-1,-1,-1,-1,-1],"split_conditions":[4.18E1,2.00001E0,5.1E0,8.2E0,8.73E-1,1.1952286E-1,1.35E1,-5.0685044E-2,1.4880578E-1,-1.7707059E-1,9.8945595E-2,1.1034274E-1,-2.4878407E-1,-2.1600975E-2,7.737212E-2],"split_indices":[2,14,4,5,7,21,3,0,0,0,0,0,0,0,0],"split_type":[0,0,0,0,0,0,0,0,0,0,0,0,0,0,0],"sum_hessian":[2.7096405E2,5.4338882E1,2.1662515E2,4.0882847E1,1.3456038E1,8.123331E0,2.0850183E2,8.39055E0,3.2492294E1,6.2510905E0,7.204948E0,1.5646285E0,6.5587025E0,1.9248795E2,1.601388E1],"tree_param":{"num_deleted":"0","num_feature":"22","num_nodes":"15","size_leaf_vector":"1"}},{"base_weights":[-3.3758584E-2,-1.00666165E-1,8.316174E-2,-5.316137E-2,-6.318156E-1,-3.1919688E-1,2.0108423E-1,7.379825E-2,-4.068374E-2,1.08563855E-1,-2.5460958E-1,-1.2705302E-1,2.5930262E-1,-2.3220848E-2,9.297165E-2],"categories":[],"categories_nodes":[],"categories_segments":[],"categories_sizes":[],"default_left":[0,0,0,0,0,0,0,0,0,0,0,0,0,0,0],"id":69,"left_children":[1,3,5,7,9,11,13,-1,-1,-1,-1,-1,-1,-1,-1],"loss_changes":[2.149431E0,4.3701687E0,4.8166423E0,4.011775E0,3.3752465E0,3.2165499E0,2.390062E0,0E0,0E0,0E0,0E0,0E0,0E0,0E0,0E0],"parents":[2147483647,0,0,1,1,2,2,3,3,4,4,5,5,6,6],"right_children":[2,4,6,8,10,12,14,-1,-1,-1,-1,-1,-1,-1,-1],"split_conditions":[7.08E1,9.05E0,8.3036184E-1,6.52E-1,2.00001E0,1.29E1,4.4953163E1,7.379825E-2,-4.068374E-2,1.08563855E-1,-2.5460958E-1,-1.2705302E-1,2.5930262E-1,-2.3220848E-2,9.297165E-2],"split_indices":[0,1,7,7,16,3,2,0,0,0,0,0,0,0,0],"split_type":[0,0,0,0,0,0,0,0,0,0,0,0,0,0,0],"sum_hessian":[2.7269284E2,1.7352963E2,9.91632E1,1.6029344E2,1.3236191E1,2.208863E1,7.707457E1,3.4204926E1,1.2608851E2,2.2515757E0,1.0984615E1,2.0889652E1,1.1989778E0,2.1736614E1,5.5337955E1],"tree_param":{"num_deleted":"0","num_feature":"22","num_nodes":"15","size_leaf_vector":"1"}},{"base_weights":[2.474468E-2,2.0151848E-1,-3.8081057E-2,3.495617E-1,-9.8235644E-2,-6.9217783E-1,9.0696855E-4,2.9823009E-2,2.091158E-1,2.2915842E-1,-7.906513E-2,-3.8237593E-1,-5.1731907E-2,-2.79395E-2,3.157741E-2],"categories":[],"categories_nodes":[],"categories_segments":[],"categories_sizes":[],"default_left":[0,0,0,0,0,0,1,0,0,0,0,0,0,0,0],"id":70,"left_children":[1,3,5,7,9,11,13,-1,-1,-1,-1,-1,-1,-1,-1],"loss_changes":[3.0015993E0,3.1782203E0,5.0942097E0,4.0721083E0,3.6505754E0,3.1816125E0,1.8693348E0,0E0,0E0,0E0,0E0,0E0,0E0,0E0,0E0],"parents":[2147483647,0,0,1,1,2,2,3,3,4,4,5,5,6,6],"right_children":[2,4,6,8,10,12,14,-1,-1,-1,-1,-1,-1,-1,-1],"split_conditions":[6.5E0,8.6E0,7.4E0,6.17074E0,6.9E0,6.9011683E0,1.611E0,2.9823009E-2,2.091158E-1,2.2915842E-1,-7.906513E-2,-3.8237593E-1,-5.1731907E-2,-2.79395E-2,3.157741E-2],"split_indices":[6,1,3,4,5,4,7,0,0,0,0,0,0,0,0],"split_type":[0,0,0,0,0,0,0,0,0,0,0,0,0,0,0],"sum_hessian":[2.6857864E2,6.9845535E1,1.987331E2,4.6643154E1,2.320238E1,1.0236873E1,1.8849623E2,2.7867785E1,1.8775368E1,3.1507812E0,2.00516E1,4.1425023E0,6.0943704E0,9.920374E1,8.929248E1],"tree_param":{"num_deleted":"0","num_feature":"22","num_nodes":"15","size_leaf_vector":"1"}},{"base_weights":[1.2672028E-2,2.7732778E-1,-2.1687256E-2,5.2153504E-1,-1.6995178E-1,-1.3961735E-1,9.939461E-2,1.900408E-1,-7.876758E-2,9.432221E-2,-2.276273E-1,-2.2559397E-1,-3.174474E-2,8.472593E-2,-3.6113676E-2],"categories":[],"categories_nodes":[],"categories_segments":[],"categories_sizes":[],"default_left":[0,0,0,0,0,0,0,0,0,0,0,0,0,0,0],"id":71,"left_children":[1,3,5,7,9,11,13,-1,-1,-1,-1,-1,-1,-1,-1],"loss_changes":[2.46189E0,3.4863229E0,3.4404092E0,1.9538174E0,3.586656E0,2.4452975E0,4.820073E0,0E0,0E0,0E0,0E0,0E0,0E0,0E0,0E0],"parents":[2147483647,0,0,1,1,2,2,3,3,4,4,5,5,6,6],"right_children":[2,4,6,8,10,12,14,-1,-1,-1,-1,-1,-1,-1,-1],"split_conditions":[3E0,2.164E0,6.98E1,8E0,8.370557E0,3.997595E1,1.7868431E-17,1.900408E-1,-7.876758E-2,9.432221E-2,-2.276273E-1,-2.2559397E-1,-3.174474E-2,8.472593E-2,-3.6113676E-2],"split_indices":[9,7,0,8,6,2,20,0,0,0,0,0,0,0,0],"split_type":[0,0,0,0,0,0,0,0,0,0,0,0,0,0,0],"sum_hessian":[2.6907285E2,3.0106117E1,2.3896672E2,1.9366379E1,1.0739739E1,1.209814E2,1.1798532E2,1.711518E1,2.2511983E0,6.1481876E0,4.5915513E0,5.2172203E0,1.15764175E2,6.4219185E1,5.376614E1],"tree_param":{"num_deleted":"0","num_feature":"22","num_nodes":"15","size_leaf_vector":"1"}},{"base_weights":[1.6978787E-3,-1.493955E-1,8.868358E-2,-3.1424817E-1,7.348327E-2,2.605718E-1,-6.09154E-2,-5.8687016E-2,-2.0257154E-1,5.4378305E-2,-2.2303878E-1,1.736972E-2,1.7215614E-1,-5.6644667E-2,6.9357246E-2],"categories":[],"categories_nodes":[],"categories_segments":[],"categories_sizes":[],"default_left":[0,0,0,0,0,0,0,0,0,0,0,0,0,0,0],"id":72,"left_children":[1,3,5,7,9,11,13,-1,-1,-1,-1,-1,-1,-1,-1],"loss_changes":[3.490513E0,3.5884743E0,4.3496184E0,2.26466E0,3.8388155E0,4.9582887E0,3.4404666E0,0E0,0E0,0E0,0E0,0E0,0E0,0E0,0E0],"parents":[2147483647,0,0,1,1,2,2,3,3,4,4,5,5,6,6],"right_children":[2,4,6,8,10,12,14,-1,-1,-1,-1,-1,-1,-1,-1],"split_conditions":[6.68E1,2.00001E0,2.00001E0,4.241811E1,8.030669E0,4.4953163E1,4.6202583E1,-5.8687016E-2,-2.0257154E-1,5.4378305E-2,-2.2303878E-1,1.736972E-2,1.7215614E-1,-5.6644667E-2,6.9357246E-2],"split_indices":[0,10,10,2,1,2,2,0,0,0,0,0,0,0,0],"split_type":[0,0,0,0,0,0,0,0,0,0,0,0,0,0,0],"sum_hessian":[2.6357233E2,9.60379E1,1.6753442E2,5.496959E1,4.106831E1,7.76143E1,8.992012E1,4.2534317E1,1.2435272E1,3.6969177E1,4.099133E0,4.784595E1,2.9768354E1,6.278361E1,2.7136507E1],"tree_param":{"num_deleted":"0","num_feature":"22","num_nodes":"15","size_leaf_vector":"1"}},{"base_weights":[-5.3424936E-2,-7.6189324E-2,4.070977E-1,2.9379416E-1,-9.83078E-2,8.6624825E-1,-1.8260857E-1,-1.30196E-1,1.8009724E-1,-3.4385186E-1,-2.4980009E-2,3.8833573E-2,2.8978375E-1,-2.9996404E-1,1.2779407E-1],"categories":[],"categories_nodes":[],"categories_segments":[],"categories_sizes":[],"default_left":[1,0,0,0,0,0,0,0,0,0,0,0,0,0,0],"id":73,"left_children":[1,3,5,7,9,11,13,-1,-1,-1,-1,-1,-1,-1,-1],"loss_changes":[2.8582883E0,2.1387982E0,3.640425E0,3.5610366E0,3.750761E0,4.1891003E-1,3.636968E0,0E0,0E0,0E0,0E0,0E0,0E0,0E0,0E0],"parents":[2147483647,0,0,1,1,2,2,3,3,4,4,5,5,6,6],"right_children":[2,4,6,8,10,12,14,-1,-1,-1,-1,-1,-1,-1,-1],"split_conditions":[4.304E0,5.97E1,8.9E0,1.1952286E-1,3.96E1,6.4E0,4.4953163E1,-1.30196E-1,1.8009724E-1,-3.4385186E-1,-2.4980009E-2,3.8833573E-2,2.8978375E-1,-2.9996404E-1,1.2779407E-1],"split_indices":[7,0,1,21,2,1,2,0,0,0,0,0,0,0,0],"split_type":[0,0,0,0,0,0,0,0,0,0,0,0,0,0,0],"sum_hessian":[2.6868735E2,2.5682654E2,1.1860798E1,1.379472E1,2.4303183E2,6.4049206E0,5.455877E0,3.9649956E0,9.829723E0,2.374939E0,2.4065689E2,1.0372945E0,5.367626E0,2.0542645E0,3.4016125E0],"tree_param":{"num_deleted":"0","num_feature":"22","num_nodes":"15","size_leaf_vector":"1"}},{"base_weights":[2.9917749E-2,4.089034E-3,4.3191725E-1,-2.9303981E-2,3.3603314E-1,-3.36552E-1,6.06436E-1,3.759425E-3,-1.09432854E-1,1.8476678E-1,-8.883983E-2,1.8302302E-1,-2.8452218E-1,2.3552357E-1,1.4531171E-3],"categories":[],"categories_nodes":[],"categories_segments":[],"categories_sizes":[],"default_left":[0,0,0,0,0,0,0,0,0,0,0,0,0,0,0],"id":74,"left_children":[1,3,5,7,9,11,13,-1,-1,-1,-1,-1,-1,-1,-1],"loss_changes":[2.8283043E0,2.859908E0,2.4096558E0,3.2962062E0,4.354353E0,2.7139306E0,1.4748683E0,0E0,0E0,0E0,0E0,0E0,0E0,0E0,0E0],"parents":[2147483647,0,0,1,1,2,2,3,3,4,4,5,5,6,6],"right_children":[2,4,6,8,10,12,14,-1,-1,-1,-1,-1,-1,-1,-1],"split_conditions":[1.34E1,1.035E1,1.2278036E1,9.6E0,9.015211E0,4.2385994E1,1E1,3.759425E-3,-1.09432854E-1,1.8476678E-1,-8.883983E-2,1.8302302E-1,-2.8452218E-1,2.3552357E-1,1.4531171E-3],"split_indices":[5,1,3,1,4,2,1,0,0,0,0,0,0,0,0],"split_type":[0,0,0,0,0,0,0,0,0,0,0,0,0,0,0],"sum_hessian":[2.7156427E2,2.5611865E2,1.5445609E1,2.3353694E2,2.2581703E1,2.6866891E0,1.275892E1,2.0849857E2,2.5038378E1,1.56703005E1,6.911402E0,1.0559257E0,1.6307635E0,9.60247E0,3.156449E0],"tree_param":{"num_deleted":"0","num_feature":"22","num_nodes":"15","size_leaf_vector":"1"}},{"base_weights":[-1.2085106E-2,8.9050215E-3,-6.3943565E-1,6.929112E-2,-1.4585255E-1,9.264737E-2,-8.8661563E-1,8.0816646E-4,8.395206E-2,-1.1055646E-1,7.3298864E-2,-1.871479E-2,-3.6718458E-1],"categories":[],"categories_nodes":[],"categories_segments":[],"categories_sizes":[],"default_left":[0,0,0,0,0,0,0,0,0,0,0,0,0],"id":75,"left_children":[1,3,5,7,9,-1,11,-1,-1,-1,-1,-1,-1],"loss_changes":[3.542274E0,2.4479122E0,2.3150587E0,2.6398869E0,6.47932E0,0E0,1.9161944E0,0E0,0E0,0E0,0E0,0E0,0E0],"parents":[2147483647,0,0,1,1,2,2,3,3,4,4,6,6],"right_children":[2,4,6,8,10,-1,12,-1,-1,-1,-1,-1,-1],"split_conditions":[4.654E0,4.53E1,4.28E1,2.00001E0,5E0,9.264737E-2,9.093021E0,8.0816646E-4,8.395206E-2,-1.1055646E-1,7.3298864E-2,-1.871479E-2,-3.6718458E-1],"split_indices":[7,2,2,14,8,0,5,0,0,0,0,0,0],"split_type":[0,0,0,0,0,0,0,0,0,0,0,0,0],"sum_hessian":[2.6757037E2,2.5986163E2,7.708742E0,1.8732144E2,7.25402E1,1.5423626E0,6.16638E0,1.4307822E2,4.4243225E1,4.62193E1,2.63209E1,2.1349099E0,4.03147E0],"tree_param":{"num_deleted":"0","num_feature":"22","num_nodes":"13","size_leaf_vector":"1"}},{"base_weights":[9.58934E-3,7.0209384E-2,-2.1519808E-1,9.2359394E-2,-3.1470293E-1,3.1483307E-2,-3.750673E-1,9.957787E-3,9.531338E-2,1.14247434E-1,-1.8677074E-1,-1.8998833E-1,1.2976058E-1,-1.3376796E-1,2.3491664E-1],"categories":[],"categories_nodes":[],"categories_segments":[],"categories_sizes":[],"default_left":[0,0,0,0,0,0,0,0,0,0,0,0,0,0,0],"id":76,"left_children":[1,3,5,7,9,11,13,-1,-1,-1,-1,-1,-1,-1,-1],"loss_changes":[3.7193747E0,1.8608879E0,2.2985253E0,2.708627E0,2.789112E0,6.5989747E0,3.2414007E0,0E0,0E0,0E0,0E0,0E0,0E0,0E0,0E0],"parents":[2147483647,0,0,1,1,2,2,3,3,4,4,5,5,6,6],"right_children":[2,4,6,8,10,12,14,-1,-1,-1,-1,-1,-1,-1,-1],"split_conditions":[6E0,1.07E1,7.72E-1,9.35E0,1.0237963E1,1.1952286E-1,1.11E1,9.957787E-3,9.531338E-2,1.14247434E-1,-1.8677074E-1,-1.8998833E-1,1.2976058E-1,-1.3376796E-1,2.3491664E-1],"split_indices":[8,1,7,1,3,21,4,0,0,0,0,0,0,0,0],"split_type":[0,0,0,0,0,0,0,0,0,0,0,0,0,0,0],"sum_hessian":[2.7084036E2,2.1385594E2,5.698441E1,2.029378E2,1.091813E1,2.2723957E1,3.4260452E1,1.6164479E2,4.129302E1,3.2772415E0,7.640889E0,8.332705E0,1.4391252E1,3.286552E1,1.3949306E0],"tree_param":{"num_deleted":"0","num_feature":"22","num_nodes":"15","size_leaf_vector":"1"}},{"base_weights":[4.649819E-2,3.4968102E-1,1.2254805E-2,-1.4483652E-1,7.2352874E-1,1.6781706E-1,-5.41768E-2,1.7766293E-2,-3.2889432E-1,2.744167E-1,-1.8622676E-1,-1.7823847E-1,6.9969684E-2,5.1654055E-4,-7.602062E-2],"categories":[],"categories_nodes":[],"categories_segments":[],"categories_sizes":[],"default_left":[0,0,0,0,0,0,0,0,0,0,0,0,0,0,0],"id":77,"left_children":[1,3,5,7,9,11,13,-1,-1,-1,-1,-1,-1,-1,-1],"loss_changes":[2.7675161E0,5.1071258E0,2.498853E0,2.4884217E0,4.5710945E0,3.7442124E0,1.8889825E0,0E0,0E0,0E0,0E0,0E0,0E0,0E0,0E0],"parents":[2147483647,0,0,1,1,2,2,3,3,4,4,5,5,6,6],"right_children":[2,4,6,8,10,12,14,-1,-1,-1,-1,-1,-1,-1,-1],"split_conditions":[6.32E0,5.99E1,1E0,5.95E1,5E0,6.7E0,1E1,1.7766293E-2,-3.2889432E-1,2.744167E-1,-1.8622676E-1,-1.7823847E-1,6.9969684E-2,5.1654055E-4,-7.602062E-2],"split_indices":[1,0,7,0,9,1,9,0,0,0,0,0,0,0,0],"split_type":[0,0,0,0,0,0,0,0,0,0,0,0,0,0,0],"sum_hessian":[2.659813E2,2.605803E1,2.3992326E2,1.1482203E1,1.4575826E1,7.134027E1,1.68583E2,1.0226705E1,1.2554982E0,1.3040643E1,1.5351834E0,5.001479E0,6.633879E1,1.3241997E2,3.6163025E1],"tree_param":{"num_deleted":"0","num_feature":"22","num_nodes":"15","size_leaf_vector":"1"}},{"base_weights":[-4.8473366E-3,-5.881788E-2,1.8817066E-1,-4.2665884E-2,-1.0569382E0,2.7574125E-1,1.2705216E-1,-7.822284E-2,2.2532654E-3,-6.7639545E-2,-4.0032294E-1,2.3392737E-2,2.6893955E-1],"categories":[],"categories_nodes":[],"categories_segments":[],"categories_sizes":[],"default_left":[1,0,0,0,0,0,0,0,0,0,0,0,0],"id":78,"left_children":[1,3,5,7,9,-1,11,-1,-1,-1,-1,-1,-1],"loss_changes":[2.7559147E0,3.2868464E0,2.466115E0,2.2388687E0,4.487555E-1,0E0,1.9885368E0,0E0,0E0,0E0,0E0,0E0,0E0],"parents":[2147483647,0,0,1,1,2,2,3,3,4,4,6,6],"right_children":[2,4,6,8,10,-1,12,-1,-1,-1,-1,-1,-1],"split_conditions":[2.72E0,2.698E0,2.807E0,4.1520138E1,8.9E0,2.7574125E-1,7.7E1,-7.822284E-2,2.2532654E-3,-6.7639545E-2,-4.0032294E-1,2.3392737E-2,2.6893955E-1],"split_indices":[7,7,7,2,3,0,0,0,0,0,0,0,0],"split_type":[0,0,0,0,0,0,0,0,0,0,0,0,0],"sum_hessian":[2.6248962E2,2.0567523E2,5.6814407E1,2.0342606E2,2.249178E0,3.3006456E0,5.3513763E1,3.7265835E1,1.6616022E2,1.0162994E0,1.2328784E0,5.13404E1,2.173361E0],"tree_param":{"num_deleted":"0","num_feature":"22","num_nodes":"13","size_leaf_vector":"1"}},{"base_weights":[-6.724861E-2,-8.262567E-2,2.9758763E-1,-6.0352486E-2,-5.0210446E-1,-3.1780902E-2,2.9574752E-1,-4.644503E-2,1.2769881E-2,6.865718E-2,-2.4877428E-1,2.1860597E-1,-1.2751426E-1],"categories":[],"categories_nodes":[],"categories_segments":[],"categories_sizes":[],"default_left":[0,0,0,1,0,0,0,0,0,0,0,0,0],"id":79,"left_children":[1,3,5,7,9,11,-1,-1,-1,-1,-1,-1,-1],"loss_changes":[1.5472319E0,2.410278E0,2.5688381E0,2.4291809E0,3.3065774E0,2.8636453E0,0E0,0E0,0E0,0E0,0E0,0E0,0E0],"parents":[2147483647,0,0,1,1,2,2,3,3,4,4,5,5],"right_children":[2,4,6,8,10,12,-1,-1,-1,-1,-1,-1,-1],"split_conditions":[1.1E1,1.05E1,1.03E1,1.611E0,4E0,9.626762E0,2.9574752E-1,-4.644503E-2,1.2769881E-2,6.865718E-2,-2.4877428E-1,2.1860597E-1,-1.2751426E-1],"split_indices":[1,1,4,7,8,3,0,0,0,0,0,0,0],"split_type":[0,0,0,0,0,0,0,0,0,0,0,0,0],"sum_hessian":[2.7041077E2,2.602167E2,1.0194044E1,2.4818275E2,1.2033958E1,7.539636E0,2.6544075E0,1.2914363E2,1.1903912E2,3.813528E0,8.22043E0,2.2792664E0,5.26037E0],"tree_param":{"num_deleted":"0","num_feature":"22","num_nodes":"13","size_leaf_vector":"1"}},{"base_weights":[4.003369E-3,-2.377475E-1,4.9923133E-2,-6.263509E-2,-6.499536E-1,-1.8218939E-1,8.904125E-2,-1.3500376E-1,5.1037204E-2,-1.4892902E-3,-2.885625E-1,-3.77661E-1,-1.42558105E-2,-8.937319E-3,6.326361E-2],"categories":[],"categories_nodes":[],"categories_segments":[],"categories_sizes":[],"default_left":[0,0,0,0,0,0,0,0,0,0,0,0,0,0,0],"id":80,"left_children":[1,3,5,7,9,11,13,-1,-1,-1,-1,-1,-1,-1,-1],"loss_changes":[2.8772733E0,2.9459043E0,1.9932778E0,2.7947E0,2.4556947E0,4.541216E0,2.7138553E0,0E0,0E0,0E0,0E0,0E0,0E0,0E0,0E0],"parents":[2147483647,0,0,1,1,2,2,3,3,4,4,5,5,6,6],"right_children":[2,4,6,8,10,12,14,-1,-1,-1,-1,-1,-1,-1,-1],"split_conditions":[6.7E0,8.767687E0,7.8E0,1.165E0,3.997595E1,5E0,1.611E0,-1.3500376E-1,5.1037204E-2,-1.4892902E-3,-2.885625E-1,-3.77661E-1,-1.42558105E-2,-8.937319E-3,6.326361E-2],"split_indices":[1,6,3,7,2,9,7,0,0,0,0,0,0,0,0],"split_type":[0,0,0,0,0,0,0,0,0,0,0,0,0,0,0],"sum_hessian":[2.5711795E2,4.0375927E1,2.1674203E2,2.9146101E1,1.1229826E1,3.0732033E1,1.8601E2,1.0589227E1,1.8556873E1,3.9917083E0,7.238117E0,2.4885314E0,2.8243502E1,9.454877E1,9.146123E1],"tree_param":{"num_deleted":"0","num_feature":"22","num_nodes":"15","size_leaf_vector":"1"}},{"base_weights":[-1.0426669E-2,-6.9766045E-2,2.360362E-1,-9.601374E-2,4.364463E-1,-3.817825E-1,3.2657102E-1,-7.6064556E-3,-8.69647E-2,-5.2440766E-2,2.0202313E-1,6.771905E-2,-2.2797216E-1,1.10796794E-1,-2.0646296E-1],"categories":[],"categories_nodes":[],"categories_segments":[],"categories_sizes":[],"default_left":[0,1,0,0,0,0,0,0,0,0,0,0,0,0,0],"id":81,"left_children":[1,3,5,7,9,11,13,-1,-1,-1,-1,-1,-1,-1,-1],"loss_changes":[3.7980828E0,2.8211274E0,2.9439201E0,2.7279546E0,1.6373289E0,1.7572677E0,2.1847324E0,0E0,0E0,0E0,0E0,0E0,0E0,0E0,0E0],"parents":[2147483647,0,0,1,1,2,2,3,3,4,4,5,5,6,6],"right_children":[2,4,6,8,10,12,14,-1,-1,-1,-1,-1,-1,-1,-1],"split_conditions":[9.103857E0,4.18E0,8.370557E0,4.530414E1,6.126054E0,1.0059298E1,1.8E1,-7.6064556E-3,-8.69647E-2,-5.2440766E-2,2.0202313E-1,6.771905E-2,-2.2797216E-1,1.10796794E-1,-2.0646296E-1],"split_indices":[4,7,6,2,4,5,3,0,0,0,0,0,0,0,0],"split_type":[0,0,0,0,0,0,0,0,0,0,0,0,0,0,0],"sum_hessian":[2.5757288E2,2.0816997E2,4.9402897E1,1.9867859E2,9.491385E0,5.9030333E0,4.3499863E1,1.4643756E2,5.2241024E1,2.724881E0,6.766505E0,2.4192235E0,3.4838097E0,4.235169E1,1.148174E0],"tree_param":{"num_deleted":"0","num_feature":"22","num_nodes":"15","size_leaf_vector":"1"}},{"base_weights":[-1.62936E-2,-5.2893255E-2,1.6652197E-1,2.0906286E-1,-9.677064E-2,-2.3583181E-1,2.3204656E-1,-1.0966103E-1,1.328432E-1,-1.3738702E-2,-1.096011E-1,2.5826576E-1,3.4417685E-2],"categories":[],"categories_nodes":[],"categories_segments":[],"categories_sizes":[],"default_left":[0,0,0,0,0,0,0,0,0,0,0,0,0],"id":82,"left_children":[1,3,5,7,9,-1,11,-1,-1,-1,-1,-1,-1],"loss_changes":[1.7755345E0,2.55764E0,2.9467287E0,4.4582863E0,2.581277E0,0E0,3.0151267E0,0E0,0E0,0E0,0E0,0E0,0E0],"parents":[2147483647,0,0,1,1,2,2,3,3,4,4,6,6],"right_children":[2,4,6,8,10,-1,12,-1,-1,-1,-1,-1,-1],"split_conditions":[4.6036083E1,7.6E0,8.35E0,6.56E1,4.53E1,-2.3583181E-1,9.25E0,-1.0966103E-1,1.328432E-1,-1.3738702E-2,-1.096011E-1,2.5826576E-1,3.4417685E-2],"split_indices":[2,5,1,0,2,0,1,0,0,0,0,0,0],"split_type":[0,0,0,0,0,0,0,0,0,0,0,0,0],"sum_hessian":[2.6304578E2,2.1976042E2,4.3285336E1,3.098852E1,1.8877191E2,2.0779521E0,4.1207382E1,8.797837E0,2.2190681E1,1.5964177E2,2.913013E1,5.4826355E0,3.572475E1],"tree_param":{"num_deleted":"0","num_feature":"22","num_nodes":"13","size_leaf_vector":"1"}},{"base_weights":[-8.00755E-3,2.5965795E-1,-3.9581675E-2,1.103124E-1,7.356383E-1,1.22325726E-1,-8.3425954E-2,8.024659E-2,-1.5249872E-1,-3.2492988E-3,3.7959665E-1,1.610958E-1,-8.4346505E-3,-3.643868E-2,3.9087106E-2],"categories":[],"categories_nodes":[],"categories_segments":[],"categories_sizes":[],"default_left":[0,0,0,0,0,0,0,0,0,0,0,0,0,0,0],"id":83,"left_children":[1,3,5,7,9,11,13,-1,-1,-1,-1,-1,-1,-1,-1],"loss_changes":[2.2252595E0,1.8940551E0,1.6805413E0,2.306912E0,2.567844E0,3.1682928E0,1.5258212E0,0E0,0E0,0E0,0E0,0E0,0E0,0E0,0E0],"parents":[2147483647,0,0,1,1,2,2,3,3,4,4,5,5,6,6],"right_children":[2,4,6,8,10,12,14,-1,-1,-1,-1,-1,-1,-1,-1],"split_conditions":[4.08E1,4E0,8.1E0,6.22E1,4.016571E1,6.7596504E1,4.6202583E1,8.024659E-2,-1.5249872E-1,-3.2492988E-3,3.7959665E-1,1.610958E-1,-8.4346505E-3,-3.643868E-2,3.9087106E-2],"split_indices":[2,9,3,0,2,0,2,0,0,0,0,0,0,0,0],"split_type":[0,0,0,0,0,0,0,0,0,0,0,0,0,0,0],"sum_hessian":[2.6108755E2,2.6786318E1,2.3430124E2,2.1326565E1,5.4597526E0,4.954656E1,1.8475468E2,1.7458548E1,3.8680174E0,2.6727161E0,2.7870362E0,1.2506248E1,3.704031E1,1.5720728E2,2.7547411E1],"tree_param":{"num_deleted":"0","num_feature":"22","num_nodes":"15","size_leaf_vector":"1"}},{"base_weights":[4.444513E-2,5.8315296E-2,-5.7055897E-1,-9.273059E-3,1.472617E-1,1.029623E-1,-8.5741174E-1,1.9109584E-2,-1.885717E-1,1.0440286E-1,1.6272927E-2,